{"learner":{"attributes":{"scikit_learn":"{\"_estimator_type\": \"regressor\"}"},"feature_names":["recaudo_lag1","recaudo_lag3","recaudo_lag6","recaudo_lag12","rolling_mean_3m","rolling_std_3m","rolling_mean_6m","rolling_std_6m","rolling_mean_12m","rolling_std_12m","mes","año","trimestre","es_periodo_renta","es_pico_fin_año"],"feature_types":["float","float","float","float","float","float","float","float","float","float","int","int","int","int","int"],"gradient_booster":{"model":{"cats":{"enc":[],"feature_segments":[],"sorted_idx":[]},"gbtree_model_param":{"num_parallel_tree":"1","num_trees":"100"},"iteration_indptr":[0,1,2,3,4,5,6,7,8,9,10,11,12,13,14,15,16,17,18,19,20,21,22,23,24,25,26,27,28,29,30,31,32,33,34,35,36,37,38,39,40,41,42,43,44,45,46,47,48,49,50,51,52,53,54,55,56,57,58,59,60,61,62,63,64,65,66,67,68,69,70,71,72,73,74,75,76,77,78,79,80,81,82,83,84,85,86,87,88,89,90,91,92,93,94,95,96,97,98,99,100],"tree_info":[0,0,0,0,0,0,0,0,0,0,0,0,0,0,0,0,0,0,0,0,0,0,0,0,0,0,0,0,0,0,0,0,0,0,0,0,0,0,0,0,0,0,0,0,0,0,0,0,0,0,0,0,0,0,0,0,0,0,0,0,0,0,0,0,0,0,0,0,0,0,0,0,0,0,0,0,0,0,0,0,0,0,0,0,0,0,0,0,0,0,0,0,0,0,0,0,0,0,0,0],"trees":[{"base_weights":[7.6726246E8,-1.0268413E10,6.317488E10,-2.4318984E10,-2.4912271E9,7.7570195E8,2.2922837E8,-2.700577E10,-7.2567096E7,3.7964077E8,-6.0557445E9,-9.891691E7,-3.0047827E8,-7.928228E9,-1.7878707E9,-8.491034E7,-2.44736E5,-3.81704E7,6.2081576E7],"categories":[],"categories_nodes":[],"categories_segments":[],"categories_sizes":[],"default_left":[0,0,0,0,0,0,0,0,0,0,0,0,0,0,0,0,0,0,0],"id":0,"left_children":[1,3,5,7,9,-1,-1,11,-1,-1,13,-1,-1,15,17,-1,-1,-1,-1],"loss_changes":[2.7508405E22,3.6547285E21,1.6985146E21,3.5413887E20,3.5465847E21,0E0,0E0,2.2339656E20,0E0,0E0,1.616389E20,0E0,0E0,6.6516337E19,1.5349914E20,0E0,0E0,0E0,0E0],"parents":[2147483647,0,0,1,1,2,2,3,3,4,4,7,7,10,10,13,13,14,14],"right_children":[2,4,6,8,10,-1,-1,12,-1,-1,14,-1,-1,16,18,-1,-1,-1,-1],"split_conditions":[8.50362E10,5.6566755E10,1.7008604E11,5.5722185E10,3.64693E10,7.7570195E8,2.2922837E8,6.9021834E9,-7.2567096E7,3.7964077E8,1E1,-9.891691E7,-3.0047827E8,9.165717E10,6.1198655E10,-8.491034E7,-2.44736E5,-3.81704E7,6.2081576E7],"split_indices":[2,6,3,3,0,0,0,7,0,0,10,0,0,4,4,0,0,0,0],"split_type":[0,0,0,0,0,0,0,0,0,0,0,0,0,0,0,0,0,0,0],"sum_hessian":[3.8E1,3.3E1,5E0,1.1E1,2.2E1,3E0,2E0,9E0,2E0,1E0,2.1E1,2E0,7E0,1.4E1,7E0,1.3E1,1E0,6E0,1E0],"tree_param":{"num_deleted":"0","num_feature":"15","num_nodes":"19","size_leaf_vector":"1"}},{"base_weights":[4.606412E9,-9.378238E9,7.640531E10,-2.192862E10,2.9455619E9,2.1394864E8,8.48092E8,-1.516056E8,-2.97254E8,3.7774253E8,-2.6392804E9,-7.905699E7,-9.6304966E8,3.6751644E7,-1.7943876E7],"categories":[],"categories_nodes":[],"categories_segments":[],"categories_sizes":[],"default_left":[0,0,0,0,0,0,0,0,0,0,0,0,0,0,0],"id":1,"left_children":[1,3,5,7,9,-1,-1,-1,-1,-1,11,-1,13,-1,-1],"loss_changes":[3.083902E22,4.0859704E21,4.970285E20,2.353446E20,2.8228754E21,0E0,0E0,0E0,0E0,0E0,1.0714695E20,0E0,4.9009825E19,0E0,0E0],"parents":[2147483647,0,0,1,1,2,2,3,3,4,4,10,10,12,12],"right_children":[2,4,6,8,10,-1,-1,-1,-1,-1,12,-1,14,-1,-1],"split_conditions":[7.170296E10,4.8535454E10,2.1480583E10,2.024E3,3.64693E10,2.1394864E8,8.48092E8,-1.516056E8,-2.97254E8,3.7774253E8,4.2020307E10,-7.905699E7,3.7594784E10,3.6751644E7,-1.7943876E7],"split_indices":[2,4,0,11,0,0,0,0,0,0,2,0,7,0,0],"split_type":[0,0,0,0,0,0,0,0,0,0,0,0,0,0,0],"sum_hessian":[2.9E1,2.5E1,4E0,1.2E1,1.3E1,1E0,3E0,8E0,4E0,1E0,1.2E1,2E0,1E1,1E0,9E0],"tree_param":{"num_deleted":"0","num_feature":"15","num_nodes":"15","size_leaf_vector":"1"}},{"base_weights":[-3.1108913E9,-1.262556E10,5.2696363E10,-7.4897254E9,-3.1064634E8,5.9702394E8,1.23361176E8,-1.339712E8,-4.776309E9,-6.447416E9,-3.595264E8,-7.290297E7,-1.2077124E7,3.656788E7,-1.8941468E7],"categories":[],"categories_nodes":[],"categories_segments":[],"categories_sizes":[],"default_left":[0,0,0,0,0,0,0,0,0,0,0,0,0,0,0],"id":2,"left_children":[1,3,5,7,-1,-1,-1,-1,9,11,13,-1,-1,-1,-1],"loss_changes":[1.8187908E22,2.5136352E21,6.773301E20,3.207126E20,0E0,0E0,0E0,0E0,1.3053845E20,4.860925E19,4.3907603E19,0E0,0E0,0E0,0E0],"parents":[2147483647,0,0,1,1,2,2,3,3,8,8,9,9,10,10],"right_children":[2,4,6,8,-1,-1,-1,-1,10,12,14,-1,-1,-1,-1],"split_conditions":[8.50362E10,2.024E3,4.268008E10,2.7641709E10,-3.1064634E8,5.9702394E8,1.23361176E8,-1.339712E8,1E1,9.165717E10,4.646198E10,-7.290297E7,-1.2077124E7,3.656788E7,-1.8941468E7],"split_indices":[2,11,0,9,0,0,0,0,10,4,0,0,0,0,0],"split_type":[0,0,0,0,0,0,0,0,0,0,0,0,0,0,0],"sum_hessian":[3.2E1,2.8E1,4E0,2.3E1,5E0,3E0,1E0,6E0,1.7E1,1.2E1,5E0,1E1,2E0,1E0,4E0],"tree_param":{"num_deleted":"0","num_feature":"15","num_nodes":"15","size_leaf_vector":"1"}},{"base_weights":[2.3971725E9,-1.1397203E10,6.7085345E10,3.7621837E8,-1.4104731E10,8.061396E8,2.2175877E8,-7.7327785E9,-3.2253987E8,-1.2928308E8,-4.9940557E9,-7.5171144E7,-1.6357616E7],"categories":[],"categories_nodes":[],"categories_segments":[],"categories_sizes":[],"default_left":[0,0,0,0,0,0,0,0,0,0,0,0,0],"id":3,"left_children":[1,3,5,-1,7,-1,-1,9,-1,-1,11,-1,-1],"loss_changes":[3.5565573E22,4.910419E21,2.4652524E21,0E0,3.451266E21,0E0,0E0,2.9116306E20,0E0,0E0,1.4022091E20,0E0,0E0],"parents":[2147483647,0,0,1,1,2,2,4,4,7,7,10,10],"right_children":[2,4,6,-1,8,-1,-1,10,-1,-1,12,-1,-1],"split_conditions":[8.50362E10,2.8669202E10,1.7008604E11,3.7621837E8,2.024E3,8.061396E8,2.2175877E8,4.8365294E10,-3.2253987E8,-1.2928308E8,5.28812E10,-7.5171144E7,-1.6357616E7],"split_indices":[2,3,3,0,11,0,0,4,0,0,1,0,0],"split_type":[0,0,0,0,0,0,0,0,0,0,0,0,0],"sum_hessian":[3.8E1,3.2E1,6E0,1E0,3.1E1,4E0,2E0,2.4E1,7E0,7E0,1.7E1,9E0,8E0],"tree_param":{"num_deleted":"0","num_feature":"15","num_nodes":"13","size_leaf_vector":"1"}},{"base_weights":[-4.8320867E8,-8.3119304E9,5.4438646E10,-1.8138018E10,2.8097303E9,6.447582E8,1.2163559E8,-1.1358313E10,-2.9425766E8,3.7433728E8,-2.733172E9,-1.32994616E8,-6.3690424E7,2.7880973E9,-6.5324774E9,6.5487148E7,-7.2939005E6,-2.36447E7,-1.0109367E8],"categories":[],"categories_nodes":[],"categories_segments":[],"categories_sizes":[],"default_left":[0,0,0,0,0,0,0,0,0,0,0,0,0,0,0,0,0,0,0],"id":4,"left_children":[1,3,5,7,9,-1,-1,11,-1,-1,13,-1,-1,15,17,-1,-1,-1,-1],"loss_changes":[1.3781496E22,3.1108704E21,9.130339E20,8.1368674E20,2.789157E21,0E0,0E0,2.1829229E19,0E0,0E0,2.9091403E20,0E0,0E0,8.414411E19,9.536474E19,0E0,0E0,0E0,0E0],"parents":[2147483647,0,0,1,1,2,2,3,3,4,4,7,7,10,10,13,13,14,14],"right_children":[2,4,6,8,10,-1,-1,12,-1,-1,14,-1,-1,16,18,-1,-1,-1,-1],"split_conditions":[8.50362E10,5.5718593E10,4.268008E10,2.024E3,3.64693E10,6.447582E8,1.2163559E8,4.834571E10,-2.9425766E8,3.7433728E8,4.536031E10,-1.32994616E8,-6.3690424E7,4.5294203E10,5.750759E10,6.5487148E7,-7.2939005E6,-2.36447E7,-1.0109367E8],"split_indices":[2,4,0,11,0,0,0,4,0,0,3,0,0,2,0,0,0,0,0],"split_type":[0,0,0,0,0,0,0,0,0,0,0,0,0,0,0,0,0,0,0],"sum_hessian":[3E1,2.7E1,3E0,1.4E1,1.3E1,2E0,1E0,1E1,4E0,1E0,1.2E1,6E0,4E0,5E0,7E0,2E0,3E0,4E0,3E0],"tree_param":{"num_deleted":"0","num_feature":"15","num_nodes":"19","size_leaf_vector":"1"}},{"base_weights":[-6.7941555E9,-1.3223101E10,6.404598E8,-7.9648456E9,-3.086475E8,-1.1351914E10,-3.7045517E9,-4.4230736E7,-1.2138132E10,-7.1601644E9,1.5203574E9,-3.0611804E7,-1.268502E8,-1.16963496E8,-2.0991828E7,-6.3302945E6,6.1436456E7],"categories":[],"categories_nodes":[],"categories_segments":[],"categories_sizes":[],"default_left":[0,0,0,0,0,0,0,0,0,0,0,0,0,0,0,0,0],"id":5,"left_children":[1,3,-1,5,-1,7,9,-1,11,13,15,-1,-1,-1,-1,-1,-1],"loss_changes":[1.6331418E22,2.7226247E21,0E0,3.3312395E20,0E0,2.2578234E19,2.456044E20,0E0,2.0737528E19,1.5910764E20,6.3623482E19,0E0,0E0,0E0,0E0,0E0,0E0],"parents":[2147483647,0,0,1,1,3,3,5,5,6,6,8,8,9,9,10,10],"right_children":[2,4,-1,6,-1,8,10,-1,12,14,16,-1,-1,-1,-1,-1,-1],"split_conditions":[8.50362E10,2.024E3,6.404598E8,7E0,-3.086475E8,3.4425086E10,5.28812E10,-4.4230736E7,4.639491E9,4.7848255E10,6.6598806E10,-3.0611804E7,-1.268502E8,-1.16963496E8,-2.0991828E7,-6.3302945E6,6.1436456E7],"split_indices":[2,11,0,10,0,3,1,0,5,2,0,0,0,0,0,0,0],"split_type":[0,0,0,0,0,0,0,0,0,0,0,0,0,0,0,0,0],"sum_hessian":[3.3E1,3.1E1,2E0,2.5E1,6E0,1.3E1,1.2E1,2E0,1.1E1,7E0,5E0,1E0,1E1,3E0,4E0,4E0,1E0],"tree_param":{"num_deleted":"0","num_feature":"15","num_nodes":"17","size_leaf_vector":"1"}},{"base_weights":[9.048692E8,-8.994341E9,6.2099E8,3.7257056E8,-1.1777956E10,-6.9390935E9,-2.997689E8,-1.2986249E8,-4.345979E9,-6.4304676E7,-6.759982E6],"categories":[],"categories_nodes":[],"categories_segments":[],"categories_sizes":[],"default_left":[0,0,0,0,0,0,0,0,0,0,0],"id":6,"left_children":[1,3,-1,-1,5,7,-1,-1,9,-1,-1],"loss_changes":[2.1760612E22,4.4299404E21,0E0,0E0,2.433852E21,3.355863E20,0E0,0E0,1.4100366E20,0E0,0E0],"parents":[2147483647,0,0,1,1,4,4,5,5,8,8],"right_children":[2,4,-1,-1,6,8,-1,-1,10,-1,-1],"split_conditions":[6.6598806E10,2.8669202E10,6.2099E8,3.7257056E8,2.024E3,2.7641709E10,-2.997689E8,-1.2986249E8,1E1,-6.4304676E7,-6.759982E6],"split_indices":[2,3,0,0,11,9,0,0,10,0,0],"split_type":[0,0,0,0,0,0,0,0,0,0,0],"sum_hessian":[3.4E1,3E1,4E0,1E0,2.9E1,2.4E1,5E0,6E0,1.8E1,1.1E1,7E0],"tree_param":{"num_deleted":"0","num_feature":"15","num_nodes":"11","size_leaf_vector":"1"}},{"base_weights":[-3.0255575E9,-1.1860466E10,5.736646E8,-6.497048E9,-2.9549584E8,-1.0790316E10,-1.2228429E9,-5.675049E6,-1.1668071E10,6.4911932E7,-3.6583168E9,-3.013722E7,-1.22321336E8,-1.9997292E7,-8.4635096E7],"categories":[],"categories_nodes":[],"categories_segments":[],"categories_sizes":[],"default_left":[0,0,0,0,0,0,0,0,0,0,0,0,0,0,0],"id":7,"left_children":[1,3,-1,5,-1,7,9,-1,11,-1,13,-1,-1,-1,-1],"loss_changes":[1.6687129E22,2.369616E21,0E0,4.8496386E20,0E0,1.0105585E20,2.3040753E20,0E0,1.6833189E19,0E0,5.4803776E19,0E0,0E0,0E0,0E0],"parents":[2147483647,0,0,1,1,3,3,5,5,6,6,8,8,10,10],"right_children":[2,4,-1,6,-1,8,10,-1,12,-1,14,-1,-1,-1,-1],"split_conditions":[8.50362E10,2.024E3,5.736646E8,9E0,-2.9549584E8,3.286803E10,6.866408E10,-5.675049E6,4.639491E9,6.4911932E7,6.6598806E10,-3.013722E7,-1.22321336E8,-1.9997292E7,-8.4635096E7],"split_indices":[2,11,0,10,0,3,6,0,5,0,0,0,0,0,0],"split_type":[0,0,0,0,0,0,0,0,0,0,0,0,0,0,0],"sum_hessian":[2.9E1,2.6E1,3E0,2.1E1,5E0,1.1E1,1E1,1E0,1E1,2E0,8E0,1E0,9E0,7E0,1E0],"tree_param":{"num_deleted":"0","num_feature":"15","num_nodes":"15","size_leaf_vector":"1"}},{"base_weights":[-6.409069E9,-1.4126945E10,5.693621E8,-8.1713295E9,-3.0972378E8,-1.228288E10,-1.8218226E9,-2.9986528E7,-1.2731849E8,-1.0101779E8,1.1405876E9,6.4479176E7,-1.2969235E7],"categories":[],"categories_nodes":[],"categories_segments":[],"categories_sizes":[],"default_left":[0,0,0,0,0,0,0,0,0,0,0,0,0],"id":8,"left_children":[1,3,-1,5,-1,7,9,-1,-1,-1,11,-1,-1],"loss_changes":[1.791552E22,2.9573118E21,0E0,6.302806E20,0E0,2.434674E19,2.8133684E20,0E0,0E0,0E0,1.2479255E20,0E0,0E0],"parents":[2147483647,0,0,1,1,3,3,5,5,6,6,10,10],"right_children":[2,4,-1,6,-1,8,10,-1,-1,-1,12,-1,-1],"split_conditions":[8.50362E10,2.024E3,5.693621E8,9E0,-3.0972378E8,4.639491E9,3.4425086E10,-2.9986528E7,-1.2731849E8,-1.0101779E8,4.1851916E10,6.4479176E7,-1.2969235E7],"split_indices":[2,11,0,10,0,5,2,0,0,0,3,0,0],"split_type":[0,0,0,0,0,0,0,0,0,0,0,0,0],"sum_hessian":[3.4E1,3.1E1,3E0,2.4E1,7E0,1.4E1,1E1,1E0,1.3E1,2E0,8E0,2E0,6E0],"tree_param":{"num_deleted":"0","num_feature":"15","num_nodes":"13","size_leaf_vector":"1"}},{"base_weights":[-2.213546E9,-1.1751489E10,4.5918876E10,3.7137267E8,-1.5335906E10,5.1948342E8,1.0900504E8,-7.202988E9,-3.070137E8,-9.906031E9,1.2655199E9,-2.8357692E7,-1.0258904E8,-1.4439055E7,6.0516104E7],"categories":[],"categories_nodes":[],"categories_segments":[],"categories_sizes":[],"default_left":[0,0,0,0,0,0,0,0,0,0,0,0,0,0,0],"id":9,"left_children":[1,3,5,-1,7,-1,-1,9,-1,11,13,-1,-1,-1,-1],"loss_changes":[1.3853059E22,4.950476E21,4.8944783E20,0E0,2.7780443E21,0E0,0E0,4.0167872E20,0E0,3.342093E18,7.3575725E19,0E0,0E0,0E0,0E0],"parents":[2147483647,0,0,1,1,2,2,4,4,7,7,9,9,10,10],"right_children":[2,4,6,-1,8,-1,-1,10,-1,12,14,-1,-1,-1,-1],"split_conditions":[8.50362E10,2.8669202E10,1.7008604E11,3.7137267E8,2.024E3,5.1948342E8,1.0900504E8,9E0,-3.070137E8,3.4425086E10,5.616637E10,-2.8357692E7,-1.0258904E8,-1.4439055E7,6.0516104E7],"split_indices":[2,3,2,0,11,0,0,10,0,3,0,0,0,0,0],"split_type":[0,0,0,0,0,0,0,0,0,0,0,0,0,0,0],"sum_hessian":[2.8E1,2.4E1,4E0,1E0,2.3E1,3E0,1E0,1.6E1,7E0,1.2E1,4E0,1E0,1.1E1,3E0,1E0],"tree_param":{"num_deleted":"0","num_feature":"15","num_nodes":"15","size_leaf_vector":"1"}},{"base_weights":[5.2347126E9,-9.016781E9,7.086923E10,-2.4112544E10,7.0933984E8,1.9094139E8,7.740542E8,-2.912191E8,-8.065673E7,3.695158E8,-3.5961792E9,3.6896837E9,-4.8136064E9,6.0213532E7,-4.86828E6,-7.029784E7,-1.9957278E7],"categories":[],"categories_nodes":[],"categories_segments":[],"categories_sizes":[],"default_left":[0,0,0,0,0,0,0,0,0,0,0,0,0,0,0,0,0],"id":10,"left_children":[1,3,5,7,9,-1,-1,-1,-1,-1,11,13,15,-1,-1,-1,-1],"loss_changes":[3.150688E22,4.1281537E21,5.5248134E20,6.493436E20,2.9416342E21,0E0,0E0,0E0,0E0,0E0,1.685508E20,3.2146105E19,7.964422E19,0E0,0E0,0E0,0E0],"parents":[2147483647,0,0,1,1,2,2,3,3,4,4,10,10,11,11,12,12],"right_children":[2,4,6,8,10,-1,-1,-1,-1,-1,12,14,16,-1,-1,-1,-1],"split_conditions":[5.92377E10,5.6566755E10,2.1480583E10,5.5224095E10,3.64693E10,1.9094139E8,7.740542E8,-2.912191E8,-8.065673E7,3.695158E8,5.5751574E10,7.170296E10,9E0,6.0213532E7,-4.86828E6,-7.029784E7,-1.9957278E7],"split_indices":[2,6,0,3,0,0,0,0,0,0,8,0,10,0,0,0,0],"split_type":[0,0,0,0,0,0,0,0,0,0,0,0,0,0,0,0,0],"sum_hessian":[3.2E1,2.7E1,5E0,1E1,1.7E1,1E0,4E0,7E0,3E0,1E0,1.6E1,2E0,1.4E1,1E0,1E0,7E0,7E0],"tree_param":{"num_deleted":"0","num_feature":"15","num_nodes":"17","size_leaf_vector":"1"}},{"base_weights":[-1.255317E9,-1.1384289E10,5.976958E8,3.6766826E8,-1.4312494E10,-7.8735406E9,-3.0230554E8,-1.153516E10,-3.8609277E9,-4.118517E7,-1.27256904E8,-1.4314485E7,-6.975909E7],"categories":[],"categories_nodes":[],"categories_segments":[],"categories_sizes":[],"default_left":[0,0,0,0,0,0,0,0,0,0,0,0,0],"id":11,"left_children":[1,3,-1,-1,5,7,-1,9,11,-1,-1,-1,-1],"loss_changes":[2.1696499E22,4.7561153E21,0E0,0E0,2.7343526E21,2.7870217E20,0E0,4.47161E19,8.082774E19,0E0,0E0,0E0,0E0],"parents":[2147483647,0,0,1,1,4,4,5,5,7,7,8,8],"right_children":[2,4,-1,-1,6,8,-1,10,12,-1,-1,-1,-1],"split_conditions":[8.50362E10,2.8669202E10,5.976958E8,3.6766826E8,2.024E3,3.5622756E10,-3.0230554E8,3.4425086E10,7.2845795E10,-4.118517E7,-1.27256904E8,-1.4314485E7,-6.975909E7],"split_indices":[2,3,0,0,11,7,0,3,8,0,0,0,0],"split_type":[0,0,0,0,0,0,0,0,0,0,0,0,0],"sum_hessian":[3.3E1,2.9E1,4E0,1E0,2.8E1,2.1E1,7E0,1E1,1.1E1,2E0,8E0,7E0,4E0],"tree_param":{"num_deleted":"0","num_feature":"15","num_nodes":"13","size_leaf_vector":"1"}},{"base_weights":[-5.1683067E9,-1.2098963E10,6.586103E8,-7.675497E9,-2.851358E8,-1.0956198E10,-3.2083878E9,-1.1981901E10,-5.3964657E9,-1.0041004E8,-8.377643E8,-2.862336E7,-1.2607624E8,-6.2985216E7,-1.3451489E7,3.540056E7,-1.7175282E7],"categories":[],"categories_nodes":[],"categories_segments":[],"categories_sizes":[],"default_left":[0,0,0,0,0,0,0,0,0,0,0,0,0,0,0,0,0],"id":12,"left_children":[1,3,-1,5,-1,7,9,11,13,-1,15,-1,-1,-1,-1,-1,-1],"loss_changes":[1.654981E22,1.9594292E21,0E0,3.3122948E20,0E0,1.5176849E19,1.8595873E20,2.668228E19,6.1456103E18,0E0,4.4594635E19,0E0,0E0,0E0,0E0,0E0,0E0],"parents":[2147483647,0,0,1,1,3,3,5,5,6,6,7,7,8,8,10,10],"right_children":[2,4,-1,6,-1,8,10,12,14,-1,16,-1,-1,-1,-1,-1,-1],"split_conditions":[7.170296E10,2.024E3,6.586103E8,9E0,-2.851358E8,5.616637E10,3.4425086E10,4.639491E9,4.8525496E10,-1.0041004E8,3.64693E10,-2.862336E7,-1.2607624E8,-6.2985216E7,-1.3451489E7,3.540056E7,-1.7175282E7],"split_indices":[2,11,0,10,0,3,2,5,0,0,3,0,0,0,0,0,0],"split_type":[0,0,0,0,0,0,0,0,0,0,0,0,0,0,0,0,0],"sum_hessian":[3.1E1,2.9E1,2E0,2.4E1,5E0,1.3E1,1.1E1,1E1,3E0,2E0,9E0,1E0,9E0,2E0,1E0,1E0,8E0],"tree_param":{"num_deleted":"0","num_feature":"15","num_nodes":"17","size_leaf_vector":"1"}},{"base_weights":[3.9943355E9,-8.492324E9,5.535636E10,-2.3432655E10,3.030074E9,6.8933875E8,1.8800888E8,-2.6554403E10,-6.256532E7,3.6646026E8,-1.9886387E9,-6.3086508E7,-2.829654E8,4.557574E9,-4.1882944E9,6.3528972E7,-4.1419775E6,-6.3484216E7,-1.330118E7],"categories":[],"categories_nodes":[],"categories_segments":[],"categories_sizes":[],"default_left":[0,0,0,0,0,0,0,0,0,0,0,0,0,0,0,0,0,0,0],"id":13,"left_children":[1,3,5,7,9,-1,-1,11,-1,-1,13,-1,-1,15,17,-1,-1,-1,-1],"loss_changes":[1.9710308E22,4.374714E21,1.6819762E21,4.2367613E20,2.603508E21,0E0,0E0,1.3892479E20,0E0,0E0,2.2068025E20,0E0,0E0,3.8335106E19,5.947012E19,0E0,0E0,0E0,0E0],"parents":[2147483647,0,0,1,1,2,2,3,3,4,4,7,7,10,10,13,13,14,14],"right_children":[2,4,6,8,10,-1,-1,12,-1,-1,14,-1,-1,16,18,-1,-1,-1,-1],"split_conditions":[8.50362E10,5.6566755E10,1.7008604E11,5.5722185E10,3.64693E10,6.8933875E8,1.8800888E8,6.9021834E9,-6.256532E7,3.6646026E8,5.5751574E10,-6.3086508E7,-2.829654E8,7.170296E10,7E0,6.3528972E7,-4.1419775E6,-6.3484216E7,-1.330118E7],"split_indices":[2,6,3,3,0,0,0,7,0,0,8,0,0,0,10,0,0,0,0],"split_type":[0,0,0,0,0,0,0,0,0,0,0,0,0,0,0,0,0,0,0],"sum_hessian":[2.9E1,2.4E1,5E0,1E1,1.4E1,3E0,2E0,8E0,2E0,1E0,1.3E1,1E0,7E0,3E0,1E1,2E0,1E0,5E0,5E0],"tree_param":{"num_deleted":"0","num_feature":"15","num_nodes":"19","size_leaf_vector":"1"}},{"base_weights":[1.46756E9,-1.1921547E10,6.5936986E10,-6.258875E9,-2.8824394E8,7.522966E8,9.736814E7,-1.0968003E10,-1.7927763E9,-3.9646876E7,-1.2083773E8,6.310545E7,-3.8397934E9,-7.701129E7,-1.4291512E7],"categories":[],"categories_nodes":[],"categories_segments":[],"categories_sizes":[],"default_left":[0,0,0,0,0,0,0,0,0,0,0,0,0,0,0],"id":14,"left_children":[1,3,5,7,-1,-1,-1,9,11,-1,-1,-1,13,-1,-1],"loss_changes":[3.0134466E22,2.5953352E21,2.4009996E21,4.640595E20,0E0,0E0,0E0,3.804669E19,2.3987044E20,0E0,0E0,0E0,9.138521E19,0E0,0E0],"parents":[2147483647,0,0,1,1,2,2,3,3,7,7,8,8,12,12],"right_children":[2,4,6,8,-1,-1,-1,10,12,-1,-1,-1,14,-1,-1],"split_conditions":[8.50362E10,2.024E3,1.8932621E11,3.5622756E10,-2.8824394E8,7.522966E8,9.736814E7,3.4425086E10,4.1851916E10,-3.9646876E7,-1.2083773E8,6.310545E7,5.4386487E10,-7.701129E7,-1.4291512E7],"split_indices":[2,11,2,7,0,0,0,3,3,0,0,0,4,0,0],"split_type":[0,0,0,0,0,0,0,0,0,0,0,0,0,0,0],"sum_hessian":[3.3E1,2.8E1,5E0,2.2E1,6E0,4E0,1E0,1E1,1.2E1,2E0,8E0,2E0,1E1,3E0,7E0],"tree_param":{"num_deleted":"0","num_feature":"15","num_nodes":"15","size_leaf_vector":"1"}},{"base_weights":[3.3739395E9,-9.789688E9,6.118801E10,-2.4199662E10,5.8501466E8,7.4627814E8,1.8392326E8,-2.6926619E10,-6.1342636E7,3.6431242E8,-3.4304003E9,-6.2166896E7,-2.837594E8,-7.1157514E9,1.04559E9,-3.070278E7,-9.301021E7,6.2684732E7,-1.3421586E7],"categories":[],"categories_nodes":[],"categories_segments":[],"categories_sizes":[],"default_left":[0,0,0,0,0,0,0,0,0,0,0,0,0,0,0,0,0,0,0],"id":15,"left_children":[1,3,5,7,9,-1,-1,11,-1,-1,13,-1,-1,15,17,-1,-1,-1,-1],"loss_changes":[2.8757598E22,4.648632E21,2.6535794E21,4.7525136E20,2.8597855E21,0E0,0E0,1.5376528E20,0E0,0E0,3.043609E20,0E0,0E0,5.9847772E19,1.2065167E20,0E0,0E0,0E0,0E0],"parents":[2147483647,0,0,1,1,2,2,3,3,4,4,7,7,10,10,13,13,14,14],"right_children":[2,4,6,8,10,-1,-1,12,-1,-1,14,-1,-1,16,18,-1,-1,-1,-1],"split_conditions":[7.170296E10,5.6566755E10,1.7008604E11,5.750759E10,3.64693E10,7.4627814E8,1.8392326E8,6.9021834E9,-6.1342636E7,3.6431242E8,9E0,-6.2166896E7,-2.837594E8,5.284967E10,4.1851916E10,-3.070278E7,-9.301021E7,6.2684732E7,-1.3421586E7],"split_indices":[2,6,3,3,0,0,0,7,0,0,10,0,0,1,3,0,0,0,0],"split_type":[0,0,0,0,0,0,0,0,0,0,0,0,0,0,0,0,0,0,0],"sum_hessian":[3.6E1,3E1,6E0,1.2E1,1.8E1,4E0,2E0,1E1,2E0,1E0,1.7E1,1E0,9E0,9E0,8E0,4E0,5E0,2E0,6E0],"tree_param":{"num_deleted":"0","num_feature":"15","num_nodes":"19","size_leaf_vector":"1"}},{"base_weights":[9.06495E8,-1.0399842E10,6.1055877E10,-4.0487619E9,-2.894699E8,7.788153E8,1.826971E8,1.9692155E10,-6.96937E9,-6.7108556E7,3.6249088E8,-1.0279195E10,-1.6386789E9,-1.25955016E8,-6.9675256E7,5.91233E7,-3.1346054E7],"categories":[],"categories_nodes":[],"categories_segments":[],"categories_sizes":[],"default_left":[0,0,0,0,0,0,0,0,0,0,0,0,0,0,0,0,0],"id":16,"left_children":[1,3,5,7,-1,-1,-1,9,11,-1,-1,13,15,-1,-1,-1,-1],"loss_changes":[2.5797533E22,3.6522223E21,2.8965577E21,1.8706897E21,0E0,0E0,0E0,1.5547211E21,3.889597E20,0E0,0E0,1.9632317E19,1.3149038E20,0E0,0E0,0E0,0E0],"parents":[2147483647,0,0,1,1,2,2,3,3,7,7,8,8,11,11,12,12],"right_children":[2,4,6,8,-1,-1,-1,10,12,-1,-1,14,16,-1,-1,-1,-1],"split_conditions":[7.170296E10,2.024E3,1.7008604E11,3.64693E10,-2.894699E8,7.788153E8,1.826971E8,3.3464582E10,9E0,-6.7108556E7,3.6249088E8,4.834571E10,6.866408E10,-1.25955016E8,-6.9675256E7,5.91233E7,-3.1346054E7],"split_indices":[2,11,3,0,0,0,0,0,10,0,0,4,6,0,0,0,0],"split_type":[0,0,0,0,0,0,0,0,0,0,0,0,0,0,0,0,0],"sum_hessian":[3.6E1,3.1E1,5E0,2.4E1,7E0,3E0,2E0,2E0,2.2E1,1E0,1E0,1.3E1,9E0,6E0,7E0,1E0,8E0],"tree_param":{"num_deleted":"0","num_feature":"15","num_nodes":"17","size_leaf_vector":"1"}},{"base_weights":[3.093621E9,-1.0800198E10,6.021178E10,-1.9361174E10,2.941281E9,7.340775E8,1.8147912E8,-1.2751676E10,-2.7925856E8,3.6067843E8,-3.3491197E9,-1.332802E10,-3.2059494E7,-1.1401189E9,-8.859749E7,-6.834202E7,-1.4908926E8,3.3981336E7,-2.1321672E7],"categories":[],"categories_nodes":[],"categories_segments":[],"categories_sizes":[],"default_left":[0,0,0,0,0,0,0,0,0,0,0,0,0,0,0,0,0,0,0],"id":17,"left_children":[1,3,5,7,9,-1,-1,11,-1,-1,13,15,-1,17,-1,-1,-1,-1,-1],"loss_changes":[2.842593E22,3.46852E21,2.5533158E21,6.6284655E20,2.6213477E21,0E0,0E0,2.3290506E19,0E0,0E0,1.2380167E20,1.1036775E19,0E0,4.776488E19,0E0,0E0,0E0,0E0,0E0],"parents":[2147483647,0,0,1,1,2,2,3,3,4,4,7,7,10,10,11,11,13,13],"right_children":[2,4,6,8,10,-1,-1,12,-1,-1,14,16,-1,18,-1,-1,-1,-1,-1],"split_conditions":[8.50362E10,3.5622756E10,1.7008604E11,2.023E3,3.64693E10,7.340775E8,1.8147912E8,7.549583E10,-2.7925856E8,3.6067843E8,1.7008604E11,3E0,-3.2059494E7,4.507964E10,-8.859749E7,-6.834202E7,-1.4908926E8,3.3981336E7,-2.1321672E7],"split_indices":[2,7,3,11,0,0,0,4,0,0,0,10,0,2,0,0,0,0,0],"split_type":[0,0,0,0,0,0,0,0,0,0,0,0,0,0,0,0,0,0,0],"sum_hessian":[3.4E1,2.8E1,6E0,1.7E1,1.1E1,4E0,2E0,1.1E1,6E0,1E0,1E1,1E1,1E0,8E0,2E0,3E0,7E0,1E0,7E0],"tree_param":{"num_deleted":"0","num_feature":"15","num_nodes":"19","size_leaf_vector":"1"}},{"base_weights":[1.3910144E9,-1.0318618E10,5.974046E10,-2.5109674E10,-1.5098202E9,7.2820486E8,1.8026928E8,-2.8048566E8,-5.9638372E7,3.5887504E8,-4.8409487E9,-6.9688294E9,-9.9302925E8,-7.890294E7,-9.600273E6,6.1830484E7,-3.92663E7],"categories":[],"categories_nodes":[],"categories_segments":[],"categories_sizes":[],"default_left":[0,0,0,0,0,0,0,0,0,0,0,0,0,0,0,0,0],"id":18,"left_children":[1,3,5,7,9,-1,-1,-1,-1,-1,11,13,15,-1,-1,-1,-1],"loss_changes":[2.8629712E22,4.5222884E21,2.5065684E21,5.6420195E20,3.0389618E21,0E0,0E0,0E0,0E0,0E0,1.7321382E20,6.9941676E19,2.1374427E20,0E0,0E0,0E0,0E0],"parents":[2147483647,0,0,1,1,2,2,3,3,4,4,10,10,11,11,12,12],"right_children":[2,4,6,8,10,-1,-1,-1,-1,-1,12,14,16,-1,-1,-1,-1],"split_conditions":[7.170296E10,5.6566755E10,1.7008604E11,5.750759E10,3.64693E10,7.2820486E8,1.8026928E8,-2.8048566E8,-5.9638372E7,3.5887504E8,1E1,9.165717E10,6.866408E10,-7.890294E7,-9.600273E6,6.1830484E7,-3.92663E7],"split_indices":[2,6,3,3,0,0,0,0,0,0,10,4,6,0,0,0,0],"split_type":[0,0,0,0,0,0,0,0,0,0,0,0,0,0,0,0,0],"sum_hessian":[4E1,3.4E1,6E0,1.2E1,2.2E1,4E0,2E0,1E1,2E0,1E0,2.1E1,1.3E1,8E0,1.1E1,2E0,2E0,6E0],"tree_param":{"num_deleted":"0","num_feature":"15","num_nodes":"17","size_leaf_vector":"1"}},{"base_weights":[-1.394253E9,-9.163554E9,4.55004E10,3.5708067E8,-1.1942163E10,5.221353E8,9.323946E7,-7.634495E9,-2.7182477E8,-1.22079416E8,-4.5847757E9,-9.893686E7,-3.1196676E7],"categories":[],"categories_nodes":[],"categories_segments":[],"categories_sizes":[],"default_left":[0,0,0,0,0,0,0,0,0,0,0,0,0],"id":19,"left_children":[1,3,5,-1,7,-1,-1,9,-1,-1,11,-1,-1],"loss_changes":[1.280446E22,4.166854E21,7.2744956E20,0E0,1.6963323E21,0E0,0E0,2.7877479E20,0E0,0E0,9.358498E19,0E0,0E0],"parents":[2147483647,0,0,1,1,2,2,4,4,7,7,10,10],"right_children":[2,4,6,-1,8,-1,-1,10,-1,-1,12,-1,-1],"split_conditions":[8.50362E10,2.8669202E10,4.268008E10,3.5708067E8,2.024E3,5.221353E8,9.323946E7,4.8365294E10,-2.7182477E8,-1.22079416E8,3.4425086E10,-9.893686E7,-3.1196676E7],"split_indices":[2,3,0,0,11,0,0,4,0,0,2,0,0],"split_type":[0,0,0,0,0,0,0,0,0,0,0,0,0],"sum_hessian":[3.3E1,2.9E1,4E0,1E0,2.8E1,3E0,1E0,2.3E1,5E0,8E0,1.5E1,2E0,1.3E1],"tree_param":{"num_deleted":"0","num_feature":"15","num_nodes":"13","size_leaf_vector":"1"}},{"base_weights":[-2.173365E9,-9.955231E9,4.806525E10,-2.150085E10,-9.2397203E8,6.2407123E8,1.7701624E8,-2.3623653E10,-5.8426916E7,3.5529523E8,-4.9230285E9,-2.6629472E8,-1.09546456E8,-1.2935905E9,-6.6299484E9,-3.4685596E7,5.878112E7,-1.0119312E8,-3.6203524E7],"categories":[],"categories_nodes":[],"categories_segments":[],"categories_sizes":[],"default_left":[0,0,0,0,0,0,0,0,0,0,0,0,0,0,0,0,0,0,0],"id":20,"left_children":[1,3,5,7,9,-1,-1,11,-1,-1,13,-1,-1,15,17,-1,-1,-1,-1],"loss_changes":[1.4552707E22,3.3168212E21,1.07264934E21,3.273233E20,2.944725E21,0E0,0E0,1.6525283E20,0E0,0E0,1.02936455E20,0E0,0E0,1.2957621E20,8.938347E19,0E0,0E0,0E0,0E0],"parents":[2147483647,0,0,1,1,2,2,3,3,4,4,7,7,10,10,13,13,14,14],"right_children":[2,4,6,8,10,-1,-1,12,-1,-1,14,-1,-1,16,18,-1,-1,-1,-1],"split_conditions":[8.50362E10,4.8451445E10,1.6001162E11,5.750759E10,3.64693E10,6.2407123E8,1.7701624E8,5.750759E10,-5.8426916E7,3.5529523E8,1.596635E10,-2.6629472E8,-1.09546456E8,6.6598806E10,4.7848255E10,-3.4685596E7,5.878112E7,-1.0119312E8,-3.6203524E7],"split_indices":[2,4,3,3,0,0,0,2,0,0,5,0,0,0,2,0,0,0,0],"split_type":[0,0,0,0,0,0,0,0,0,0,0,0,0,0,0,0,0,0,0],"sum_hessian":[3.5E1,3.1E1,4E0,1.3E1,1.8E1,2E0,2E0,1.1E1,2E0,1E0,1.7E1,8E0,3E0,6E0,1.1E1,5E0,1E0,4E0,7E0],"tree_param":{"num_deleted":"0","num_feature":"15","num_nodes":"19","size_leaf_vector":"1"}},{"base_weights":[5.689647E8,-8.888963E9,4.774481E10,-1.6438864E10,6.359621E9,6.199107E8,1.7583611E8,-1.1664043E10,-2.5565624E8,3.535188E8,-1.6833961E9,-3.119657E6,-1.2584053E8,5.8487212E7,-3.5949445E9,-5.0143188E7,-1.2768338E7],"categories":[],"categories_nodes":[],"categories_segments":[],"categories_sizes":[],"default_left":[0,0,0,0,0,0,0,0,0,0,0,0,0,0,0,0,0],"id":21,"left_children":[1,3,5,7,9,-1,-1,11,-1,-1,13,-1,-1,-1,15,-1,-1],"loss_changes":[1.336379E22,2.9826772E21,1.0583943E21,4.4263798E20,2.1581783E21,0E0,0E0,1.3184654E20,0E0,0E0,1.3620989E20,0E0,0E0,0E0,1.6629427E19,0E0,0E0],"parents":[2147483647,0,0,1,1,2,2,3,3,4,4,7,7,10,10,14,14],"right_children":[2,4,6,8,10,-1,-1,12,-1,-1,14,-1,-1,-1,16,-1,-1],"split_conditions":[8.50362E10,6.1198655E10,1.6001162E11,2.024E3,3.64693E10,6.199107E8,1.7583611E8,7.920956E8,-2.5565624E8,3.535188E8,4.5294203E10,-3.119657E6,-1.2584053E8,5.8487212E7,4E0,-5.0143188E7,-1.2768338E7],"split_indices":[2,4,3,11,0,0,0,5,0,0,2,0,0,0,10,0,0],"split_type":[0,0,0,0,0,0,0,0,0,0,0,0,0,0,0,0,0],"sum_hessian":[2.8E1,2.4E1,4E0,1.6E1,8E0,2E0,2E0,1.2E1,4E0,1E0,7E0,1E0,1.1E1,1E0,6E0,3E0,3E0],"tree_param":{"num_deleted":"0","num_feature":"15","num_nodes":"17","size_leaf_vector":"1"}},{"base_weights":[1.9110616E9,-9.621843E9,5.3490622E10,-1.6858082E10,-3.5932982E9,6.713614E8,1.7466386E8,-8.174363E7,-2.0178147E10,-5.638625E8,-5.8868746E9,-2.366255E8,-1.0778103E8,3.4460896E7,-1.6290113E9,-2.2711035E9,-8.3252705E9,-2.8035222E7,-5.985026E6,-2.9283552E7,1.7895219E6,-9.8144664E7,-1.1842437E7],"categories":[],"categories_nodes":[],"categories_segments":[],"categories_sizes":[],"default_left":[0,0,0,0,0,0,0,0,0,0,0,0,0,0,0,0,0,0,0,0,0,0,0],"id":22,"left_children":[1,3,5,7,9,-1,-1,-1,11,13,15,-1,-1,-1,17,19,21,-1,-1,-1,-1,-1,-1],"loss_changes":[1.9550268E22,1.11727185E21,1.7767905E21,1.8102219E20,1.07852485E20,0E0,0E0,0E0,6.9912755E18,3.978329E19,6.0442564E19,0E0,0E0,0E0,6.7944915E18,8.575555E18,4.1549225E19,0E0,0E0,0E0,0E0,0E0,0E0],"parents":[2147483647,0,0,1,1,2,2,3,3,4,4,8,8,9,9,10,10,14,14,15,15,16,16],"right_children":[2,4,6,8,10,-1,-1,-1,12,14,16,-1,-1,-1,18,20,22,-1,-1,-1,-1,-1,-1],"split_conditions":[8.50362E10,4.8365294E10,1.7008604E11,4.1851916E10,7.636586E10,6.713614E8,1.7466386E8,-8.174363E7,5.653109E10,4.646198E10,5.616637E10,-2.366255E8,-1.0778103E8,3.4460896E7,5.5722185E10,4.8862974E10,5.616637E10,-2.8035222E7,-5.985026E6,-2.9283552E7,1.7895219E6,-9.8144664E7,-1.1842437E7],"split_indices":[2,4,3,2,4,0,0,0,2,0,0,0,0,0,0,0,3,0,0,0,0,0,0],"split_type":[0,0,0,0,0,0,0,0,0,0,0,0,0,0,0,0,0,0,0,0,0,0,0],"sum_hessian":[3.1E1,2.6E1,5E0,1.1E1,1.5E1,3E0,2E0,4E0,7E0,7E0,8E0,4E0,3E0,1E0,6E0,4E0,4E0,2E0,4E0,3E0,1E0,3E0,1E0],"tree_param":{"num_deleted":"0","num_feature":"15","num_nodes":"23","size_leaf_vector":"1"}},{"base_weights":[1.1163788E9,-8.038715E9,4.8231633E10,3.5157888E8,-1.0650531E10,5.933499E8,1.7349942E8,-5.431435E9,-2.7023072E8,-8.0626386E9,-1.588863E9,-3.0030438E6,-8.63664E7,5.82247E7,-2.9122432E7],"categories":[],"categories_nodes":[],"categories_segments":[],"categories_sizes":[],"default_left":[0,0,0,0,0,0,0,0,0,0,0,0,0,0,0],"id":23,"left_children":[1,3,5,-1,7,-1,-1,9,-1,11,13,-1,-1,-1,-1],"loss_changes":[1.5916124E22,3.8719197E21,1.0278847E21,0E0,2.4167222E21,0E0,0E0,2.2984374E20,0E0,5.978472E19,1.2484459E20,0E0,0E0,0E0,0E0],"parents":[2147483647,0,0,1,1,2,2,4,4,7,7,9,9,10,10],"right_children":[2,4,6,-1,8,-1,-1,10,-1,12,14,-1,-1,-1,-1],"split_conditions":[8.50362E10,2.8669202E10,1.6001162E11,3.5157888E8,2.024E3,5.933499E8,1.7349942E8,9E0,-2.7023072E8,3.286803E10,6.866408E10,-3.0030438E6,-8.63664E7,5.82247E7,-2.9122432E7],"split_indices":[2,3,3,0,11,0,0,10,0,3,6,0,0,0,0],"split_type":[0,0,0,0,0,0,0,0,0,0,0,0,0,0,0],"sum_hessian":[3.5E1,3E1,5E0,1E0,2.9E1,3E0,2E0,2.3E1,6E0,1.3E1,1E1,1E0,1.2E1,1E0,9E0],"tree_param":{"num_deleted":"0","num_feature":"15","num_nodes":"15","size_leaf_vector":"1"}},{"base_weights":[-5.2880326E8,-8.4877015E9,4.4146786E10,3.49821E8,-1.1393327E10,5.0720074E8,8.926816E7,-6.967487E9,-2.5722522E8,-1.06844E10,-1.4387511E9,-3.5569172E7,-1.16569496E8,-4.4087705E6,-2.030521E7],"categories":[],"categories_nodes":[],"categories_segments":[],"categories_sizes":[],"default_left":[0,0,0,0,0,0,0,0,0,0,0,0,0,0,0],"id":24,"left_children":[1,3,5,-1,7,-1,-1,9,-1,11,13,-1,-1,-1,-1],"loss_changes":[1.1752894E22,3.9351587E21,7.047863E20,0E0,1.5330841E21,0E0,0E0,4.3672405E20,0E0,4.865084E19,5.0099093E18,0E0,0E0,0E0,0E0],"parents":[2147483647,0,0,1,1,2,2,4,4,7,7,9,9,10,10],"right_children":[2,4,6,-1,8,-1,-1,10,-1,12,14,-1,-1,-1,-1],"split_conditions":[8.50362E10,2.8669202E10,4.268008E10,3.49821E8,2.024E3,5.0720074E8,8.926816E7,3.8894223E10,-2.5722522E8,3.4425086E10,4.4828656E10,-3.5569172E7,-1.16569496E8,-4.4087705E6,-2.030521E7],"split_indices":[2,3,0,0,11,0,0,7,0,3,7,0,0,0,0],"split_type":[0,0,0,0,0,0,0,0,0,0,0,0,0,0,0],"sum_hessian":[3.1E1,2.7E1,4E0,1E0,2.6E1,3E0,1E0,2.1E1,5E0,1.2E1,9E0,2E0,1E1,4E0,5E0],"tree_param":{"num_deleted":"0","num_feature":"15","num_nodes":"15","size_leaf_vector":"1"}},{"base_weights":[1.4352645E9,-8.659933E9,5.364324E8,-1.7203587E10,2.741297E9,-1.2210034E10,-2.4748686E8,3.4807184E8,-3.3380736E9,-1.2834318E10,-2.983594E7,5.704286E8,-5.652993E9,-1.4702586E8,-6.3562708E7,3.4580316E7,-1.01598E7,-2.385253E7,-9.214895E7],"categories":[],"categories_nodes":[],"categories_segments":[],"categories_sizes":[],"default_left":[0,0,0,0,0,0,0,0,0,0,0,0,0,0,0,0,0,0,0],"id":25,"left_children":[1,3,-1,5,7,9,-1,-1,11,13,-1,15,17,-1,-1,-1,-1,-1,-1],"loss_changes":[1.6276041E22,2.5797722E21,0E0,2.6297053E20,2.455474E21,2.5066895E19,0E0,0E0,1.0275118E20,2.757357E19,0E0,2.6417882E19,5.9495735E19,0E0,0E0,0E0,0E0,0E0,0E0],"parents":[2147483647,0,0,1,1,3,3,4,4,5,5,8,8,9,9,11,11,12,12],"right_children":[2,4,-1,6,8,10,-1,-1,12,14,-1,16,18,-1,-1,-1,-1,-1,-1],"split_conditions":[8.50362E10,3.5622756E10,5.364324E8,2.023E3,3.64693E10,7.549583E10,-2.4748686E8,3.4807184E8,5.616637E10,4.5294203E10,-2.983594E7,4.646198E10,7.636586E10,-1.4702586E8,-6.3562708E7,3.4580316E7,-1.01598E7,-2.385253E7,-9.214895E7],"split_indices":[2,7,0,11,0,4,0,0,0,3,0,0,4,0,0,0,0,0,0],"split_type":[0,0,0,0,0,0,0,0,0,0,0,0,0,0,0,0,0,0,0],"sum_hessian":[2.9E1,2.5E1,4E0,1.4E1,1.1E1,1E1,4E0,1E0,1E1,9E0,1E0,4E0,6E0,6E0,3E0,1E0,3E0,4E0,2E0],"tree_param":{"num_deleted":"0","num_feature":"15","num_nodes":"19","size_leaf_vector":"1"}},{"base_weights":[1.7538285E9,-7.854425E9,5.9052585E10,-1.6903082E10,3.6942605E9,1.6402784E8,6.5614336E8,-1.1172977E10,-2.5546112E8,3.4633155E8,-1.3497432E9,-1.2551681E10,-2.8529692E7,1.9105107E9,-4.4171766E9,-5.4876856E7,-1.3631718E8,6.2028732E7,-1.0470089E7,-6.934093E7,-7.9596645E6],"categories":[],"categories_nodes":[],"categories_segments":[],"categories_sizes":[],"default_left":[0,0,0,0,0,0,0,0,0,0,0,0,0,0,0,0,0,0,0,0,0],"id":26,"left_children":[1,3,5,7,9,-1,-1,11,-1,-1,13,15,-1,17,19,-1,-1,-1,-1,-1,-1],"loss_changes":[1.9182218E22,3.197447E21,3.2302856E20,5.56507E20,2.2315284E21,0E0,0E0,1.0184032E20,0E0,0E0,1.3844703E20,1.487173E18,0E0,9.535769E19,5.828066E19,0E0,0E0,0E0,0E0,0E0,0E0],"parents":[2147483647,0,0,1,1,2,2,3,3,4,4,7,7,10,10,11,11,13,13,14,14],"right_children":[2,4,6,8,10,-1,-1,12,-1,-1,14,16,-1,18,20,-1,-1,-1,-1,-1,-1],"split_conditions":[7.170296E10,5.5718593E10,2.1480583E10,2.024E3,3.64693E10,1.6402784E8,6.5614336E8,5.117569E10,-2.5546112E8,3.4633155E8,6.5992933E10,3.286803E10,-2.8529692E7,4.1851916E10,5.3131145E10,-5.4876856E7,-1.3631718E8,6.2028732E7,-1.0470089E7,-6.934093E7,-7.9596645E6],"split_indices":[2,4,0,11,0,0,0,4,0,0,4,2,0,3,5,0,0,0,0,0,0],"split_type":[0,0,0,0,0,0,0,0,0,0,0,0,0,0,0,0,0,0,0,0,0],"sum_hessian":[3.3E1,2.9E1,4E0,1.6E1,1.3E1,1E0,3E0,1.1E1,5E0,1E0,1.2E1,9E0,2E0,6E0,6E0,2E0,7E0,2E0,4E0,3E0,3E0],"tree_param":{"num_deleted":"0","num_feature":"15","num_nodes":"21","size_leaf_vector":"1"}},{"base_weights":[2.9770184E9,-1.0473806E10,5.6355025E10,-1.8372583E10,-4.2820918E9,6.9054374E8,1.6404443E8,-2.1477865E10,-6.792551E7,2.0860218E9,-5.270242E9,-2.372281E8,-9.080376E7,3.4097276E7,-2.8069478E6,-6.598905E9,-2.1774302E7,-2.6766244E7,-7.8975064E7],"categories":[],"categories_nodes":[],"categories_segments":[],"categories_sizes":[],"default_left":[0,0,0,0,0,0,0,0,0,0,0,0,0,0,0,0,0,0,0],"id":27,"left_children":[1,3,5,7,9,-1,-1,11,-1,13,15,-1,-1,-1,-1,17,-1,-1,-1],"loss_changes":[2.500151E22,1.2907221E21,2.4186244E21,2.8562167E20,1.1796891E20,0E0,0E0,3.5072908E19,0E0,1.0355602E19,4.7270872E19,0E0,0E0,0E0,0E0,2.9796202E19,0E0,0E0,0E0],"parents":[2147483647,0,0,1,1,2,2,3,3,4,4,7,7,9,9,10,10,15,15],"right_children":[2,4,6,8,10,-1,-1,12,-1,14,16,-1,-1,-1,-1,18,-1,-1,-1],"split_conditions":[8.50362E10,4.8451445E10,1.7008604E11,5.5224095E10,2.775503E10,6.9054374E8,1.6404443E8,5.750759E10,-6.792551E7,4.646198E10,5.616637E10,-2.372281E8,-9.080376E7,3.4097276E7,-2.8069478E6,5.86454E10,-2.1774302E7,-2.6766244E7,-7.8975064E7],"split_indices":[2,4,3,3,9,0,0,2,0,0,3,0,0,0,0,4,0,0,0],"split_type":[0,0,0,0,0,0,0,0,0,0,0,0,0,0,0,0,0,0,0],"sum_hessian":[3.3E1,2.7E1,6E0,1.1E1,1.6E1,4E0,2E0,8E0,3E0,2E0,1.4E1,6E0,2E0,1E0,1E0,9E0,5E0,3E0,6E0],"tree_param":{"num_deleted":"0","num_feature":"15","num_nodes":"19","size_leaf_vector":"1"}},{"base_weights":[-3.1081487E9,-9.180215E9,3.8803534E10,-3.719249E9,-2.6463451E8,4.4402483E8,8.203872E7,3.4499472E8,-6.5161027E9,-9.784096E9,-2.4954867E9,-1.1743537E8,-6.1470064E7,-9.52567E7,-3.5130125E6],"categories":[],"categories_nodes":[],"categories_segments":[],"categories_sizes":[],"default_left":[0,0,0,0,0,0,0,0,0,0,0,0,0,0,0],"id":28,"left_children":[1,3,5,7,-1,-1,-1,-1,9,11,13,-1,-1,-1,-1],"loss_changes":[1.0026866E22,3.1106036E21,4.9235716E20,3.1108907E21,0E0,0E0,0E0,0E0,3.172069E20,2.7585674E19,1.9261588E20,0E0,0E0,0E0,0E0],"parents":[2147483647,0,0,1,1,2,2,3,3,8,8,9,9,10,10],"right_children":[2,4,6,8,-1,-1,-1,-1,10,12,14,-1,-1,-1,-1],"split_conditions":[8.50362E10,2.024E3,1.7008604E11,3.64693E10,-2.6463451E8,4.4402483E8,8.203872E7,3.4499472E8,7E0,4.8365294E10,3.4425086E10,-1.1743537E8,-6.1470064E7,-9.52567E7,-3.5130125E6],"split_indices":[2,11,2,0,0,0,0,0,10,4,2,0,0,0,0],"split_type":[0,0,0,0,0,0,0,0,0,0,0,0,0,0,0],"sum_hessian":[3.7E1,3.3E1,4E0,2.6E1,7E0,3E0,1E0,1E0,2.5E1,1.3E1,1.2E1,7E0,6E0,2E0,1E1],"tree_param":{"num_deleted":"0","num_feature":"15","num_nodes":"15","size_leaf_vector":"1"}},{"base_weights":[3.8195594E9,-8.824414E9,6.2188175E10,-1.6981356E10,1.8937009E9,1.6016736E8,6.821911E8,-1.1094171E10,-2.4944304E8,3.4326976E8,-3.6696535E9,-1.2449718E10,-3.3294704E7,2.7251354E9,-6.1040425E9,-1.5374357E8,-7.035136E7,-2.8235095E6,5.873797E7,-9.316442E7,-1.6708345E7],"categories":[],"categories_nodes":[],"categories_segments":[],"categories_sizes":[],"default_left":[0,0,0,0,0,0,0,0,0,0,0,0,0,0,0,0,0,0,0,0,0],"id":29,"left_children":[1,3,5,7,9,-1,-1,11,-1,-1,13,15,-1,17,19,-1,-1,-1,-1,-1,-1],"loss_changes":[2.4903145E22,2.480115E21,5.780978E20,4.733331E20,2.4716596E21,0E0,0E0,7.4328675E19,0E0,0E0,2.034432E20,3.4360495E19,0E0,3.9536697E19,1.1260487E20,0E0,0E0,0E0,0E0,0E0,0E0],"parents":[2147483647,0,0,1,1,2,2,3,3,4,4,7,7,10,10,11,11,13,13,14,14],"right_children":[2,4,6,8,10,-1,-1,12,-1,-1,14,16,-1,18,20,-1,-1,-1,-1,-1,-1],"split_conditions":[7.170296E10,3.5622756E10,2.1480583E10,2.023E3,3.64693E10,1.6016736E8,6.821911E8,6.416093E10,-2.4944304E8,3.4326976E8,4.536031E10,4.507964E10,-3.3294704E7,5.84641E10,5.616637E10,-1.5374357E8,-7.035136E7,-2.8235095E6,5.873797E7,-9.316442E7,-1.6708345E7],"split_indices":[2,7,0,11,0,0,0,8,0,0,3,3,0,0,3,0,0,0,0,0,0],"split_type":[0,0,0,0,0,0,0,0,0,0,0,0,0,0,0,0,0,0,0,0,0],"sum_hessian":[3.2E1,2.7E1,5E0,1.5E1,1.2E1,1E0,4E0,1E1,5E0,1E0,1.1E1,8E0,2E0,3E0,8E0,4E0,4E0,2E0,1E0,4E0,4E0],"tree_param":{"num_deleted":"0","num_feature":"15","num_nodes":"21","size_leaf_vector":"1"}},{"base_weights":[4.3534034E9,-7.7341814E9,5.6007373E10,3.415534E8,-1.0775976E10,7.213185E8,1.5838939E8,-7.2439803E9,-2.3455162E8,-8.5190456E9,-1.4599626E9,-1.6137844E7,-9.332162E7,-1.6987084E7,-2.5248972E6],"categories":[],"categories_nodes":[],"categories_segments":[],"categories_sizes":[],"default_left":[0,0,0,0,0,0,0,0,0,0,0,0,0,0,0],"id":30,"left_children":[1,3,5,-1,7,-1,-1,9,-1,11,13,-1,-1,-1,-1],"loss_changes":[1.9788695E22,3.6809597E21,2.7436796E21,0E0,9.496622E20,0E0,0E0,1.4243746E20,0E0,8.039122E19,1.0124897E18,0E0,0E0,0E0,0E0],"parents":[2147483647,0,0,1,1,2,2,4,4,7,7,9,9,10,10],"right_children":[2,4,6,-1,8,-1,-1,10,-1,12,14,-1,-1,-1,-1],"split_conditions":[8.50362E10,2.8669202E10,1.7008604E11,3.415534E8,2.024E3,7.213185E8,1.5838939E8,1E1,-2.3455162E8,3.4425086E10,5.84641E10,-1.6137844E7,-9.332162E7,-1.6987084E7,-2.5248972E6],"split_indices":[2,3,3,0,11,0,0,10,0,3,0,0,0,0,0],"split_type":[0,0,0,0,0,0,0,0,0,0,0,0,0,0,0],"sum_hessian":[3E1,2.5E1,5E0,1E0,2.4E1,3E0,2E0,2E1,4E0,1.6E1,4E0,2E0,1.4E1,3E0,1E0],"tree_param":{"num_deleted":"0","num_feature":"15","num_nodes":"15","size_leaf_vector":"1"}},{"base_weights":[-2.7062835E9,-9.768947E9,4.1623482E10,-2.132475E10,1.001996E9,4.815807E8,7.7425624E7,-7.36141E7,-2.4202136E10,3.3984563E8,-3.1834499E9,-2.5640427E8,-4.19047E7,-5.484395E9,2.975508E9,-7.28424E7,-1.5077638E7,6.166686E7,-1.2075063E7],"categories":[],"categories_nodes":[],"categories_segments":[],"categories_sizes":[],"default_left":[0,0,0,0,0,0,0,0,0,0,0,0,0,0,0,0,0,0,0],"id":31,"left_children":[1,3,5,7,9,-1,-1,-1,11,-1,13,-1,-1,15,17,-1,-1,-1,-1],"loss_changes":[1.1364634E22,3.8798418E21,7.341222E20,4.245065E20,2.454983E21,0E0,0E0,0E0,2.3794543E20,0E0,2.4306163E20,0E0,0E0,7.4904925E19,7.419003E19,0E0,0E0,0E0,0E0],"parents":[2147483647,0,0,1,1,2,2,3,3,4,4,8,8,10,10,13,13,14,14],"right_children":[2,4,6,8,10,-1,-1,-1,12,-1,14,-1,-1,16,18,-1,-1,-1,-1],"split_conditions":[6.6598806E10,5.6566755E10,4.268008E10,6.9021834E9,3.64693E10,4.815807E8,7.7425624E7,-7.36141E7,5.750759E10,3.3984563E8,1E1,-2.5640427E8,-4.19047E7,5.3131145E10,4.1851916E10,-7.28424E7,-1.5077638E7,6.166686E7,-1.2075063E7],"split_indices":[2,6,0,7,0,0,0,0,3,0,10,0,0,5,3,0,0,0,0],"split_type":[0,0,0,0,0,0,0,0,0,0,0,0,0,0,0,0,0,0,0],"sum_hessian":[3.4E1,3E1,4E0,1.4E1,1.6E1,3E0,1E0,3E0,1.1E1,1E0,1.5E1,1E1,1E0,1.1E1,4E0,7E0,4E0,2E0,2E0],"tree_param":{"num_deleted":"0","num_feature":"15","num_nodes":"19","size_leaf_vector":"1"}},{"base_weights":[-1.2223436E9,-9.959277E9,5.668588E10,-1.9491058E10,-2.7890657E9,1.5616664E8,6.304902E8,-2.1444592E10,-5.1799024E7,-5.135904E9,1.3731794E9,-5.1971276E7,-2.2449166E10,-2.6687283E9,-6.8693786E9,6.125576E7,-1.2318822E9,-2.4412134E8,-9.077204E7,-3.2137618E7,3.007365E6,-2.9129522E6,-7.917177E7,-1.6769126E7,-2.2788095E6],"categories":[],"categories_nodes":[],"categories_segments":[],"categories_sizes":[],"default_left":[0,0,0,0,0,0,0,0,0,0,0,0,0,0,0,0,0,0,0,0,0,0,0,0,0],"id":32,"left_children":[1,3,5,7,9,-1,-1,11,-1,13,15,-1,17,19,21,-1,23,-1,-1,-1,-1,-1,-1,-1,-1],"loss_changes":[1.9284342E22,2.2010192E21,3.220299E20,2.803215E20,2.0241483E20,0E0,0E0,7.919073E19,0E0,3.726574E19,1.0658828E20,0E0,6.7141915E19,1.2295693E19,4.594129E19,0E0,2.2987292E18,0E0,0E0,0E0,0E0,0E0,0E0,0E0,0E0],"parents":[2147483647,0,0,1,1,2,2,3,3,4,4,7,7,9,9,10,10,12,12,13,13,14,14,16,16],"right_children":[2,4,6,8,10,-1,-1,12,-1,14,16,-1,18,20,22,-1,24,-1,-1,-1,-1,-1,-1,-1,-1],"split_conditions":[8.50362E10,4.8451445E10,2.1480583E10,5.750759E10,1E1,1.5616664E8,6.304902E8,6.9021834E9,-5.1799024E7,5.616637E10,4.1851916E10,-5.1971276E7,5.750759E10,5.1843617E10,3.286803E10,6.125576E7,5.84641E10,-2.4412134E8,-9.077204E7,-3.2137618E7,3.007365E6,-2.9129522E6,-7.917177E7,-1.6769126E7,-2.2788095E6],"split_indices":[2,4,0,3,10,0,0,7,0,0,3,0,2,0,3,0,0,0,0,0,0,0,0,0,0],"split_type":[0,0,0,0,0,0,0,0,0,0,0,0,0,0,0,0,0,0,0,0,0,0,0,0,0],"sum_hessian":[3.6E1,3.2E1,4E0,1.3E1,1.9E1,1E0,3E0,1.1E1,2E0,1.2E1,7E0,1E0,1E1,6E0,6E0,2E0,5E0,8E0,2E0,5E0,1E0,1E0,5E0,3E0,2E0],"tree_param":{"num_deleted":"0","num_feature":"15","num_nodes":"25","size_leaf_vector":"1"}},{"base_weights":[7.693518E9,-4.58555E9,5.3956563E10,3.383071E8,-7.3642793E9,6.636831E8,1.5284792E8,-1.3994955E10,-3.6398152E9,-6.444599E7,-1.6696032E8,-1.6742871E9,-8.4153313E9,-2.69296E7,5.7842296E7,-1.0039089E8,-9.601495E6],"categories":[],"categories_nodes":[],"categories_segments":[],"categories_sizes":[],"default_left":[0,0,0,0,0,0,0,0,0,0,0,0,0,0,0,0,0],"id":33,"left_children":[1,3,5,-1,7,-1,-1,9,11,-1,-1,13,15,-1,-1,-1,-1],"loss_changes":[1.8993634E22,3.1313458E21,2.3454657E21,0E0,5.911494E20,0E0,0E0,7.594772E19,1.5486569E20,0E0,0E0,1.2194574E20,5.0888037E19,0E0,0E0,0E0,0E0],"parents":[2147483647,0,0,1,1,2,2,4,4,7,7,8,8,11,11,12,12],"right_children":[2,4,6,-1,8,-1,-1,10,12,-1,-1,14,16,-1,-1,-1,-1],"split_conditions":[8.50362E10,2.8669202E10,1.7008604E11,3.383071E8,4.8365294E10,6.636831E8,1.5284792E8,1.3973108E10,7.170296E10,-6.444599E7,-1.6696032E8,6.6598806E10,5.616637E10,-2.69296E7,5.7842296E7,-1.0039089E8,-9.601495E6],"split_indices":[2,3,3,0,4,0,0,7,0,0,0,0,3,0,0,0,0],"split_type":[0,0,0,0,0,0,0,0,0,0,0,0,0,0,0,0,0],"sum_hessian":[3.2E1,2.6E1,6E0,1E0,2.5E1,4E0,2E0,8E0,1.7E1,3E0,5E0,1.3E1,4E0,1.2E1,1E0,3E0,1E0],"tree_param":{"num_deleted":"0","num_feature":"15","num_nodes":"17","size_leaf_vector":"1"}},{"base_weights":[2.7682184E9,-7.3463654E9,5.456553E10,-2.0561922E10,9.502865E8,7.0461126E8,1.5182894E8,-2.3143584E10,-5.102406E7,3.3661555E8,-2.54302E9,-5.756727E7,-2.4435819E8,-4.9449093E9,1.3776911E9,-7.542287E7,-1.0904836E7,6.0744348E7,-1.2002959E7],"categories":[],"categories_nodes":[],"categories_segments":[],"categories_sizes":[],"default_left":[0,0,0,0,0,0,0,0,0,0,0,0,0,0,0,0,0,0,0],"id":34,"left_children":[1,3,5,7,9,-1,-1,11,-1,-1,13,-1,-1,15,17,-1,-1,-1,-1],"loss_changes":[1.9261553E22,3.418531E21,2.6862587E21,3.608464E20,2.371012E21,0E0,0E0,8.4009584E19,0E0,0E0,1.8573772E20,0E0,0E0,1.1191208E20,1.0415627E20,0E0,0E0,0E0,0E0],"parents":[2147483647,0,0,1,1,2,2,3,3,4,4,7,7,10,10,13,13,14,14],"right_children":[2,4,6,8,10,-1,-1,12,-1,-1,14,-1,-1,16,18,-1,-1,-1,-1],"split_conditions":[7.170296E10,5.6566755E10,1.7008604E11,5.750759E10,3.64693E10,7.0461126E8,1.5182894E8,6.4468096E9,-5.102406E7,3.3661555E8,1E1,-5.756727E7,-2.4435819E8,5.3131145E10,4.1851916E10,-7.542287E7,-1.0904836E7,6.0744348E7,-1.2002959E7],"split_indices":[2,6,3,3,0,0,0,7,0,0,10,0,0,5,3,0,0,0,0],"split_type":[0,0,0,0,0,0,0,0,0,0,0,0,0,0,0,0,0,0,0],"sum_hessian":[3.5E1,3E1,5E0,1.1E1,1.9E1,3E0,2E0,9E0,2E0,1E0,1.8E1,1E0,8E0,1.1E1,7E0,6E0,5E0,2E0,5E0],"tree_param":{"num_deleted":"0","num_feature":"15","num_nodes":"19","size_leaf_vector":"1"}},{"base_weights":[-2.7100608E8,-9.391179E9,4.6895055E10,-1.7287428E10,2.87189E9,5.903133E8,1.5081674E8,-1.0592871E10,-2.5168333E8,3.3493248E8,-2.470994E9,-1.2174392E10,-4.386231E7,5.724936E7,-3.736527E9,-5.0683904E7,-1.3480622E8,-5.1069092E7,-1.7433906E7],"categories":[],"categories_nodes":[],"categories_segments":[],"categories_sizes":[],"default_left":[0,0,0,0,0,0,0,0,0,0,0,0,0,0,0,0,0,0,0],"id":35,"left_children":[1,3,5,7,9,-1,-1,11,-1,-1,13,15,-1,-1,17,-1,-1,-1,-1],"loss_changes":[1.5926255E22,3.051447E21,1.4262844E21,7.3581894E20,2.2096444E21,0E0,0E0,6.4391482E19,0E0,0E0,1.4585805E20,1.5213582E19,0E0,0E0,2.1141603E19,0E0,0E0,0E0,0E0],"parents":[2147483647,0,0,1,1,2,2,3,3,4,4,7,7,10,10,11,11,14,14],"right_children":[2,4,6,8,10,-1,-1,12,-1,-1,14,16,-1,-1,18,-1,-1,-1,-1],"split_conditions":[8.50362E10,3.4112702E10,1.7008604E11,2.023E3,3.64693E10,5.903133E8,1.5081674E8,4.8365294E10,-2.5168333E8,3.3493248E8,3.6761096E10,3.286803E10,-4.386231E7,5.724936E7,4.8862974E10,-5.0683904E7,-1.3480622E8,-5.1069092E7,-1.7433906E7],"split_indices":[2,7,3,11,0,0,0,4,0,0,7,2,0,0,3,0,0,0,0],"split_type":[0,0,0,0,0,0,0,0,0,0,0,0,0,0,0,0,0,0,0],"sum_hessian":[3.5E1,3E1,5E0,1.8E1,1.2E1,3E0,2E0,1.1E1,7E0,1E0,1.1E1,8E0,3E0,1E0,1E1,2E0,6E0,5E0,5E0],"tree_param":{"num_deleted":"0","num_feature":"15","num_nodes":"19","size_leaf_vector":"1"}},{"base_weights":[2.0228723E9,-8.743204E9,5.91048E10,-1.7173499E10,3.3224259E9,1.5310835E8,6.480142E8,-1.0615871E10,-2.4863251E8,3.332578E8,-1.549046E9,-1.1220933E10,-1.9801046E7,6.0318784E7,-3.4757486E9,-1.1800332E8,-2.7134668E7,-6.1502316E7,-1.0688681E7],"categories":[],"categories_nodes":[],"categories_segments":[],"categories_sizes":[],"default_left":[0,0,0,0,0,0,0,0,0,0,0,0,0,0,0,0,0,0,0],"id":36,"left_children":[1,3,5,7,9,-1,-1,11,-1,-1,13,15,-1,-1,17,-1,-1,-1,-1],"loss_changes":[2.3255055E22,3.3119964E21,5.0470265E20,6.941584E20,2.0978702E21,0E0,0E0,4.048328E19,0E0,0E0,2.1084573E20,2.220162E19,0E0,0E0,6.4234982E19,0E0,0E0,0E0,0E0],"parents":[2147483647,0,0,1,1,2,2,3,3,4,4,7,7,10,10,11,11,14,14],"right_children":[2,4,6,8,10,-1,-1,12,-1,-1,14,16,-1,-1,18,-1,-1,-1,-1],"split_conditions":[8.50362E10,3.5622756E10,2.1480583E10,2.023E3,3.64693E10,1.5310835E8,6.480142E8,6.559945E10,-2.4863251E8,3.332578E8,4.5294203E10,7.549583E10,-1.9801046E7,6.0318784E7,7E0,-1.1800332E8,-2.7134668E7,-6.1502316E7,-1.0688681E7],"split_indices":[2,7,0,11,0,0,0,8,0,0,2,4,0,0,10,0,0,0,0],"split_type":[0,0,0,0,0,0,0,0,0,0,0,0,0,0,0,0,0,0,0],"sum_hessian":[3.6E1,3.1E1,5E0,1.8E1,1.3E1,1E0,4E0,1.1E1,7E0,1E0,1.2E1,1E1,1E0,2E0,1E1,9E0,1E0,4E0,6E0],"tree_param":{"num_deleted":"0","num_feature":"15","num_nodes":"19","size_leaf_vector":"1"}},{"base_weights":[-6.5024595E8,-8.69509E9,5.2575777E10,-2.0471953E10,-9.905997E8,1.5234282E8,5.810258E8,-2.284251E10,-4.9559332E7,3.3159152E8,-4.356045E9,-5.601538E7,-2.4006451E8,-8.0746957E9,1.0861614E9,-4.7985656E7,-9.729278E7,5.991667E7,-1.1713641E7],"categories":[],"categories_nodes":[],"categories_segments":[],"categories_sizes":[],"default_left":[0,0,0,0,0,0,0,0,0,0,0,0,0,0,0,0,0,0,0],"id":37,"left_children":[1,3,5,7,9,-1,-1,11,-1,-1,13,-1,-1,15,17,-1,-1,-1,-1],"loss_changes":[1.630037E22,2.973966E21,1.4674416E20,3.6495483E20,2.5579542E21,0E0,0E0,8.626983E19,0E0,0E0,4.1352375E20,0E0,0E0,1.8361035E19,1.0668715E20,0E0,0E0,0E0,0E0],"parents":[2147483647,0,0,1,1,2,2,3,3,4,4,7,7,10,10,13,13,14,14],"right_children":[2,4,6,8,10,-1,-1,12,-1,-1,14,-1,-1,16,18,-1,-1,-1,-1],"split_conditions":[8.50362E10,5.6566755E10,2.1480583E10,5.5722185E10,3.64693E10,1.5234282E8,5.810258E8,6.4468096E9,-4.9559332E7,3.3159152E8,9E0,-5.601538E7,-2.4006451E8,5.1843617E10,4.1851916E10,-4.7985656E7,-9.729278E7,5.991667E7,-1.1713641E7],"split_indices":[2,6,0,3,0,0,0,7,0,0,10,0,0,0,3,0,0,0,0],"split_type":[0,0,0,0,0,0,0,0,0,0,0,0,0,0,0,0,0,0,0],"sum_hessian":[3.6E1,3.2E1,4E0,1.2E1,2E1,1E0,3E0,1E1,2E0,1E0,1.9E1,1E0,9E0,1.1E1,8E0,5E0,6E0,2E0,6E0],"tree_param":{"num_deleted":"0","num_feature":"15","num_nodes":"19","size_leaf_vector":"1"}},{"base_weights":[1.1608593E9,-7.531317E9,4.786644E10,3.2993357E8,-1.0358934E10,6.530776E8,1.4469632E8,-6.2706616E9,-2.2941398E8,-8.4813604E9,-6.376407E8,-9.8119256E7,-3.8578436E7,5.9517228E7,-4.4637304E7],"categories":[],"categories_nodes":[],"categories_segments":[],"categories_sizes":[],"default_left":[0,0,0,0,0,0,0,0,0,0,0,0,0,0,0],"id":38,"left_children":[1,3,5,-1,7,-1,-1,9,-1,11,13,-1,-1,-1,-1],"loss_changes":[1.2945666E22,3.435659E21,1.9674437E21,0E0,1.1935963E21,0E0,0E0,2.561031E20,0E0,5.442558E19,2.0304738E20,0E0,0E0,0E0,0E0],"parents":[2147483647,0,0,1,1,2,2,4,4,7,7,9,9,10,10],"right_children":[2,4,6,-1,8,-1,-1,10,-1,12,14,-1,-1,-1,-1],"split_conditions":[5.82344E10,2.8669202E10,1.7008604E11,3.2993357E8,2.024E3,6.530776E8,1.4469632E8,1E1,-2.2941398E8,5.616637E10,6.866408E10,-9.8119256E7,-3.8578436E7,5.9517228E7,-4.4637304E7],"split_indices":[2,3,3,0,11,0,0,10,0,3,6,0,0,0,0],"split_type":[0,0,0,0,0,0,0,0,0,0,0,0,0,0,0],"sum_hessian":[3E1,2.6E1,4E0,1E0,2.5E1,2E0,2E0,2E1,5E0,1.4E1,6E0,1E1,4E0,2E0,4E0],"tree_param":{"num_deleted":"0","num_feature":"15","num_nodes":"15","size_leaf_vector":"1"}},{"base_weights":[-2.2105408E7,-9.387373E9,4.212528E10,3.282839E8,-1.2273687E10,5.2408042E8,1.437317E8,-6.5456425E9,-2.4343578E8,-1.0783155E10,-3.175164E9,-1.2772188E8,-5.601075E7,-6.2021016E7,-8.864322E6],"categories":[],"categories_nodes":[],"categories_segments":[],"categories_sizes":[],"default_left":[0,0,0,0,0,0,0,0,0,0,0,0,0,0,0],"id":39,"left_children":[1,3,5,-1,7,-1,-1,9,-1,11,13,-1,-1,-1,-1],"loss_changes":[1.3026535E22,3.6928197E21,9.589402E20,0E0,1.6382142E21,0E0,0E0,2.3712817E20,0E0,1.0920596E19,7.763645E19,0E0,0E0,0E0,0E0],"parents":[2147483647,0,0,1,1,2,2,4,4,7,7,9,9,10,10],"right_children":[2,4,6,-1,8,-1,-1,10,-1,12,14,-1,-1,-1,-1],"split_conditions":[8.50362E10,2.8669202E10,1.6001162E11,3.282839E8,2.024E3,5.2408042E8,1.437317E8,6.559945E10,-2.4343578E8,4.5294203E10,5.4386487E10,-1.2772188E8,-5.601075E7,-6.2021016E7,-8.864322E6],"split_indices":[2,3,3,0,11,0,0,8,0,3,4,0,0,0,0],"split_type":[0,0,0,0,0,0,0,0,0,0,0,0,0,0,0],"sum_hessian":[3.1E1,2.6E1,5E0,1E0,2.5E1,3E0,2E0,1.8E1,7E0,7E0,1.1E1,4E0,3E0,4E0,7E0],"tree_param":{"num_deleted":"0","num_feature":"15","num_nodes":"15","size_leaf_vector":"1"}},{"base_weights":[1.5745385E9,-9.305072E9,5.1084964E10,-1.8324732E10,-2.169266E9,6.295254E8,1.427735E8,-6.757065E7,-2.086527E10,4.47702E9,-3.6952584E9,-2.2165906E8,-3.9294668E7,5.997191E7,-4.174643E5,-7.034737E7,-2.383476E9,-4.0751588E7,-1.1788215E7],"categories":[],"categories_nodes":[],"categories_segments":[],"categories_sizes":[],"default_left":[0,0,0,0,0,0,0,0,0,0,0,0,0,0,0,0,0,0,0],"id":40,"left_children":[1,3,5,7,9,-1,-1,-1,11,13,15,-1,-1,-1,-1,-1,17,-1,-1],"loss_changes":[2.0944206E22,2.0198498E21,2.1589232E21,2.7044538E20,2.0924519E20,0E0,0E0,0E0,1.5519967E20,2.7727546E19,5.332357E19,0E0,0E0,0E0,0E0,0E0,2.1688729E19,0E0,0E0],"parents":[2147483647,0,0,1,1,2,2,3,3,4,4,8,8,9,9,10,10,16,16],"right_children":[2,4,6,8,10,-1,-1,-1,12,14,16,-1,-1,-1,-1,-1,18,-1,-1],"split_conditions":[7.170296E10,4.8535454E10,1.7008604E11,6.9021834E9,5.5751574E10,6.295254E8,1.427735E8,-6.757065E7,5.5722185E10,7.170296E10,6.4518873E10,-2.2165906E8,-3.9294668E7,5.997191E7,-4.174643E5,-7.034737E7,5.4386487E10,-4.0751588E7,-1.1788215E7],"split_indices":[2,4,3,7,8,0,0,0,3,0,8,0,0,0,0,0,4,0,0],"split_type":[0,0,0,0,0,0,0,0,0,0,0,0,0,0,0,0,0,0,0],"sum_hessian":[3.7E1,3.1E1,6E0,1.3E1,1.8E1,4E0,2E0,3E0,1E1,3E0,1.5E1,9E0,1E0,2E0,1E0,3E0,1.2E1,4E0,8E0],"tree_param":{"num_deleted":"0","num_feature":"15","num_nodes":"19","size_leaf_vector":"1"}},{"base_weights":[6.342908E8,-6.8231987E9,5.640689E8,-1.7818552E10,4.8035043E8,-1.9934999E10,-4.824213E7,3.263426E8,-3.1189924E9,-5.426823E7,-2.0944037E8,4.447138E9,-4.9286943E9,5.9572084E7,-4.1537534E5,-6.726593E7,-1.1107478E7],"categories":[],"categories_nodes":[],"categories_segments":[],"categories_sizes":[],"default_left":[0,0,0,0,0,0,0,0,0,0,0,0,0,0,0,0,0],"id":41,"left_children":[1,3,-1,5,7,9,-1,-1,11,-1,-1,13,15,-1,-1,-1,-1],"loss_changes":[1.4110354E22,2.4177124E21,0E0,2.338511E20,2.3007121E21,3.273385E19,0E0,0E0,2.6838254E20,0E0,0E0,2.7360327E19,9.549267E19,0E0,0E0,0E0,0E0],"parents":[2147483647,0,0,1,1,3,3,4,4,5,5,8,8,11,11,12,12],"right_children":[2,4,-1,6,8,10,-1,-1,12,-1,-1,14,16,-1,-1,-1,-1],"split_conditions":[7.170296E10,4.8535454E10,5.640689E8,5.750759E10,3.64693E10,6.4468096E9,-4.824213E7,3.263426E8,5.5751574E10,-5.426823E7,-2.0944037E8,7.170296E10,5.616637E10,5.9572084E7,-4.1537534E5,-6.726593E7,-1.1107478E7],"split_indices":[2,4,0,3,0,7,0,0,8,0,0,0,3,0,0,0,0],"split_type":[0,0,0,0,0,0,0,0,0,0,0,0,0,0,0,0,0],"sum_hessian":[3.2E1,2.9E1,3E0,1.1E1,1.8E1,9E0,2E0,1E0,1.7E1,1E0,8E0,3E0,1.4E1,2E0,1E0,9E0,5E0],"tree_param":{"num_deleted":"0","num_feature":"15","num_nodes":"17","size_leaf_vector":"1"}},{"base_weights":[-4.4401315E8,-7.052312E9,4.4581224E10,-1.5191754E10,1.0267332E9,6.049591E8,1.3806125E8,-1.0342441E10,-2.235842E8,3.2471088E8,-2.732999E9,-1.0953184E10,-1.8121338E7,5.9174936E7,-4.2808975E9,-1.1997501E8,-4.1691696E7,-5.8398372E7,-1.66499E7],"categories":[],"categories_nodes":[],"categories_segments":[],"categories_sizes":[],"default_left":[0,0,0,0,0,0,0,0,0,0,0,0,0,0,0,0,0,0,0],"id":42,"left_children":[1,3,5,7,9,-1,-1,11,-1,-1,13,15,-1,-1,17,-1,-1,-1,-1],"loss_changes":[1.1620929E22,2.2514012E21,1.6136668E21,3.595674E20,2.2167459E21,0E0,0E0,4.2669355E19,0E0,0E0,2.5296367E20,2.7911622E19,0E0,0E0,5.1447345E19,0E0,0E0,0E0,0E0],"parents":[2147483647,0,0,1,1,2,2,3,3,4,4,7,7,10,10,11,11,14,14],"right_children":[2,4,6,8,10,-1,-1,12,-1,-1,14,16,-1,-1,18,-1,-1,-1,-1],"split_conditions":[8.50362E10,3.5622756E10,1.7008604E11,2.023E3,3.64693E10,6.049591E8,1.3806125E8,6.559945E10,-2.235842E8,3.2471088E8,3.7594784E10,6.1198655E10,-1.8121338E7,5.9174936E7,5.616637E10,-1.1997501E8,-4.1691696E7,-5.8398372E7,-1.66499E7],"split_indices":[2,7,3,11,0,0,0,8,0,0,7,4,0,0,3,0,0,0,0],"split_type":[0,0,0,0,0,0,0,0,0,0,0,0,0,0,0,0,0,0,0],"sum_hessian":[3.7E1,3.3E1,4E0,1.6E1,1.7E1,2E0,2E0,1.1E1,5E0,1E0,1.6E1,1E1,1E0,2E0,1.4E1,8E0,2E0,8E0,6E0],"tree_param":{"num_deleted":"0","num_feature":"15","num_nodes":"19","size_leaf_vector":"1"}},{"base_weights":[2.298296E9,-7.225555E9,5.8981745E10,-1.6985806E10,1.2373308E9,1.4591446E8,6.6431456E8,-6.538416E7,-1.9240692E10,3.230873E8,-2.7239276E9,-2.039962E8,-3.825711E7,-9.1154744E7,-1.1597441E9,4.4024668E7,-3.0769348E7],"categories":[],"categories_nodes":[],"categories_segments":[],"categories_sizes":[],"default_left":[0,0,0,0,0,0,0,0,0,0,0,0,0,0,0,0,0],"id":43,"left_children":[1,3,5,7,9,-1,-1,-1,11,-1,13,-1,-1,-1,15,-1,-1],"loss_changes":[1.8780897E22,2.4990137E21,6.841441E20,2.0400377E20,2.1803982E21,0E0,0E0,0E0,1.1847E20,0E0,1.4938922E20,0E0,0E0,0E0,1.6283957E20,0E0,0E0],"parents":[2147483647,0,0,1,1,2,2,3,3,4,4,8,8,10,10,14,14],"right_children":[2,4,6,8,10,-1,-1,-1,12,-1,14,-1,-1,-1,16,-1,-1],"split_conditions":[8.50362E10,4.8535454E10,2.1480583E10,6.9021834E9,3.64693E10,1.4591446E8,6.6431456E8,-6.538416E7,5.5722185E10,3.230873E8,3.4425086E10,-2.039962E8,-3.825711E7,-9.1154744E7,5.5751574E10,4.4024668E7,-3.0769348E7],"split_indices":[2,4,0,7,0,0,0,0,3,0,2,0,0,0,8,0,0],"split_type":[0,0,0,0,0,0,0,0,0,0,0,0,0,0,0,0,0],"sum_hessian":[3.3E1,2.9E1,4E0,1.3E1,1.6E1,1E0,3E0,3E0,1E1,1E0,1.5E1,9E0,1E0,2E0,1.3E1,3E0,1E1],"tree_param":{"num_deleted":"0","num_feature":"15","num_nodes":"17","size_leaf_vector":"1"}},{"base_weights":[-2.7390036E9,-9.701948E9,5.016783E8,-1.7459036E10,-4.292106E9,-6.4893776E7,-2.0394547E10,-5.639859E9,2.1719327E9,-2.1992218E8,-3.8065828E7,-6.328166E9,-5.478059E8,-8.100386E8,5.558923E7,-3.4144256E5,-6.809695E7,-1.3141975E7,4.924887E6,-1.0723E7,-1.4275789E6],"categories":[],"categories_nodes":[],"categories_segments":[],"categories_sizes":[],"default_left":[0,0,0,0,0,0,0,0,0,0,0,0,0,0,0,0,0,0,0,0,0],"id":44,"left_children":[1,3,-1,5,7,-1,9,11,13,-1,-1,15,17,19,-1,-1,-1,-1,-1,-1,-1],"loss_changes":[1.2643508E22,1.1840023E21,0E0,2.5407085E20,1.77776E20,0E0,1.5480392E20,5.261172E19,4.4902577E19,0E0,0E0,4.2198025E19,3.0390466E18,3.719267E17,0E0,0E0,0E0,0E0,0E0,0E0,0E0],"parents":[2147483647,0,0,1,1,3,3,4,4,6,6,7,7,8,8,11,11,12,12,13,13],"right_children":[2,4,-1,6,8,-1,10,12,14,-1,-1,16,18,20,-1,-1,-1,-1,-1,-1,-1],"split_conditions":[7.170296E10,5.6566755E10,5.016783E8,6.9021834E9,1.1E1,-6.4893776E7,5.5722185E10,9.165717E10,5.92377E10,-2.1992218E8,-3.8065828E7,3.286803E10,4.381858E10,5.750759E10,5.558923E7,-3.4144256E5,-6.809695E7,-1.3141975E7,4.924887E6,-1.0723E7,-1.4275789E6],"split_indices":[2,6,0,7,10,0,3,4,0,0,0,3,0,0,0,0,0,0,0,0,0],"split_type":[0,0,0,0,0,0,0,0,0,0,0,0,0,0,0,0,0,0,0,0,0],"sum_hessian":[3.2E1,2.9E1,3E0,1.1E1,1.8E1,3E0,8E0,1.5E1,3E0,7E0,1E0,1.3E1,2E0,2E0,1E0,1E0,1.2E1,1E0,1E0,1E0,1E0],"tree_param":{"num_deleted":"0","num_feature":"15","num_nodes":"21","size_leaf_vector":"1"}},{"base_weights":[1.1043062E9,-7.947558E9,4.467093E10,-1.5145888E10,2.0769934E9,5.717423E8,1.3109556E8,-1.9159368E10,-8.2358016E9,3.214736E8,-3.1078175E9,-2.044651E10,-3.7875508E7,-4.417635E7,-1.0949559E8,2.1427951E9,-4.3722194E9,-5.2745624E7,-2.168368E8,3.2481668E7,-3.3974272E5,-5.6736724E7,-1.0016215E7],"categories":[],"categories_nodes":[],"categories_segments":[],"categories_sizes":[],"default_left":[0,0,0,0,0,0,0,0,0,0,0,0,0,0,0,0,0,0,0,0,0,0,0],"id":45,"left_children":[1,3,5,7,9,-1,-1,11,13,-1,15,17,-1,-1,-1,19,21,-1,-1,-1,-1,-1,-1],"loss_changes":[1.3763237E22,2.1240988E21,1.6181985E21,3.1367656E20,2.1267275E21,0E0,0E0,1.2041471E20,3.4521463E19,0E0,8.903539E19,5.456083E19,0E0,0E0,0E0,7.328773E18,3.8183893E19,0E0,0E0,0E0,0E0,0E0,0E0],"parents":[2147483647,0,0,1,1,2,2,3,3,4,4,7,7,8,8,10,10,11,11,15,15,16,16],"right_children":[2,4,6,8,10,-1,-1,12,14,-1,16,18,-1,-1,-1,20,22,-1,-1,-1,-1,-1,-1],"split_conditions":[8.50362E10,3.5622756E10,1.7008604E11,4.4424155E10,3.64693E10,5.717423E8,1.3109556E8,5.750759E10,3.2896625E10,3.214736E8,3.64693E10,6.4468096E9,-3.7875508E7,-4.417635E7,-1.0949559E8,4.646198E10,5.616637E10,-5.2745624E7,-2.168368E8,3.2481668E7,-3.3974272E5,-5.6736724E7,-1.0016215E7],"split_indices":[2,7,3,4,0,0,0,3,7,0,3,7,0,0,0,0,3,0,0,0,0,0,0],"split_type":[0,0,0,0,0,0,0,0,0,0,0,0,0,0,0,0,0,0,0,0,0,0,0],"sum_hessian":[3.3E1,2.8E1,5E0,1.6E1,1.2E1,3E0,2E0,9E0,7E0,1E0,1.1E1,8E0,1E0,4E0,3E0,2E0,9E0,1E0,7E0,1E0,1E0,6E0,3E0],"tree_param":{"num_deleted":"0","num_feature":"15","num_nodes":"23","size_leaf_vector":"1"}},{"base_weights":[3.6154447E9,-9.634194E9,4.8526287E10,-5.392275E9,-2.1461242E8,6.012351E8,1.3022158E8,3.2319262E7,-6.0509486E9,-1.0030932E9,-7.4215434E9,-1.1853486E7,-1.3703578E6,-9.200992E7,-3.5154452E7],"categories":[],"categories_nodes":[],"categories_segments":[],"categories_sizes":[],"default_left":[0,0,0,0,0,0,0,0,0,0,0,0,0,0,0],"id":46,"left_children":[1,3,5,7,-1,-1,-1,-1,9,11,13,-1,-1,-1,-1],"loss_changes":[1.8319086E22,1.0883406E21,2.0993068E21,1.27486385E20,0E0,0E0,0E0,0E0,1.1708972E20,6.267832E17,6.4964284E19,0E0,0E0,0E0,0E0],"parents":[2147483647,0,0,1,1,2,2,3,3,8,8,9,9,10,10],"right_children":[2,4,6,8,-1,-1,-1,-1,10,12,14,-1,-1,-1,-1],"split_conditions":[7.170296E10,2.024E3,1.7008604E11,3.64693E10,-2.1461242E8,6.012351E8,1.3022158E8,3.2319262E7,9.277052E8,5.84641E10,5.616637E10,-1.1853486E7,-1.3703578E6,-9.200992E7,-3.5154452E7],"split_indices":[2,11,3,3,0,0,0,0,5,0,3,0,0,0,0],"split_type":[0,0,0,0,0,0,0,0,0,0,0,0,0,0,0],"sum_hessian":[2.9E1,2.3E1,6E0,1.8E1,5E0,4E0,2E0,1E0,1.7E1,4E0,1.3E1,3E0,1E0,8E0,5E0],"tree_param":{"num_deleted":"0","num_feature":"15","num_nodes":"15","size_leaf_vector":"1"}},{"base_weights":[-2.5704148E9,-8.293762E9,3.2283752E10,-1.7205264E10,5.791314E8,3.7721677E8,5.2660264E7,-6.307475E7,-1.940409E10,3.1970467E8,-3.644989E9,-2.048609E10,-3.7510348E7,-1.6031744E9,-8.859185E7,-2.2119746E8,-8.7564296E7,3.2157674E7,-2.3336026E7],"categories":[],"categories_nodes":[],"categories_segments":[],"categories_sizes":[],"default_left":[0,0,0,0,0,0,0,0,0,0,0,0,0,0,0,0,0,0,0],"id":47,"left_children":[1,3,5,7,9,-1,-1,-1,11,-1,13,15,-1,17,-1,-1,-1,-1,-1],"loss_changes":[7.0501595E21,2.3820884E21,5.359582E20,2.3704415E20,2.2381445E21,0E0,0E0,0E0,1.2639549E20,0E0,1.4549352E20,1.7094538E19,0E0,4.9743023E19,0E0,0E0,0E0,0E0,0E0],"parents":[2147483647,0,0,1,1,2,2,3,3,4,4,8,8,10,10,11,11,13,13],"right_children":[2,4,6,8,10,-1,-1,-1,12,-1,14,16,-1,18,-1,-1,-1,-1,-1],"split_conditions":[7.170296E10,4.8535454E10,1.7008604E11,6.9021834E9,3.64693E10,3.7721677E8,5.2660264E7,-6.307475E7,5.750759E10,3.1970467E8,6.6598806E10,5.750759E10,-3.7510348E7,5.4018392E10,-8.859185E7,-2.2119746E8,-8.7564296E7,3.2157674E7,-2.3336026E7],"split_indices":[2,4,2,7,0,0,0,0,3,0,0,2,0,8,0,0,0,0,0],"split_type":[0,0,0,0,0,0,0,0,0,0,0,0,0,0,0,0,0,0,0],"sum_hessian":[3.3E1,2.9E1,4E0,1.4E1,1.5E1,3E0,1E0,3E0,1.1E1,1E0,1.4E1,1E1,1E0,1.1E1,3E0,8E0,2E0,1E0,1E1],"tree_param":{"num_deleted":"0","num_feature":"15","num_nodes":"19","size_leaf_vector":"1"}},{"base_weights":[-2.4710845E9,-7.7100283E9,3.7438765E8,-1.5671638E10,2.5083569E9,-9.869651E9,-2.255024E8,3.1810618E8,-2.1926339E9,-1.1640957E10,-3.859628E7,3.1996886E7,-2.908635E9,-1.4192742E8,-5.540985E7,-3.6294316E7,-5.5968255E6],"categories":[],"categories_nodes":[],"categories_segments":[],"categories_sizes":[],"default_left":[0,0,0,0,0,0,0,0,0,0,0,0,0,0,0,0,0],"id":48,"left_children":[1,3,-1,5,7,9,-1,-1,11,13,-1,-1,15,-1,-1,-1,-1],"loss_changes":[7.1884735E21,2.479954E21,0E0,4.5589967E20,1.9982442E21,7.217166E19,0E0,0E0,5.9498524E19,4.5884784E19,0E0,0E0,1.8286083E19,0E0,0E0,0E0,0E0],"parents":[2147483647,0,0,1,1,3,3,4,4,5,5,8,8,9,9,12,12],"right_children":[2,4,-1,6,8,10,-1,-1,12,14,-1,-1,16,-1,-1,-1,-1],"split_conditions":[8.50362E10,3.4112702E10,3.7438765E8,2.023E3,3.64693E10,4.8365294E10,-2.255024E8,3.1810618E8,3.64693E10,4.5294203E10,-3.859628E7,3.1996886E7,5.82344E10,-1.4192742E8,-5.540985E7,-3.6294316E7,-5.5968255E6],"split_indices":[2,7,0,11,0,4,0,0,3,3,0,0,0,0,0,0,0],"split_type":[0,0,0,0,0,0,0,0,0,0,0,0,0,0,0,0,0],"sum_hessian":[3.2E1,2.9E1,3E0,1.6E1,1.3E1,1E1,6E0,1E0,1.2E1,7E0,3E0,1E0,1.1E1,4E0,3E0,8E0,3E0],"tree_param":{"num_deleted":"0","num_feature":"15","num_nodes":"17","size_leaf_vector":"1"}},{"base_weights":[-5.5868186E9,-9.672974E9,2.7477598E10,-4.9497615E9,-2.2633491E8,3.3268464E8,5.052502E7,-1.1199029E10,-2.2445038E9,-4.5219444E7,-1.29654744E8,4.4073093E9,-3.868687E9,5.8908564E7,-2.1665792E5,-1.9509058E7,-7.314068E7],"categories":[],"categories_nodes":[],"categories_segments":[],"categories_sizes":[],"default_left":[0,0,0,0,0,0,0,0,0,0,0,0,0,0,0,0,0],"id":49,"left_children":[1,3,5,7,-1,-1,-1,9,11,-1,-1,13,15,-1,-1,-1,-1],"loss_changes":[4.859407E21,1.7856438E21,3.5135395E20,3.806048E20,0E0,0E0,0E0,2.3933817E19,2.115182E20,0E0,0E0,2.6409997E19,8.484326E19,0E0,0E0,0E0,0E0],"parents":[2147483647,0,0,1,1,2,2,3,3,7,7,8,8,11,11,12,12],"right_children":[2,4,6,8,-1,-1,-1,10,12,-1,-1,14,16,-1,-1,-1,-1],"split_conditions":[8.50362E10,2.024E3,5.494861E10,4.8365294E10,-2.2633491E8,3.3268464E8,5.052502E7,3.286803E10,5.5751574E10,-4.5219444E7,-1.29654744E8,7.170296E10,6.6598806E10,5.8908564E7,-2.1665792E5,-1.9509058E7,-7.314068E7],"split_indices":[2,11,0,4,0,0,0,2,8,0,0,0,0,0,0,0,0],"split_type":[0,0,0,0,0,0,0,0,0,0,0,0,0,0,0,0,0],"sum_hessian":[3.3E1,3E1,3E0,2.3E1,7E0,2E0,1E0,6E0,1.7E1,2E0,4E0,3E0,1.4E1,2E0,1E0,1E1,4E0],"tree_param":{"num_deleted":"0","num_feature":"15","num_nodes":"17","size_leaf_vector":"1"}},{"base_weights":[-5.020615E9,-1.7248029E10,1.3022842E9,-1.9350096E10,-4.491798E7,3.0144637E8,-2.689959E9,-4.1511096E7,-2.0577635E8,-7.856516E8,-7.6371697E9,3.2401236E9,-2.7330683E9,-8.889399E7,-6.8801125E6,-2.7228282E7,6.9023064E7,-7.7017905E6,-4.0251064E7],"categories":[],"categories_nodes":[],"categories_segments":[],"categories_sizes":[],"default_left":[0,0,0,0,0,0,0,0,0,0,0,0,0,0,0,0,0,0,0],"id":50,"left_children":[1,3,5,7,-1,-1,9,-1,-1,11,13,15,17,-1,-1,-1,-1,-1,-1],"loss_changes":[2.7284065E21,2.3485653E20,2.8445841E21,1.0115394E20,0E0,0E0,2.0126205E20,0E0,0E0,1.4213314E20,4.609561E19,1.4981833E20,2.733348E19,0E0,0E0,0E0,0E0,0E0,0E0],"parents":[2147483647,0,0,1,1,2,2,3,3,6,6,9,9,10,10,11,11,12,12],"right_children":[2,4,6,8,-1,-1,10,-1,-1,12,14,16,18,-1,-1,-1,-1,-1,-1],"split_conditions":[4.8535454E10,5.5722185E10,3.64693E10,6.9021834E9,-4.491798E7,3.0144637E8,7.170296E10,-4.1511096E7,-2.0577635E8,3.7594784E10,5.616637E10,5.284967E10,3.656817E9,-8.889399E7,-6.8801125E6,-2.7228282E7,6.9023064E7,-7.7017905E6,-4.0251064E7],"split_indices":[4,3,0,7,0,0,0,0,0,7,3,1,5,0,0,0,0,0,0],"split_type":[0,0,0,0,0,0,0,0,0,0,0,0,0,0,0,0,0,0,0],"sum_hessian":[3.4E1,1.1E1,2.3E1,9E0,2E0,2E0,2.1E1,1E0,8E0,1.6E1,5E0,5E0,1.1E1,4E0,1E0,2E0,3E0,5E0,6E0],"tree_param":{"num_deleted":"0","num_feature":"15","num_nodes":"19","size_leaf_vector":"1"}},{"base_weights":[5.6284856E9,-5.001394E9,4.7343935E10,-1.4510267E10,1.0874395E9,1.8806014E10,6.4045875E8,-1.6247486E10,-4.4618532E7,3.1471386E8,-2.5511096E9,2.1746202E8,4.992725E7,-4.1303532E7,-1.7245835E8,-8.853217E7,-1.120614E9,4.365622E7,-2.8559748E7],"categories":[],"categories_nodes":[],"categories_segments":[],"categories_sizes":[],"default_left":[0,0,0,0,0,0,0,0,0,0,0,0,0,0,0,0,0,0,0],"id":51,"left_children":[1,3,5,7,9,11,-1,13,-1,-1,15,-1,-1,-1,-1,-1,17,-1,-1],"loss_changes":[1.5313413E22,1.6369217E21,2.1320232E21,1.1952553E20,2.0702496E21,5.388177E19,0E0,3.7642493E19,0E0,0E0,1.4333629E20,0E0,0E0,0E0,0E0,0E0,1.552771E20,0E0,0E0],"parents":[2147483647,0,0,1,1,2,2,3,3,4,4,5,5,7,7,10,10,16,16],"right_children":[2,4,6,8,10,12,-1,14,-1,-1,16,-1,-1,-1,-1,-1,18,-1,-1],"split_conditions":[8.50362E10,4.8535454E10,8.7802085E10,5.5722185E10,3.64693E10,4.2020307E10,6.4045875E8,6.9021834E9,-4.4618532E7,3.1471386E8,3.4425086E10,2.1746202E8,4.992725E7,-4.1303532E7,-1.7245835E8,-8.853217E7,5.5751574E10,4.365622E7,-2.8559748E7],"split_indices":[2,4,4,3,0,0,0,7,0,0,2,0,0,0,0,0,8,0,0],"split_type":[0,0,0,0,0,0,0,0,0,0,0,0,0,0,0,0,0,0,0],"sum_hessian":[3.3E1,2.7E1,6E0,1E1,1.7E1,3E0,3E0,8E0,2E0,1E0,1.6E1,2E0,1E0,1E0,7E0,2E0,1.4E1,3E0,1.1E1],"tree_param":{"num_deleted":"0","num_feature":"15","num_nodes":"19","size_leaf_vector":"1"}},{"base_weights":[-1.6918451E9,-5.366743E9,5.060265E8,3.131403E8,-7.8850693E9,-1.4582241E10,-6.2467776E8,-8.757239E9,-2.0889373E8,4.332881E9,-2.3706376E9,-1.01495736E8,-2.5893764E7,5.7764656E7,1.062912E4,-6.2634704E7,-8.096222E6],"categories":[],"categories_nodes":[],"categories_segments":[],"categories_sizes":[],"default_left":[0,0,0,0,0,0,0,0,0,0,0,0,0,0,0,0,0],"id":52,"left_children":[1,3,-1,-1,5,7,9,11,-1,13,15,-1,-1,-1,-1,-1,-1],"loss_changes":[5.8447024E21,2.8333896E21,0E0,0E0,1.3037414E21,3.314137E20,1.3145145E20,5.1008614E19,0E0,2.500724E19,6.1773453E19,0E0,0E0,0E0,0E0,0E0,0E0],"parents":[2147483647,0,0,1,1,4,4,5,5,6,6,7,7,9,9,10,10],"right_children":[2,4,-1,-1,6,8,10,12,-1,14,16,-1,-1,-1,-1,-1,-1],"split_conditions":[8.50362E10,2.8669202E10,5.060265E8,3.131403E8,5.5718593E10,2.024E3,4.1851916E10,4.8365294E10,-2.0889373E8,7.170296E10,6.7742573E10,-1.01495736E8,-2.5893764E7,5.7764656E7,1.062912E4,-6.2634704E7,-8.096222E6],"split_indices":[2,3,0,0,4,11,3,4,0,0,6,0,0,0,0,0,0],"split_type":[0,0,0,0,0,0,0,0,0,0,0,0,0,0,0,0,0],"sum_hessian":[2.8E1,2.7E1,1E0,1E0,2.6E1,1.3E1,1.3E1,8E0,5E0,3E0,1E1,6E0,2E0,2E0,1E0,2E0,8E0],"tree_param":{"num_deleted":"0","num_feature":"15","num_nodes":"17","size_leaf_vector":"1"}},{"base_weights":[-2.748423E8,-7.43952E9,4.7066997E10,3.115746E8,-9.619346E9,1.30823736E8,5.2292557E8,-5.313103E9,-2.1873938E8,-9.783835E9,-2.1868265E9,-1.162752E8,-5.6146452E7,5.737955E7,-3.728792E7],"categories":[],"categories_nodes":[],"categories_segments":[],"categories_sizes":[],"default_left":[0,0,0,0,0,0,0,0,0,0,0,0,0,0,0],"id":53,"left_children":[1,3,5,-1,7,-1,-1,9,-1,11,13,-1,-1,-1,-1],"loss_changes":[1.2900149E22,3.0761598E21,2.0383292E20,0E0,1.5724614E21,0E0,0E0,3.28023E20,0E0,1.1582414E19,2.169115E20,0E0,0E0,0E0,0E0],"parents":[2147483647,0,0,1,1,2,2,4,4,7,7,9,9,10,10],"right_children":[2,4,6,-1,8,-1,-1,10,-1,12,14,-1,-1,-1,-1],"split_conditions":[8.50362E10,2.8669202E10,2.1480583E10,3.115746E8,2.024E3,1.30823736E8,5.2292557E8,3.5622756E10,-2.1873938E8,4.5294203E10,3.7594784E10,-1.162752E8,-5.6146452E7,5.737955E7,-3.728792E7],"split_indices":[2,3,0,0,11,0,0,7,0,3,7,0,0,0,0],"split_type":[0,0,0,0,0,0,0,0,0,0,0,0,0,0,0],"sum_hessian":[3.6E1,3.2E1,4E0,1E0,3.1E1,1E0,3E0,2.4E1,7E0,9E0,1.5E1,5E0,4E0,2E0,1.3E1],"tree_param":{"num_deleted":"0","num_feature":"15","num_nodes":"15","size_leaf_vector":"1"}},{"base_weights":[1.1472105E9,-6.8328934E9,4.8798392E10,-1.5442924E10,1.6660659E9,2.1045954E8,6.028469E8,-5.9237948E7,-1.7329056E10,3.1001674E8,-2.3564196E9,-1.8257446E8,-3.558375E7,-4.771521E9,3.4280873E9,1.9699711E5,-5.2526132E7,5.6997012E7,1.3777578E5],"categories":[],"categories_nodes":[],"categories_segments":[],"categories_sizes":[],"default_left":[0,0,0,0,0,0,0,0,0,0,0,0,0,0,0,0,0,0,0],"id":54,"left_children":[1,3,5,7,9,-1,-1,-1,11,-1,13,-1,-1,15,17,-1,-1,-1,-1],"loss_changes":[1.3262322E22,2.2210179E21,3.25116E20,1.6666133E20,1.9610858E21,0E0,0E0,0E0,8.844788E19,0E0,2.2590974E20,0E0,0E0,2.545869E19,3.8701446E19,0E0,0E0,0E0,0E0],"parents":[2147483647,0,0,1,1,2,2,3,3,4,4,8,8,10,10,13,13,14,14],"right_children":[2,4,6,8,10,-1,-1,-1,12,-1,14,-1,-1,16,18,-1,-1,-1,-1],"split_conditions":[8.50362E10,4.8535454E10,4.2020307E10,6.9021834E9,3.64693E10,2.1045954E8,6.028469E8,-5.9237948E7,5.5722185E10,3.1001674E8,1E1,-1.8257446E8,-3.558375E7,3.286803E10,4.1851916E10,1.9699711E5,-5.2526132E7,5.6997012E7,1.3777578E5],"split_indices":[2,4,0,7,0,0,0,0,3,0,10,0,0,3,3,0,0,0,0],"split_type":[0,0,0,0,0,0,0,0,0,0,0,0,0,0,0,0,0,0,0],"sum_hessian":[3.3E1,2.9E1,4E0,1.4E1,1.5E1,2E0,2E0,3E0,1.1E1,1E0,1.4E1,1E1,1E0,1E1,4E0,1E0,9E0,2E0,2E0],"tree_param":{"num_deleted":"0","num_feature":"15","num_nodes":"19","size_leaf_vector":"1"}},{"base_weights":[3.982779E9,-6.5060915E9,4.1778176E10,3.0846666E8,-9.753683E9,5.413547E8,1.13757256E8,-5.0248745E9,-2.0738224E8,-7.3782216E9,1.27073624E8,1.9601408E5,-8.119963E7,3.0118256E7,-1.0522419E7],"categories":[],"categories_nodes":[],"categories_segments":[],"categories_sizes":[],"default_left":[0,0,0,0,0,0,0,0,0,0,0,0,0,0,0],"id":55,"left_children":[1,3,5,-1,7,-1,-1,9,-1,11,13,-1,-1,-1,-1],"loss_changes":[1.097545E22,2.9696114E21,1.6383217E21,0E0,9.866126E20,0E0,0E0,1.9492677E20,0E0,6.051916E19,2.3581367E19,0E0,0E0,0E0,0E0],"parents":[2147483647,0,0,1,1,2,2,4,4,7,7,9,9,10,10],"right_children":[2,4,6,-1,8,-1,-1,10,-1,12,14,-1,-1,-1,-1],"split_conditions":[7.170296E10,2.8669202E10,1.7008604E11,3.0846666E8,2.024E3,5.413547E8,1.13757256E8,9E0,-2.0738224E8,3.286803E10,4.646198E10,1.9601408E5,-8.119963E7,3.0118256E7,-1.0522419E7],"split_indices":[2,3,3,0,11,0,0,10,0,3,0,0,0,0,0],"split_type":[0,0,0,0,0,0,0,0,0,0,0,0,0,0,0],"sum_hessian":[2.6E1,2.1E1,5E0,1E0,2E1,3E0,2E0,1.5E1,5E0,1E1,5E0,1E0,9E0,1E0,4E0],"tree_param":{"num_deleted":"0","num_feature":"15","num_nodes":"15","size_leaf_vector":"1"}},{"base_weights":[2.8695007E9,-6.395074E9,4.871412E10,-1.3151633E10,3.388928E8,5.681895E8,4.09498E7,-4.8489828E7,-1.4823214E10,3.069243E8,-3.7308383E9,-1.589057E10,-1.5411466E7,-3.007331E8,-5.4158177E9,-3.960662E7,-1.6687494E8,-4.666245E6,2.0699817E5,-6.78014E7,-1.6742983E7],"categories":[],"categories_nodes":[],"categories_segments":[],"categories_sizes":[],"default_left":[0,0,0,0,0,0,0,0,0,0,0,0,0,0,0,0,0,0,0,0,0],"id":56,"left_children":[1,3,5,7,9,-1,-1,-1,11,-1,13,15,-1,17,19,-1,-1,-1,-1,-1,-1],"loss_changes":[1.5177113E22,1.3694105E21,1.9371097E21,1.363006E20,2.0910002E21,0E0,0E0,0E0,1.4563065E20,0E0,8.506614E19,3.8486074E19,0E0,3.2959682E17,3.9694393E19,0E0,0E0,0E0,0E0,0E0,0E0],"parents":[2147483647,0,0,1,1,2,2,3,3,4,4,8,8,10,10,11,11,13,13,14,14],"right_children":[2,4,6,8,10,-1,-1,-1,12,-1,14,16,-1,18,20,-1,-1,-1,-1,-1,-1],"split_conditions":[8.50362E10,3.8894223E10,1.8932621E11,3E0,3.64693E10,5.681895E8,4.09498E7,-4.8489828E7,6.559945E10,3.069243E8,4.5346402E10,6.9021834E9,-1.5411466E7,5.82344E10,5.616637E10,-3.960662E7,-1.6687494E8,-4.666245E6,2.0699817E5,-6.78014E7,-1.6742983E7],"split_indices":[2,7,2,10,0,0,0,0,8,0,7,7,0,3,3,0,0,0,0,0,0],"split_type":[0,0,0,0,0,0,0,0,0,0,0,0,0,0,0,0,0,0,0,0,0],"sum_hessian":[3.4E1,2.9E1,5E0,1.4E1,1.5E1,4E0,1E0,3E0,1.1E1,1E0,1.4E1,1E1,1E0,5E0,9E0,1E0,9E0,3E0,2E0,6E0,3E0],"tree_param":{"num_deleted":"0","num_feature":"15","num_nodes":"21","size_leaf_vector":"1"}},{"base_weights":[1.01919226E9,-7.605301E9,5.083742E10,-1.518685E10,1.6025606E9,6.150952E8,4.074504E7,-9.680852E9,-2.088301E8,3.053897E8,-2.9724685E9,-1.0415738E10,-1.53344E7,3.320714E9,-6.138407E9,-1.2415196E8,-4.8126164E7,5.7664224E7,-2.3189912E6,-2.0476774E7,-7.842492E7],"categories":[],"categories_nodes":[],"categories_segments":[],"categories_sizes":[],"default_left":[0,0,0,0,0,0,0,0,0,0,0,0,0,0,0,0,0,0,0,0,0],"id":57,"left_children":[1,3,5,7,9,-1,-1,11,-1,-1,13,15,-1,17,19,-1,-1,-1,-1,-1,-1],"loss_changes":[1.4565314E22,2.0488236E21,2.2446706E21,2.9964306E20,1.9441648E21,0E0,0E0,4.3902285E19,0E0,0E0,2.7939366E20,4.107923E19,0E0,4.47805E19,4.6679634E19,0E0,0E0,0E0,0E0,0E0,0E0],"parents":[2147483647,0,0,1,1,2,2,3,3,4,4,7,7,10,10,11,11,13,13,14,14],"right_children":[2,4,6,8,10,-1,-1,12,-1,-1,14,16,-1,18,20,-1,-1,-1,-1,-1,-1],"split_conditions":[8.50362E10,3.5622756E10,1.8932621E11,2.023E3,3.64693E10,6.150952E8,4.074504E7,6.559945E10,-2.088301E8,3.053897E8,4.2020307E10,4.5294203E10,-1.53344E7,4.5294203E10,4.895491E10,-1.2415196E8,-4.8126164E7,5.7664224E7,-2.3189912E6,-2.0476774E7,-7.842492E7],"split_indices":[2,7,2,11,0,0,0,8,0,0,3,3,0,2,0,0,0,0,0,0,0],"split_type":[0,0,0,0,0,0,0,0,0,0,0,0,0,0,0,0,0,0,0,0,0],"sum_hessian":[3.2E1,2.8E1,4E0,1.5E1,1.3E1,3E0,1E0,9E0,6E0,1E0,1.2E1,8E0,1E0,4E0,8E0,5E0,3E0,2E0,2E0,3E0,5E0],"tree_param":{"num_deleted":"0","num_feature":"15","num_nodes":"21","size_leaf_vector":"1"}},{"base_weights":[2.2005286E9,-6.853809E9,4.4570903E10,-1.3780267E10,1.3668186E9,1.6950882E10,6.10482E8,-9.612034E9,-2.0514728E8,3.0386275E8,-2.5935634E9,1.9898422E8,4.0541304E7,-1.0158742E10,-1.5257723E7,5.72798E7,-4.3144146E9,-1.1111395E8,-3.5969788E7,-1.5432997E7,-6.469185E7],"categories":[],"categories_nodes":[],"categories_segments":[],"categories_sizes":[],"default_left":[0,0,0,0,0,0,0,0,0,0,0,0,0,0,0,0,0,0,0,0,0],"id":58,"left_children":[1,3,5,7,9,11,-1,13,-1,-1,15,-1,-1,17,-1,-1,19,-1,-1,-1,-1],"loss_changes":[1.5267271E22,1.8978494E21,2.1509023E21,3.080862E20,1.9176588E21,7.1383954E19,0E0,4.1970875E19,0E0,0E0,2.3951497E20,0E0,0E0,3.5045746E19,0E0,0E0,6.764062E19,0E0,0E0,0E0,0E0],"parents":[2147483647,0,0,1,1,2,2,3,3,4,4,5,5,7,7,10,10,13,13,16,16],"right_children":[2,4,6,8,10,12,-1,14,-1,-1,16,-1,-1,18,-1,-1,20,-1,-1,-1,-1],"split_conditions":[8.50362E10,3.5622756E10,8.7802085E10,2.023E3,3.64693E10,4.2020307E10,6.10482E8,6.559945E10,-2.0514728E8,3.0386275E8,3.7594784E10,1.9898422E8,4.0541304E7,6.1198655E10,-1.5257723E7,5.72798E7,4.5346402E10,-1.1111395E8,-3.5969788E7,-1.5432997E7,-6.469185E7],"split_indices":[2,7,4,11,0,0,0,8,0,0,7,0,0,4,0,0,7,0,0,0,0],"split_type":[0,0,0,0,0,0,0,0,0,0,0,0,0,0,0,0,0,0,0,0,0],"sum_hessian":[3.8E1,3.2E1,6E0,1.7E1,1.5E1,3E0,3E0,1.2E1,5E0,1E0,1.4E1,2E0,1E0,1.1E1,1E0,2E0,1.2E1,9E0,2E0,6E0,6E0],"tree_param":{"num_deleted":"0","num_feature":"15","num_nodes":"21","size_leaf_vector":"1"}},{"base_weights":[-7.2434496E8,-7.9280015E9,3.5414663E10,3.023434E8,-1.0286508E10,4.5023206E8,1.0798386E8,-5.1402035E9,-2.1151606E8,-7.3055964E9,-1.44128E9,-1.7885838E7,-8.7818424E7,2.0229898E6,-2.7966028E7],"categories":[],"categories_nodes":[],"categories_segments":[],"categories_sizes":[],"default_left":[0,0,0,0,0,0,0,0,0,0,0,0,0,0,0],"id":59,"left_children":[1,3,5,-1,7,-1,-1,9,-1,11,13,-1,-1,-1,-1],"loss_changes":[9.392423E21,3.0111895E21,9.3298146E20,0E0,1.5128146E21,0E0,0E0,1.5767268E20,0E0,9.0171E19,2.0613972E19,0E0,0E0,0E0,0E0],"parents":[2147483647,0,0,1,1,2,2,4,4,7,7,9,9,10,10],"right_children":[2,4,6,-1,8,-1,-1,10,-1,12,14,-1,-1,-1,-1],"split_conditions":[8.50362E10,2.8669202E10,1.6001162E11,3.023434E8,2.024E3,4.5023206E8,1.0798386E8,7.017437E10,-2.1151606E8,3.4425086E10,4.4828656E10,-1.7885838E7,-8.7818424E7,2.0229898E6,-2.7966028E7],"split_indices":[2,3,3,0,11,0,0,6,0,3,7,0,0,0,0],"split_type":[0,0,0,0,0,0,0,0,0,0,0,0,0,0,0],"sum_hessian":[3.4E1,2.9E1,5E0,1E0,2.8E1,3E0,2E0,2E1,8E0,1.2E1,8E0,3E0,9E0,4E0,4E0],"tree_param":{"num_deleted":"0","num_feature":"15","num_nodes":"15","size_leaf_vector":"1"}},{"base_weights":[2.9533645E9,-5.84456E9,4.4007387E10,-1.3210271E10,1.0274361E9,1.6674703E10,6.033822E8,-8.3468503E9,-1.992483E8,3.008317E8,-2.451323E9,1.9579693E8,3.979866E7,-9.40393E9,-2.3933284E7,5.74834E7,-3.927834E9,-1.1683256E8,-5.243818E7,-5.4069344E7,-8.0802745E6],"categories":[],"categories_nodes":[],"categories_segments":[],"categories_sizes":[],"default_left":[0,0,0,0,0,0,0,0,0,0,0,0,0,0,0,0,0,0,0,0,0],"id":60,"left_children":[1,3,5,7,9,11,-1,13,-1,-1,15,-1,-1,17,-1,-1,19,-1,-1,-1,-1],"loss_changes":[1.434362E22,1.6839381E21,2.118437E21,3.561821E20,1.8931458E21,6.9588918E19,0E0,4.672013E19,0E0,0E0,2.2839573E20,0E0,0E0,2.4075329E19,0E0,0E0,6.484865E19,0E0,0E0,0E0,0E0],"parents":[2147483647,0,0,1,1,2,2,3,3,4,4,5,5,7,7,10,10,13,13,16,16],"right_children":[2,4,6,8,10,12,-1,14,-1,-1,16,-1,-1,18,-1,-1,20,-1,-1,-1,-1],"split_conditions":[7.170296E10,3.5622756E10,8.7802085E10,2.023E3,3.64693E10,4.2020307E10,6.033822E8,6.416093E10,-1.992483E8,3.008317E8,3.7594784E10,1.9579693E8,3.979866E7,4.4373656E10,-2.3933284E7,5.74834E7,1E1,-1.1683256E8,-5.243818E7,-5.4069344E7,-8.0802745E6],"split_indices":[2,7,4,11,0,0,0,8,0,0,7,0,0,3,0,0,10,0,0,0,0],"split_type":[0,0,0,0,0,0,0,0,0,0,0,0,0,0,0,0,0,0,0,0,0],"sum_hessian":[3.8E1,3.2E1,6E0,1.5E1,1.7E1,3E0,3E0,1E1,5E0,1E0,1.6E1,2E0,1E0,8E0,2E0,2E0,1.4E1,4E0,4E0,9E0,5E0],"tree_param":{"num_deleted":"0","num_feature":"15","num_nodes":"21","size_leaf_vector":"1"}},{"base_weights":[-4.9819296E8,-8.5563484E9,4.524772E10,-1.6562037E10,-2.1242652E9,5.988568E8,1.0647863E8,-5.5268144E7,-1.8860274E10,5.710018E7,-3.3119644E9,-1.9970117E8,-3.3259928E7,-5.283073E9,-7.538479E8,-2.85302E7,-8.214897E7,2.1634335E6,-1.5732695E7],"categories":[],"categories_nodes":[],"categories_segments":[],"categories_sizes":[],"default_left":[0,0,0,0,0,0,0,0,0,0,0,0,0,0,0,0,0,0,0],"id":61,"left_children":[1,3,5,7,9,-1,-1,-1,11,-1,13,-1,-1,15,17,-1,-1,-1,-1],"loss_changes":[1.4763636E22,1.7155886E21,2.401174E21,2.7618606E20,2.0500681E20,0E0,0E0,0E0,1.4046699E20,0E0,8.677921E19,0E0,0E0,4.780761E19,7.495328E18,0E0,0E0,0E0,0E0],"parents":[2147483647,0,0,1,1,2,2,3,3,4,4,8,8,10,10,13,13,14,14],"right_children":[2,4,6,8,10,-1,-1,-1,12,-1,14,-1,-1,16,18,-1,-1,-1,-1],"split_conditions":[8.50362E10,6.2528713E10,1.7008604E11,6.9021834E9,5.5751574E10,5.988568E8,1.0647863E8,-5.5268144E7,5.750759E10,5.710018E7,9E0,-1.9970117E8,-3.3259928E7,4.3715453E10,4.4828656E10,-2.85302E7,-8.214897E7,2.1634335E6,-1.5732695E7],"split_indices":[2,6,3,7,8,0,0,0,3,0,10,0,0,9,7,0,0,0,0],"split_type":[0,0,0,0,0,0,0,0,0,0,0,0,0,0,0,0,0,0,0],"sum_hessian":[3.8E1,3.3E1,5E0,1.4E1,1.9E1,3E0,2E0,3E0,1.1E1,2E0,1.7E1,1E1,1E0,9E0,8E0,6E0,3E0,4E0,4E0],"tree_param":{"num_deleted":"0","num_feature":"15","num_nodes":"19","size_leaf_vector":"1"}},{"base_weights":[-2.5927706E9,-9.19481E9,3.4366644E10,-1.376576E10,-1.0628005E9,4.3217706E8,3.906728E7,-5.485364E7,-1.552538E10,-3.7972946E9,5.6719524E7,-1.6440844E10,-3.185369E7,-5.080399E9,-3.930221E8,-1.753219E8,-3.3093632E7,-7.4487624E7,-1.0185687E7,-7.560745E6,1.6654131E6],"categories":[],"categories_nodes":[],"categories_segments":[],"categories_sizes":[],"default_left":[0,0,0,0,0,0,0,0,0,0,0,0,0,0,0,0,0,0,0,0,0],"id":62,"left_children":[1,3,5,7,9,-1,-1,-1,11,13,-1,15,-1,17,19,-1,-1,-1,-1,-1,-1],"loss_changes":[6.416183E21,8.0313185E20,9.095706E20,1.1882269E20,1.8728335E20,0E0,0E0,0E0,7.1895183E19,2.8579535E19,0E0,8.528973E19,0E0,4.0512394E19,7.3537014E17,0E0,0E0,0E0,0E0,0E0,0E0],"parents":[2147483647,0,0,1,1,2,2,3,3,4,4,8,8,9,9,11,11,13,13,14,14],"right_children":[2,4,6,8,10,-1,-1,-1,12,14,-1,16,-1,18,20,-1,-1,-1,-1,-1,-1],"split_conditions":[7.170296E10,3.5622756E10,4.268008E10,6.9021834E9,5.7808118E10,4.3217706E8,3.906728E7,-5.485364E7,1.023056E11,5.3131145E10,5.6719524E7,5.5722185E10,-3.185369E7,5.494861E10,4.7848255E10,-1.753219E8,-3.3093632E7,-7.4487624E7,-1.0185687E7,-7.560745E6,1.6654131E6],"split_indices":[2,7,0,7,1,0,0,0,0,5,0,3,0,3,0,0,0,0,0,0,0],"split_type":[0,0,0,0,0,0,0,0,0,0,0,0,0,0,0,0,0,0,0,0,0],"sum_hessian":[2.4E1,2.1E1,3E0,1.3E1,8E0,2E0,1E0,3E0,1E1,6E0,2E0,9E0,1E0,4E0,2E0,8E0,1E0,2E0,2E0,1E0,1E0],"tree_param":{"num_deleted":"0","num_feature":"15","num_nodes":"21","size_leaf_vector":"1"}},{"base_weights":[-6.3176115E8,-6.5991695E9,4.87573E10,-1.3582392E10,2.6861908E9,1.17424984E8,5.71814E8,-9.265797E9,-1.9658586E8,3.0036384E8,-1.4128506E9,-9.805395E9,-1.3953085E7,5.634138E7,-3.0568602E9,-1.1500297E8,-5.1324732E7,-4.857113E7,-4.4708865E6],"categories":[],"categories_nodes":[],"categories_segments":[],"categories_sizes":[],"default_left":[0,0,0,0,0,0,0,0,0,0,0,0,0,0,0,0,0,0,0],"id":63,"left_children":[1,3,5,7,9,-1,-1,11,-1,-1,13,15,-1,-1,17,-1,-1,-1,-1],"loss_changes":[1.0931846E22,2.1762623E21,5.7581223E20,3.1618844E20,1.7240807E21,0E0,0E0,4.1528255E19,0E0,0E0,1.7941722E20,3.6016694E19,0E0,0E0,5.4207427E19,0E0,0E0,0E0,0E0],"parents":[2147483647,0,0,1,1,2,2,3,3,4,4,7,7,10,10,11,11,14,14],"right_children":[2,4,6,8,10,-1,-1,12,-1,-1,14,16,-1,-1,18,-1,-1,-1,-1],"split_conditions":[8.50362E10,3.5622756E10,2.1480583E10,2.023E3,3.64693E10,1.17424984E8,5.71814E8,6.559945E10,-1.9658586E8,3.0036384E8,3.7594784E10,4.5294203E10,-1.3953085E7,5.634138E7,5.3131145E10,-1.1500297E8,-5.1324732E7,-4.857113E7,-4.4708865E6],"split_indices":[2,7,0,11,0,0,0,8,0,0,7,3,0,0,5,0,0,0,0],"split_type":[0,0,0,0,0,0,0,0,0,0,0,0,0,0,0,0,0,0,0],"sum_hessian":[3.5E1,3.2E1,3E0,1.8E1,1.4E1,1E0,2E0,1.2E1,6E0,1E0,1.3E1,1.1E1,1E0,2E0,1.1E1,7E0,4E0,6E0,5E0],"tree_param":{"num_deleted":"0","num_feature":"15","num_nodes":"19","size_leaf_vector":"1"}},{"base_weights":[-5.0909036E9,-1.089006E10,4.686541E8,-5.575022E9,-2.0310126E8,-6.7573366E9,-1.1495375E9,-7.395316E9,7.682007E6,-1.4429399E7,1.2036096E5,-8.350066E7,-3.1596144E7],"categories":[],"categories_nodes":[],"categories_segments":[],"categories_sizes":[],"default_left":[0,0,0,0,0,0,0,0,0,0,0,0,0],"id":64,"left_children":[1,3,-1,5,-1,7,9,11,-1,-1,-1,-1,-1],"loss_changes":[8.9468454E21,1.1885388E21,0E0,8.641387E19,0E0,7.2897093E19,1.7214102E18,2.6189347E19,0E0,0E0,0E0,0E0,0E0],"parents":[2147483647,0,0,1,1,3,3,5,5,6,6,7,7],"right_children":[2,4,-1,6,-1,8,10,12,-1,-1,-1,-1,-1],"split_conditions":[8.50362E10,2.024E3,4.686541E8,7.2614584E10,-2.0310126E8,9.165717E10,5.750759E10,5.616637E10,7.682007E6,-1.4429399E7,1.2036096E5,-8.350066E7,-3.1596144E7],"split_indices":[2,11,0,6,0,4,0,3,0,0,0,0,0],"split_type":[0,0,0,0,0,0,0,0,0,0,0,0,0],"sum_hessian":[2.7E1,2.5E1,2E0,1.7E1,8E0,1.3E1,4E0,1.2E1,1E0,3E0,1E0,9E0,3E0],"tree_param":{"num_deleted":"0","num_feature":"15","num_nodes":"13","size_leaf_vector":"1"}},{"base_weights":[3.956058E9,-3.2131758E9,5.85286E8,-1.4430074E10,4.630658E9,-1.5991401E10,-3.8951812E7,2.8751786E8,-1.6890399E9,-4.420272E7,-1.6706486E8,2.3844344E9,-2.4412815E9,3.366957E7,2.0969471E6,2.9945712E7,-3.0897756E7],"categories":[],"categories_nodes":[],"categories_segments":[],"categories_sizes":[],"default_left":[0,0,0,0,0,0,0,0,0,0,0,0,0,0,0,0,0],"id":65,"left_children":[1,3,-1,5,7,9,-1,-1,11,-1,-1,13,15,-1,-1,-1,-1],"loss_changes":[1.3490337E22,2.7943088E21,0E0,1.5154022E20,2.9448894E21,1.7170537E19,0E0,0E0,5.484887E19,0E0,0E0,5.7041597E18,5.8604216E19,0E0,0E0,0E0,0E0],"parents":[2147483647,0,0,1,1,3,3,4,4,5,5,8,8,11,11,12,12],"right_children":[2,4,-1,6,8,10,-1,-1,12,-1,-1,14,16,-1,-1,-1,-1],"split_conditions":[6.2546493E10,4.8535454E10,5.85286E8,5.750759E10,4.2020307E10,6.4468096E9,-3.8951812E7,2.8751786E8,6.011332E10,-4.420272E7,-1.6706486E8,5.653109E10,4.646198E10,3.366957E7,2.0969471E6,2.9945712E7,-3.0897756E7],"split_indices":[5,4,0,3,0,7,0,0,6,0,0,0,0,0,0,0,0],"split_type":[0,0,0,0,0,0,0,0,0,0,0,0,0,0,0,0,0],"sum_hessian":[3.3E1,3E1,3E0,1.2E1,1.8E1,1E1,2E0,3E0,1.5E1,1E0,9E0,2E0,1.3E1,1E0,1E0,1E0,1.2E1],"tree_param":{"num_deleted":"0","num_feature":"15","num_nodes":"17","size_leaf_vector":"1"}},{"base_weights":[3.0377574E9,-3.2013642E9,5.6097555E8,-6.2831273E9,1.5319114E10,-9.456698E9,2.3217065E9,1.819207E8,3.3501224E7,-6.678829E9,-1.6815064E8,5.6525616E7,-1.4114816E8,-7.4832415E6,-7.6048856E7,-7.734026E6,5.381557E6],"categories":[],"categories_nodes":[],"categories_segments":[],"categories_sizes":[],"default_left":[0,0,0,0,0,0,0,0,0,0,0,0,0,0,0,0,0],"id":66,"left_children":[1,3,-1,5,7,9,11,-1,-1,13,-1,-1,15,-1,-1,-1,-1],"loss_changes":[9.448893E21,1.5802208E21,0E0,6.5004084E20,7.65999E19,2.3518501E20,5.822174E19,0E0,0E0,7.1196914E19,0E0,0E0,2.5636752E18,0E0,0E0,0E0,0E0],"parents":[2147483647,0,0,1,1,3,3,4,4,5,5,6,6,9,9,12,12],"right_children":[2,4,-1,6,8,10,12,-1,-1,14,-1,-1,16,-1,-1,-1,-1],"split_conditions":[9.473207E10,8.50362E10,5.6097555E8,9E0,4.2020307E10,2.024E3,4.1851916E10,1.819207E8,3.3501224E7,3.4425086E10,-1.6815064E8,5.6525616E7,5.86454E10,-7.4832415E6,-7.6048856E7,-7.734026E6,5.381557E6],"split_indices":[4,2,0,10,0,11,3,0,0,3,0,0,4,0,0,0,0],"split_type":[0,0,0,0,0,0,0,0,0,0,0,0,0,0,0,0,0],"sum_hessian":[2.7E1,2.5E1,2E0,2.2E1,3E0,1.6E1,6E0,2E0,1E0,1.3E1,3E0,2E0,4E0,2E0,1.1E1,2E0,2E0],"tree_param":{"num_deleted":"0","num_feature":"15","num_nodes":"17","size_leaf_vector":"1"}},{"base_weights":[-4.937472E9,-9.921036E9,2.694812E10,-6.265048E9,-1.964887E8,3.2018467E8,3.3333698E7,-9.410714E9,-2.8794304E9,-1.0024889E10,-1.3273907E7,-3.78688E8,-5.7338486E9,-1.146551E8,-4.6374244E7,-1.3450547E7,4.7014295E6,-2.3108512E7,-6.8676344E7],"categories":[],"categories_nodes":[],"categories_segments":[],"categories_sizes":[],"default_left":[0,0,0,0,0,0,0,0,0,0,0,0,0,0,0,0,0,0,0],"id":67,"left_children":[1,3,5,7,-1,-1,-1,9,11,13,-1,15,17,-1,-1,-1,-1,-1,-1],"loss_changes":[5.82899E21,9.794091E20,4.9194536E20,2.2850307E20,0E0,0E0,0E0,4.6268083E19,9.062478E19,3.2203763E19,0E0,7.1946236E18,7.415599E18,0E0,0E0,0E0,0E0,0E0,0E0],"parents":[2147483647,0,0,1,1,2,2,3,3,7,7,8,8,9,9,11,11,12,12],"right_children":[2,4,6,8,-1,-1,-1,10,12,14,-1,16,18,-1,-1,-1,-1,-1,-1],"split_conditions":[8.50362E10,2.024E3,1.7008604E11,3.8894223E10,-1.964887E8,3.2018467E8,3.3333698E7,6.559945E10,5.28812E10,4.646198E10,-1.3273907E7,5.6567042E10,4.895491E10,-1.146551E8,-4.6374244E7,-1.3450547E7,4.7014295E6,-2.3108512E7,-6.8676344E7],"split_indices":[2,11,2,7,0,0,0,8,2,3,0,4,0,0,0,0,0,0,0],"split_type":[0,0,0,0,0,0,0,0,0,0,0,0,0,0,0,0,0,0,0],"sum_hessian":[3.4E1,3E1,4E0,2.3E1,7E0,3E0,1E0,1.1E1,1.2E1,1E1,1E0,7E0,5E0,7E0,3E0,3E0,4E0,2E0,3E0],"tree_param":{"num_deleted":"0","num_feature":"15","num_nodes":"19","size_leaf_vector":"1"}},{"base_weights":[2.2944558E9,-6.277319E9,4.4770922E10,-1.394237E10,3.4786227E9,1.2698703E10,5.763235E8,-9.296935E9,-1.9250573E8,2.9785584E8,-8.361883E8,1.5731352E8,3.3167032E7,-1.1114996E10,-4.8922624E7,2.2142193E9,-4.7640335E9,-1.23704504E8,-1.7911316E7,5.6913156E7,1.0663459E6,-2.1225656E7,-6.6979796E7],"categories":[],"categories_nodes":[],"categories_segments":[],"categories_sizes":[],"default_left":[0,0,0,0,0,0,0,0,0,0,0,0,0,0,0,0,0,0,0,0,0,0,0],"id":68,"left_children":[1,3,5,7,9,11,-1,13,-1,-1,15,-1,-1,17,-1,19,21,-1,-1,-1,-1,-1,-1],"loss_changes":[1.3024496E22,2.2918941E21,1.7431126E21,2.4022989E20,1.6140401E21,3.3180692E19,0E0,3.3710147E19,0E0,0E0,1.663085E20,0E0,0E0,5.978268E19,0E0,5.8019307E19,1.6433837E19,0E0,0E0,0E0,0E0,0E0,0E0],"parents":[2147483647,0,0,1,1,2,2,3,3,4,4,5,5,7,7,10,10,13,13,15,15,16,16],"right_children":[2,4,6,8,10,12,-1,14,-1,-1,16,-1,-1,18,-1,20,22,-1,-1,-1,-1,-1,-1],"split_conditions":[8.50362E10,3.5622756E10,8.7802085E10,2.023E3,3.64693E10,4.2020307E10,5.763235E8,4.5294203E10,-1.9250573E8,2.9785584E8,4.5346402E10,1.5731352E8,3.3167032E7,6.1198655E10,-4.8922624E7,4.5294203E10,5.5722185E10,-1.23704504E8,-1.7911316E7,5.6913156E7,1.0663459E6,-2.1225656E7,-6.6979796E7],"split_indices":[2,7,4,11,0,0,0,3,0,0,7,0,0,4,0,2,1,0,0,0,0,0,0],"split_type":[0,0,0,0,0,0,0,0,0,0,0,0,0,0,0,0,0,0,0,0,0,0,0],"sum_hessian":[3.4E1,2.9E1,5E0,1.6E1,1.3E1,2E0,3E0,1E1,6E0,1E0,1.2E1,1E0,1E0,6E0,4E0,7E0,5E0,5E0,1E0,2E0,5E0,3E0,2E0],"tree_param":{"num_deleted":"0","num_feature":"15","num_nodes":"23","size_leaf_vector":"1"}},{"base_weights":[2.3917437E9,-4.3616425E9,4.378439E10,-1.1775235E10,2.4363302E9,1.7752459E8,5.5221523E8,-4.3166892E7,-1.3280147E10,2.9636656E8,-1.1159813E9,-1.4163402E10,-1.7821758E7,5.653373E7,-2.4868442E9,-5.1602652E7,-1.5590736E8,3.3693182E6,-3.2875952E7],"categories":[],"categories_nodes":[],"categories_segments":[],"categories_sizes":[],"default_left":[0,0,0,0,0,0,0,0,0,0,0,0,0,0,0,0,0,0,0],"id":69,"left_children":[1,3,5,7,9,-1,-1,-1,11,-1,13,15,-1,-1,17,-1,-1,-1,-1],"loss_changes":[9.974891E21,1.5910078E21,5.083348E20,1.1104061E20,1.6756826E21,0E0,0E0,0E0,9.6626E19,0E0,1.6253676E20,6.090302E19,0E0,0E0,3.276367E19,0E0,0E0,0E0,0E0],"parents":[2147483647,0,0,1,1,2,2,3,3,4,4,8,8,10,10,11,11,14,14],"right_children":[2,4,6,8,10,-1,-1,-1,12,-1,14,16,-1,-1,18,-1,-1,-1,-1],"split_conditions":[8.50362E10,3.5622756E10,4.2020307E10,3E0,3.64693E10,1.7752459E8,5.5221523E8,-4.3166892E7,6.1198655E10,2.9636656E8,3.7594784E10,6.9021834E9,-1.7821758E7,5.653373E7,4.536031E10,-5.1602652E7,-1.5590736E8,3.3693182E6,-3.2875952E7],"split_indices":[2,7,0,10,0,0,0,0,4,0,7,7,0,0,3,0,0,0,0],"split_type":[0,0,0,0,0,0,0,0,0,0,0,0,0,0,0,0,0,0,0],"sum_hessian":[3.4E1,3E1,4E0,1.4E1,1.6E1,2E0,2E0,3E0,1.1E1,1E0,1.5E1,1E1,1E0,2E0,1.3E1,2E0,8E0,3E0,1E1],"tree_param":{"num_deleted":"0","num_feature":"15","num_nodes":"19","size_leaf_vector":"1"}},{"base_weights":[-5.2300493E9,-8.969578E9,2.5058816E10,-1.4500132E10,-2.1036471E9,3.1395747E8,3.0240112E7,-9.228516E9,-1.9277133E8,5.615684E7,-3.7232123E9,-1.1366774E8,-4.816903E7,-7.881705E7,-2.2506043E9,4.450782E5,-4.1706156E7],"categories":[],"categories_nodes":[],"categories_segments":[],"categories_sizes":[],"default_left":[0,0,0,0,0,0,0,0,0,0,0,0,0,0,0,0,0],"id":70,"left_children":[1,3,5,7,9,-1,-1,11,-1,-1,13,-1,-1,-1,15,-1,-1],"loss_changes":[4.0758148E21,1.1466412E21,4.6359126E20,2.502031E20,2.0843778E20,0E0,0E0,3.957904E19,0E0,0E0,6.187119E19,0E0,0E0,0E0,4.8658676E19,0E0,0E0],"parents":[2147483647,0,0,1,1,2,2,3,3,4,4,7,7,10,10,14,14],"right_children":[2,4,6,8,10,-1,-1,12,-1,-1,14,-1,-1,-1,16,-1,-1],"split_conditions":[8.50362E10,3.5622756E10,1.7008604E11,2.023E3,3.7594784E10,3.1395747E8,3.0240112E7,4.5294203E10,-1.9277133E8,5.615684E7,4.7848255E10,-1.1366774E8,-4.816903E7,-7.881705E7,5.494861E10,4.450782E5,-4.1706156E7],"split_indices":[2,7,2,11,7,0,0,3,0,0,2,0,0,0,2,0,0],"split_type":[0,0,0,0,0,0,0,0,0,0,0,0,0,0,0,0,0],"sum_hessian":[3.3E1,3E1,3E0,1.6E1,1.4E1,2E0,1E0,9E0,7E0,2E0,1.2E1,5E0,4E0,2E0,1E1,5E0,5E0],"tree_param":{"num_deleted":"0","num_feature":"15","num_nodes":"17","size_leaf_vector":"1"}},{"base_weights":[-3.4525466E8,-7.279997E9,4.1332253E10,-1.3919668E10,-3.2641782E9,1.7424808E8,5.146228E8,-1.5781564E10,-3.6940892E7,-4.92433E8,-5.487203E9,-4.1583308E7,-1.6714677E8,-1.7568163E9,5.443508E7,-7.981318E9,-2.921806E9,-3.254404E7,-4.6562165E6,-1.7164308E7,-9.118432E7,-1.0634453E7,-5.0451388E7],"categories":[],"categories_nodes":[],"categories_segments":[],"categories_sizes":[],"default_left":[0,0,0,0,0,0,0,0,0,0,0,0,0,0,0,0,0,0,0,0,0,0,0],"id":71,"left_children":[1,3,5,7,9,-1,-1,11,-1,13,15,-1,-1,17,-1,19,21,-1,-1,-1,-1,-1,-1],"loss_changes":[1.0127672E22,7.544751E20,3.1419475E20,1.5113025E20,1.2053109E20,0E0,0E0,2.8106965E19,0E0,8.461629E19,4.7062475E19,0E0,0E0,1.5887776E19,0E0,1.9968292E19,2.2256196E19,0E0,0E0,0E0,0E0,0E0,0E0],"parents":[2147483647,0,0,1,1,2,2,3,3,4,4,7,7,9,9,10,10,13,13,15,15,16,16],"right_children":[2,4,6,8,10,-1,-1,12,-1,14,16,-1,-1,18,-1,20,22,-1,-1,-1,-1,-1,-1],"split_conditions":[6.6598806E10,4.8451445E10,4.2020307E10,5.750759E10,1.596635E10,1.7424808E8,5.146228E8,6.4468096E9,-3.6940892E7,6.6598806E10,4.7848255E10,-4.1583308E7,-1.6714677E8,5.4386487E10,5.443508E7,4.8862974E10,5.7808118E10,-3.254404E7,-4.6562165E6,-1.7164308E7,-9.118432E7,-1.0634453E7,-5.0451388E7],"split_indices":[2,4,0,3,5,0,0,7,0,0,2,0,0,4,0,0,1,0,0,0,0,0,0],"split_type":[0,0,0,0,0,0,0,0,0,0,0,0,0,0,0,0,0,0,0,0,0,0,0],"sum_hessian":[3.3E1,2.9E1,4E0,1E1,1.9E1,2E0,2E0,8E0,2E0,9E0,1E1,1E0,7E0,8E0,1E0,4E0,6E0,3E0,5E0,1E0,3E0,4E0,2E0],"tree_param":{"num_deleted":"0","num_feature":"15","num_nodes":"23","size_leaf_vector":"1"}},{"base_weights":[1.0964507E9,-6.146166E9,4.19552E10,2.9493568E8,-8.119902E9,5.623544E8,8.929807E9,-4.6036014E9,-1.853289E8,1.0643128E8,2.7515822E7,-5.996017E9,-7.211643E8,-6.606623E7,-5.3724365E6,-2.3716992E7,5.41629E7],"categories":[],"categories_nodes":[],"categories_segments":[],"categories_sizes":[],"default_left":[0,0,0,0,0,0,0,0,0,0,0,0,0,0,0,0,0],"id":72,"left_children":[1,3,5,-1,7,-1,9,11,-1,-1,-1,13,15,-1,-1,-1,-1],"loss_changes":[1.179891E22,2.6311617E21,2.327493E21,0E0,1.1229834E21,0E0,2.4704003E18,1.3623107E20,0E0,0E0,0E0,5.978064E19,9.388649E19,0E0,0E0,0E0,0E0],"parents":[2147483647,0,0,1,1,2,2,4,4,6,6,7,7,11,11,12,12],"right_children":[2,4,6,-1,8,-1,10,12,-1,-1,-1,14,16,-1,-1,-1,-1],"split_conditions":[8.50362E10,2.8669202E10,1.7008604E11,2.9493568E8,2.024E3,5.623544E8,2.1480583E10,1E1,-1.853289E8,1.0643128E8,2.7515822E7,9.165717E10,6.1198655E10,-6.606623E7,-5.3724365E6,-2.3716992E7,5.41629E7],"split_indices":[2,3,3,0,11,0,0,10,0,0,0,4,4,0,0,0,0],"split_type":[0,0,0,0,0,0,0,0,0,0,0,0,0,0,0,0,0],"sum_hessian":[3.8E1,3.3E1,5E0,1E0,3.2E1,3E0,2E0,2.5E1,7E0,1E0,1E0,1.8E1,7E0,1.6E1,2E0,6E0,1E0],"tree_param":{"num_deleted":"0","num_feature":"15","num_nodes":"17","size_leaf_vector":"1"}},{"base_weights":[-1.9929179E9,-8.4094316E9,3.1491224E10,-4.692447E9,-1.8509206E8,4.057297E8,8.885158E9,-8.4096727E9,-1.901467E9,1.0589913E8,2.7378236E7,-4.0039704E7,-1.0679479E8,5.5515052E7,-3.475117E9,-2.1306234E7,-7.2465544E7],"categories":[],"categories_nodes":[],"categories_segments":[],"categories_sizes":[],"default_left":[0,0,0,0,0,0,0,0,0,0,0,0,0,0,0,0,0],"id":73,"left_children":[1,3,5,7,-1,-1,9,11,13,-1,-1,-1,-1,-1,15,-1,-1],"loss_changes":[7.9994755E21,1.0769086E21,8.713176E20,2.3300217E20,0E0,0E0,2.4457888E18,5.724054E19,1.9521767E20,0E0,0E0,0E0,0E0,0E0,5.047909E19,0E0,0E0],"parents":[2147483647,0,0,1,1,2,2,3,3,6,6,7,7,8,8,14,14],"right_children":[2,4,6,8,-1,-1,10,12,14,-1,-1,-1,-1,-1,16,-1,-1],"split_conditions":[8.50362E10,2.024E3,1.6001162E11,3.5622756E10,-1.8509206E8,4.057297E8,2.1480583E10,4E0,3.7594784E10,1.0589913E8,2.7378236E7,-4.0039704E7,-1.0679479E8,5.5515052E7,1.7008604E11,-2.1306234E7,-7.2465544E7],"split_indices":[2,11,3,7,0,0,0,10,7,0,0,0,0,0,0,0,0],"split_type":[0,0,0,0,0,0,0,0,0,0,0,0,0,0,0,0,0],"sum_hessian":[3.5E1,3E1,5E0,2.3E1,7E0,3E0,2E0,9E0,1.4E1,1E0,1E0,4E0,5E0,2E0,1.2E1,1E1,2E0],"tree_param":{"num_deleted":"0","num_feature":"15","num_nodes":"17","size_leaf_vector":"1"}},{"base_weights":[-1.3528856E9,-7.426676E9,3.1266144E10,-4.193191E9,-1.8375811E8,4.026867E8,8.840733E9,-7.66458E9,-2.2245412E9,1.0536964E8,2.7241348E7,-1.7841398E7,-9.089829E9,5.361453E7,-2.9861558E9,-3.5987264E7,-1.0566525E8,-1.9446612E7,-7.198243E7],"categories":[],"categories_nodes":[],"categories_segments":[],"categories_sizes":[],"default_left":[0,0,0,0,0,0,0,0,0,0,0,0,0,0,0,0,0,0,0],"id":74,"left_children":[1,3,5,7,-1,-1,9,11,13,-1,-1,-1,15,-1,17,-1,-1,-1,-1],"loss_changes":[7.562686E21,1.0558705E21,8.5530675E20,1.6063242E20,0E0,0E0,2.421371E18,5.9212272E19,1.2000701E20,0E0,0E0,0E0,1.8734799E19,0E0,6.0578605E19,0E0,0E0,0E0,0E0],"parents":[2147483647,0,0,1,1,2,2,3,3,6,6,7,7,8,8,12,12,14,14],"right_children":[2,4,6,8,-1,-1,10,12,14,-1,-1,-1,16,-1,18,-1,-1,-1,-1],"split_conditions":[8.50362E10,2.024E3,1.6001162E11,3.5622756E10,-1.8375811E8,4.026867E8,2.1480583E10,3.4425086E10,3.6761096E10,1.0536964E8,2.7241348E7,-1.7841398E7,3.286803E10,5.361453E7,1.7008604E11,-3.5987264E7,-1.0566525E8,-1.9446612E7,-7.198243E7],"split_indices":[2,11,3,7,0,0,0,3,7,0,0,0,2,0,0,0,0,0,0],"split_type":[0,0,0,0,0,0,0,0,0,0,0,0,0,0,0,0,0,0,0],"sum_hessian":[3.6E1,3.1E1,5E0,2.5E1,6E0,3E0,2E0,8E0,1.7E1,1E0,1E0,2E0,6E0,1E0,1.6E1,2E0,4E0,1.4E1,2E0],"tree_param":{"num_deleted":"0","num_feature":"15","num_nodes":"19","size_leaf_vector":"1"}},{"base_weights":[1.3523882E9,-7.057843E9,3.960596E10,-1.3652353E10,1.3260911E9,1.3914618E10,5.5395814E8,-8.947787E9,-1.8414587E8,2.9366477E8,-2.774399E9,1.6745813E8,2.7105156E7,-9.640066E9,-1.0124923E7,3.7339791E9,-4.1702935E9,-1.0345435E8,-1.6458752E7,5.3346468E7,2.6632192E6,-6.989732E7,-1.1578759E7],"categories":[],"categories_nodes":[],"categories_segments":[],"categories_sizes":[],"default_left":[0,0,0,0,0,0,0,0,0,0,0,0,0,0,0,0,0,0,0,0,0,0,0],"id":75,"left_children":[1,3,5,7,9,11,-1,13,-1,-1,15,-1,-1,17,-1,19,21,-1,-1,-1,-1,-1,-1],"loss_changes":[1.2504946E22,1.7873184E21,2.0688264E21,2.3850641E20,1.8061641E21,8.149418E19,0E0,5.0667396E19,0E0,0E0,1.4276192E20,0E0,0E0,3.936118E19,0E0,1.5230967E19,9.382666E19,0E0,0E0,0E0,0E0,0E0,0E0],"parents":[2147483647,0,0,1,1,2,2,3,3,4,4,5,5,7,7,10,10,13,13,15,15,16,16],"right_children":[2,4,6,8,10,12,-1,14,-1,-1,16,-1,-1,18,-1,20,22,-1,-1,-1,-1,-1,-1],"split_conditions":[8.50362E10,3.5622756E10,8.7802085E10,2.023E3,3.64693E10,4.2020307E10,5.5395814E8,6.559945E10,-1.8414587E8,2.9366477E8,4.1851916E10,1.6745813E8,2.7105156E7,6.1198655E10,-1.0124923E7,7.170296E10,5.616637E10,-1.0345435E8,-1.6458752E7,5.3346468E7,2.6632192E6,-6.989732E7,-1.1578759E7],"split_indices":[2,7,4,11,0,0,0,8,0,0,3,0,0,4,0,0,3,0,0,0,0,0,0],"split_type":[0,0,0,0,0,0,0,0,0,0,0,0,0,0,0,0,0,0,0,0,0,0,0],"sum_hessian":[3.7E1,3.1E1,6E0,1.7E1,1.4E1,3E0,3E0,1E1,7E0,1E0,1.3E1,2E0,1E0,9E0,1E0,2E0,1.1E1,8E0,1E0,1E0,1E0,5E0,6E0],"tree_param":{"num_deleted":"0","num_feature":"15","num_nodes":"23","size_leaf_vector":"1"}},{"base_weights":[-4.232022E8,-1.3791363E10,6.8877583E9,-6.988394E7,-1.7652285E8,1.855842E10,-1.1067927E9,1.2413338E8,2.7754875E10,-7.662174E7,6.242854E8,2.8933426E7,-1.7633838E7,3.363443E8,-8.2145075E6,5.3366236E7,-8.5184474E8,8.303001E5,-3.0608956E7],"categories":[],"categories_nodes":[],"categories_segments":[],"categories_sizes":[],"default_left":[0,0,0,0,0,0,0,0,0,0,0,0,0,0,0,0,0,0,0],"id":76,"left_children":[1,3,5,-1,-1,7,9,11,13,-1,15,-1,-1,-1,-1,-1,17,-1,-1],"loss_changes":[3.3202166E21,1.9182745E20,2.073178E21,0E0,0E0,1.5223253E21,1.6365367E20,2.6009796E19,1.0357252E21,0E0,8.801827E19,0E0,0E0,0E0,0E0,0E0,2.0906006E19,0E0,0E0],"parents":[2147483647,0,0,1,1,2,2,5,5,6,6,7,7,8,8,10,10,16,16],"right_children":[2,4,6,-1,-1,8,10,12,14,-1,16,-1,-1,-1,-1,-1,18,-1,-1],"split_conditions":[4.8535454E10,2.024E3,5.494861E10,-6.988394E7,-1.7652285E8,4.536031E10,3.4425086E10,4.646198E10,8.953833E10,-7.662174E7,3.6761096E10,2.8933426E7,-1.7633838E7,3.363443E8,-8.2145075E6,5.3366236E7,1.7008604E11,8.303001E5,-3.0608956E7],"split_indices":[4,11,0,0,0,2,2,0,4,0,7,0,0,0,0,0,1,0,0],"split_type":[0,0,0,0,0,0,0,0,0,0,0,0,0,0,0,0,0,0,0],"sum_hessian":[3.2E1,1.1E1,2.1E1,5E0,6E0,8E0,1.3E1,3E0,5E0,2E0,1.1E1,1E0,2E0,4E0,1E0,2E0,9E0,7E0,2E0],"tree_param":{"num_deleted":"0","num_feature":"15","num_nodes":"19","size_leaf_vector":"1"}},{"base_weights":[-1.2494323E9,-7.1083085E9,3.884081E10,-1.358328E10,1.0249897E9,4.721588E10,2.6702806E7,-8.4633073E9,-1.8331773E8,2.905147E8,-2.7802068E9,1.4382539E8,5.336614E8,-1.0107657E10,-4.468557E7,4.2123704E9,-4.879382E9,-1.12493224E8,-1.6288297E7,5.4401104E7,2.6457498E6,-6.7429336E7,-9.218236E6],"categories":[],"categories_nodes":[],"categories_segments":[],"categories_sizes":[],"default_left":[0,0,0,0,0,0,0,0,0,0,0,0,0,0,0,0,0,0,0,0,0,0,0],"id":77,"left_children":[1,3,5,7,9,11,-1,13,-1,-1,15,-1,-1,17,-1,19,21,-1,-1,-1,-1,-1,-1],"loss_changes":[9.201677E21,1.8044606E21,1.3885724E21,3.0678352E20,1.7871093E21,4.0194064E19,0E0,2.7089785E19,0E0,0E0,2.4073346E20,0E0,0E0,4.9436717E19,0E0,1.7948151E19,8.228557E19,0E0,0E0,0E0,0E0,0E0,0E0],"parents":[2147483647,0,0,1,1,2,2,3,3,4,4,5,5,7,7,10,10,13,13,15,15,16,16],"right_children":[2,4,6,8,10,12,-1,14,