{"learner":{"attributes":{"scikit_learn":"{\"_estimator_type\": \"regressor\"}"},"feature_names":["recaudo_lag1","recaudo_lag3","recaudo_lag6","recaudo_lag12","rolling_mean_3m","rolling_std_3m","rolling_mean_6m","rolling_std_6m","rolling_mean_12m","rolling_std_12m","mes","año","trimestre","es_periodo_renta","es_pico_fin_año"],"feature_types":["float","float","float","float","float","float","float","float","float","float","int","int","int","int","int"],"gradient_booster":{"model":{"cats":{"enc":[],"feature_segments":[],"sorted_idx":[]},"gbtree_model_param":{"num_parallel_tree":"1","num_trees":"200"},"iteration_indptr":[0,1,2,3,4,5,6,7,8,9,10,11,12,13,14,15,16,17,18,19,20,21,22,23,24,25,26,27,28,29,30,31,32,33,34,35,36,37,38,39,40,41,42,43,44,45,46,47,48,49,50,51,52,53,54,55,56,57,58,59,60,61,62,63,64,65,66,67,68,69,70,71,72,73,74,75,76,77,78,79,80,81,82,83,84,85,86,87,88,89,90,91,92,93,94,95,96,97,98,99,100,101,102,103,104,105,106,107,108,109,110,111,112,113,114,115,116,117,118,119,120,121,122,123,124,125,126,127,128,129,130,131,132,133,134,135,136,137,138,139,140,141,142,143,144,145,146,147,148,149,150,151,152,153,154,155,156,157,158,159,160,161,162,163,164,165,166,167,168,169,170,171,172,173,174,175,176,177,178,179,180,181,182,183,184,185,186,187,188,189,190,191,192,193,194,195,196,197,198,199,200],"tree_info":[0,0,0,0,0,0,0,0,0,0,0,0,0,0,0,0,0,0,0,0,0,0,0,0,0,0,0,0,0,0,0,0,0,0,0,0,0,0,0,0,0,0,0,0,0,0,0,0,0,0,0,0,0,0,0,0,0,0,0,0,0,0,0,0,0,0,0,0,0,0,0,0,0,0,0,0,0,0,0,0,0,0,0,0,0,0,0,0,0,0,0,0,0,0,0,0,0,0,0,0,0,0,0,0,0,0,0,0,0,0,0,0,0,0,0,0,0,0,0,0,0,0,0,0,0,0,0,0,0,0,0,0,0,0,0,0,0,0,0,0,0,0,0,0,0,0,0,0,0,0,0,0,0,0,0,0,0,0,0,0,0,0,0,0,0,0,0,0,0,0,0,0,0,0,0,0,0,0,0,0,0,0,0,0,0,0,0,0,0,0,0,0,0,0,0,0,0,0,0,0],"trees":[{"base_weights":[-3.0502127E2,-1.1701811E10,6.853918E10,-2.7015535E10,-2.7607867E9,4.1100575E9,1.146142E9,-7.406135E8,-1.6752618E9,1.898204E9,-5.7872845E9,-8.1847383E9,-1.1328844E9,-9.032069E9,-1.2198394E9,3.288079E8,-3.8821647E9,-3.6963228E7,-4.7858038E8,-9.026427E7,-1.22368E6,-9.73042E7,-4.3586826E8],"categories":[],"categories_nodes":[],"categories_segments":[],"categories_sizes":[],"default_left":[0,0,0,0,0,0,0,0,0,0,0,0,0,0,0,0,0,0,0,0,0,0,0],"id":0,"left_children":[1,3,5,7,9,-1,-1,-1,-1,-1,11,13,15,17,19,-1,21,-1,-1,-1,-1,-1,-1],"loss_changes":[3.849756E22,5.5391506E21,2.4781823E21,6.916448E20,3.5475595E21,0E0,0E0,0E0,0E0,0E0,2.8085411E20,8.930898E19,2.374729E20,6.003833E19,2.0552847E18,0E0,5.7925993E19,0E0,0E0,0E0,0E0,0E0,0E0],"parents":[2147483647,0,0,1,1,2,2,3,3,4,4,10,10,11,11,12,12,13,13,14,14,16,16],"right_children":[2,4,6,8,10,-1,-1,-1,-1,-1,12,14,16,18,20,-1,22,-1,-1,-1,-1,-1,-1],"split_conditions":[8.50362E10,5.6566755E10,1.7008604E11,1.3973108E10,3.64693E10,4.1100575E9,1.146142E9,-7.406135E8,-1.6752618E9,1.898204E9,1E1,9.165717E10,6.866408E10,3.286803E10,4.381858E10,3.288079E8,6.6598806E10,-3.6963228E7,-4.7858038E8,-9.026427E7,-1.22368E6,-9.73042E7,-4.3586826E8],"split_indices":[2,6,3,7,0,0,0,0,0,0,10,4,6,3,0,0,0,0,0,0,0,0,0],"split_type":[0,0,0,0,0,0,0,0,0,0,0,0,0,0,0,0,0,0,0,0,0,0,0],"sum_hessian":[4.6E1,4E1,6E0,1.4E1,2.6E1,4E0,2E0,6E0,8E0,1E0,2.5E1,1.6E1,9E0,1.4E1,2E0,2E0,7E0,1E0,1.3E1,1E0,1E0,6E0,1E0],"tree_param":{"num_deleted":"0","num_feature":"15","num_nodes":"23","size_leaf_vector":"1"}},{"base_weights":[8.355557E7,-1.1149137E10,6.5863102E10,-2.5825817E10,-2.582495E9,3.945655E9,1.1079372E9,-7.088729E8,-1.6008058E9,1.8507488E9,-5.5291274E9,-7.811209E9,-1.0966761E9,-8.614835E9,-1.1893432E9,3.1784768E8,-3.7547028E9,-3.603917E7,-4.5636054E8,-8.800768E7,-1.1930624E6,-9.3134E7,-4.249716E8],"categories":[],"categories_nodes":[],"categories_segments":[],"categories_sizes":[],"default_left":[0,0,0,0,0,0,0,0,0,0,0,0,0,0,0,0,0,0,0,0,0,0,0],"id":1,"left_children":[1,3,5,7,9,-1,-1,-1,-1,-1,11,13,15,17,19,-1,21,-1,-1,-1,-1,-1,-1],"loss_changes":[3.5461744E22,5.088229E21,2.2437767E21,6.2769595E20,3.3549985E21,0E0,0E0,0E0,0E0,0E0,2.5442924E20,8.021959E19,2.2198793E20,5.40921E19,1.9538077E18,0E0,5.5985355E19,0E0,0E0,0E0,0E0,0E0,0E0],"parents":[2147483647,0,0,1,1,2,2,3,3,4,4,10,10,11,11,12,12,13,13,14,14,16,16],"right_children":[2,4,6,8,10,-1,-1,-1,-1,-1,12,14,16,18,20,-1,22,-1,-1,-1,-1,-1,-1],"split_conditions":[8.50362E10,5.6566755E10,1.7008604E11,1.3973108E10,3.64693E10,3.945655E9,1.1079372E9,-7.088729E8,-1.6008058E9,1.8507488E9,1E1,9.165717E10,6.866408E10,3.286803E10,4.381858E10,3.1784768E8,6.6598806E10,-3.603917E7,-4.5636054E8,-8.800768E7,-1.1930624E6,-9.3134E7,-4.249716E8],"split_indices":[2,6,3,7,0,0,0,0,0,0,10,4,6,3,0,0,0,0,0,0,0,0,0],"split_type":[0,0,0,0,0,0,0,0,0,0,0,0,0,0,0,0,0,0,0,0,0,0,0],"sum_hessian":[4.6E1,4E1,6E0,1.4E1,2.6E1,4E0,2E0,6E0,8E0,1E0,2.5E1,1.6E1,9E0,1.4E1,2E0,2E0,7E0,1E0,1.3E1,1E0,1E0,6E0,1E0],"tree_param":{"num_deleted":"0","num_feature":"15","num_nodes":"23","size_leaf_vector":"1"}},{"base_weights":[1.6050171E8,-1.0621943E10,6.329189E10,-2.4688503E10,-2.413782E9,3.787829E9,1.071006E9,-6.7849254E8,-1.5296589E9,1.8044801E9,-5.282743E9,-7.454861E9,-1.0618679E9,-8.2169206E9,-1.1596104E9,3.072527E8,-3.6317302E9,-3.513815E7,-4.351724E8,-8.580751E7,-1.163264E6,-8.914251E7,-4.1434726E8],"categories":[],"categories_nodes":[],"categories_segments":[],"categories_sizes":[],"default_left":[0,0,0,0,0,0,0,0,0,0,0,0,0,0,0,0,0,0,0,0,0,0,0],"id":2,"left_children":[1,3,5,7,9,-1,-1,-1,-1,-1,11,13,15,17,19,-1,21,-1,-1,-1,-1,-1,-1],"loss_changes":[3.2665687E22,4.6742914E21,2.0307114E21,5.696361E20,3.1731991E21,0E0,0E0,0E0,0E0,0E0,2.3045813E20,7.202663E19,2.0752513E20,4.8721278E19,1.8573371E18,0E0,5.408109E19,0E0,0E0,0E0,0E0,0E0,0E0],"parents":[2147483647,0,0,1,1,2,2,3,3,4,4,10,10,11,11,12,12,13,13,14,14,16,16],"right_children":[2,4,6,8,10,-1,-1,-1,-1,-1,12,14,16,18,20,-1,22,-1,-1,-1,-1,-1,-1],"split_conditions":[8.50362E10,5.6566755E10,1.7008604E11,1.3973108E10,3.64693E10,3.787829E9,1.071006E9,-6.7849254E8,-1.5296589E9,1.8044801E9,1E1,9.165717E10,6.866408E10,3.286803E10,4.381858E10,3.072527E8,6.6598806E10,-3.513815E7,-4.351724E8,-8.580751E7,-1.163264E6,-8.914251E7,-4.1434726E8],"split_indices":[2,6,3,7,0,0,0,0,0,0,10,4,6,3,0,0,0,0,0,0,0,0,0],"split_type":[0,0,0,0,0,0,0,0,0,0,0,0,0,0,0,0,0,0,0,0,0,0,0],"sum_hessian":[4.6E1,4E1,6E0,1.4E1,2.6E1,4E0,2E0,6E0,8E0,1E0,2.5E1,1.6E1,9E0,1.4E1,2E0,2E0,7E0,1E0,1.3E1,1E0,1E0,6E0,1E0],"tree_param":{"num_deleted":"0","num_feature":"15","num_nodes":"23","size_leaf_vector":"1"}},{"base_weights":[2.312351E8,-1.0119071E10,6.082142E10,-2.3601287E10,-2.2541693E9,3.636316E9,1.0353058E9,-6.494142E8,-1.461674E9,1.7593681E9,-5.047588E9,-7.1149E9,-1.0283991E9,-7.837429E9,-1.1306203E9,2.970109E8,-3.5130808E9,-3.425966E7,-4.1496803E8,-8.366234E7,-1.1341824E6,-8.532217E7,-4.0398858E8],"categories":[],"categories_nodes":[],"categories_segments":[],"categories_sizes":[],"default_left":[0,0,0,0,0,0,0,0,0,0,0,0,0,0,0,0,0,0,0,0,0,0,0],"id":3,"left_children":[1,3,5,7,9,-1,-1,-1,-1,-1,11,13,15,17,19,-1,21,-1,-1,-1,-1,-1,-1],"loss_changes":[3.009042E22,4.294287E21,1.8371016E21,5.1692373E20,3.001538E21,0E0,0E0,0E0,0E0,0E0,2.087149E20,6.4643684E19,1.9401643E20,4.387104E19,1.765632E18,0E0,5.2215174E19,0E0,0E0,0E0,0E0,0E0,0E0],"parents":[2147483647,0,0,1,1,2,2,3,3,4,4,10,10,11,11,12,12,13,13,14,14,16,16],"right_children":[2,4,6,8,10,-1,-1,-1,-1,-1,12,14,16,18,20,-1,22,-1,-1,-1,-1,-1,-1],"split_conditions":[8.50362E10,5.6566755E10,1.7008604E11,1.3973108E10,3.64693E10,3.636316E9,1.0353058E9,-6.494142E8,-1.461674E9,1.7593681E9,1E1,9.165717E10,6.866408E10,3.286803E10,4.381858E10,2.970109E8,6.6598806E10,-3.425966E7,-4.1496803E8,-8.366234E7,-1.1341824E6,-8.532217E7,-4.0398858E8],"split_indices":[2,6,3,7,0,0,0,0,0,0,10,4,6,3,0,0,0,0,0,0,0,0,0],"split_type":[0,0,0,0,0,0,0,0,0,0,0,0,0,0,0,0,0,0,0,0,0,0,0],"sum_hessian":[4.6E1,4E1,6E0,1.4E1,2.6E1,4E0,2E0,6E0,8E0,1E0,2.5E1,1.6E1,9E0,1.4E1,2E0,2E0,7E0,1E0,1.3E1,1E0,1E0,6E0,1E0],"tree_param":{"num_deleted":"0","num_feature":"15","num_nodes":"23","size_leaf_vector":"1"}},{"base_weights":[2.961332E8,-9.63941E9,5.8447725E10,-2.2561962E10,-2.1031986E9,3.490863E9,1.00079565E9,-1.2431645E10,-1.3967108E9,1.7153838E9,-4.823143E9,-2.7025565E8,-7.0806176E8,-6.790567E9,-9.962078E8,-7.4755046E9,-1.1023551E9,2.8711062E8,-3.3985894E9,-1.9377941E8,-4.4439523E8,-8.157082E7,-1.1058176E6,-8.166543E7,-3.9388886E8],"categories":[],"categories_nodes":[],"categories_segments":[],"categories_sizes":[],"default_left":[0,0,0,0,0,0,0,0,0,0,0,0,0,0,0,0,0,0,0,0,0,0,0,0,0],"id":4,"left_children":[1,3,5,7,9,-1,-1,11,-1,-1,13,-1,-1,15,17,19,21,-1,23,-1,-1,-1,-1,-1,-1],"loss_changes":[2.771848E22,3.945418E21,1.6612068E21,4.6907186E20,2.839431E21,0E0,0E0,8.5280585E18,0E0,0E0,1.8899447E20,0E0,0E0,5.799257E19,1.81398E20,4.1821974E19,1.6784556E18,0E0,5.038936E19,0E0,0E0,0E0,0E0,0E0,0E0],"parents":[2147483647,0,0,1,1,2,2,3,3,4,4,7,7,10,10,13,13,14,14,15,15,16,16,18,18],"right_children":[2,4,6,8,10,-1,-1,12,-1,-1,14,-1,-1,16,18,20,22,-1,24,-1,-1,-1,-1,-1,-1],"split_conditions":[8.50362E10,5.6566755E10,1.7008604E11,1.3973108E10,3.64693E10,3.490863E9,1.00079565E9,3.286803E10,-1.3967108E9,1.7153838E9,1E1,-2.7025565E8,-7.0806176E8,9.165717E10,6.866408E10,5.1843617E10,4.381858E10,2.8711062E8,6.6598806E10,-1.9377941E8,-4.4439523E8,-8.157082E7,-1.1058176E6,-8.166543E7,-3.9388886E8],"split_indices":[2,6,3,7,0,0,0,2,0,0,10,0,0,4,6,0,0,0,0,0,0,0,0,0,0],"split_type":[0,0,0,0,0,0,0,0,0,0,0,0,0,0,0,0,0,0,0,0,0,0,0,0,0],"sum_hessian":[4.6E1,4E1,6E0,1.4E1,2.6E1,4E0,2E0,6E0,8E0,1E0,2.5E1,2E0,4E0,1.6E1,9E0,1.4E1,2E0,2E0,7E0,5E0,9E0,1E0,1E0,6E0,1E0],"tree_param":{"num_deleted":"0","num_feature":"15","num_nodes":"25","size_leaf_vector":"1"}},{"base_weights":[3.4351203E8,-9.195706E9,5.6167002E10,-2.15922E10,-1.9681836E9,3.3512287E9,9.674358E8,-3.748531E8,-2.449123E10,1.6724992E9,-4.6169585E9,-1.2977455E9,-2.0976856E8,-6.493442E9,-9.652412E8,-7.144275E9,-1.0747959E9,2.7754032E8,-3.288104E9,-2.22933E7,-3.7954426E8,-7.953152E7,-1.0781696E6,-7.8165464E7,-3.840417E8],"categories":[],"categories_nodes":[],"categories_segments":[],"categories_sizes":[],"default_left":[0,0,0,0,0,0,0,0,0,0,0,0,0,0,0,0,0,0,0,0,0,0,0,0,0],"id":5,"left_children":[1,3,5,7,9,-1,-1,-1,11,-1,13,-1,-1,15,17,19,21,-1,23,-1,-1,-1,-1,-1,-1],"loss_changes":[2.5544581E22,3.6309357E21,1.5014596E21,4.293214E20,2.6874358E21,0E0,0E0,0E0,2.4758877E20,0E0,1.7189427E20,0E0,0E0,5.2274196E19,1.6961047E20,4.148913E19,1.5955821E18,0E0,4.860493E19,0E0,0E0,0E0,0E0,0E0,0E0],"parents":[2147483647,0,0,1,1,2,2,3,3,4,4,8,8,10,10,13,13,14,14,15,15,16,16,18,18],"right_children":[2,4,6,8,10,-1,-1,-1,12,-1,14,-1,-1,16,18,20,22,-1,24,-1,-1,-1,-1,-1,-1],"split_conditions":[8.50362E10,5.6566755E10,1.7008604E11,6.9021834E9,3.64693E10,3.3512287E9,9.674358E8,-3.748531E8,5.750759E10,1.6724992E9,1E1,-1.2977455E9,-2.0976856E8,9.165717E10,6.866408E10,3.286803E10,4.381858E10,2.7754032E8,6.6598806E10,-2.22933E7,-3.7954426E8,-7.953152E7,-1.0781696E6,-7.8165464E7,-3.840417E8],"split_indices":[2,6,3,7,0,0,0,0,3,0,10,0,0,4,6,3,0,0,0,0,0,0,0,0,0],"split_type":[0,0,0,0,0,0,0,0,0,0,0,0,0,0,0,0,0,0,0,0,0,0,0,0,0],"sum_hessian":[4.6E1,4E1,6E0,1.4E1,2.6E1,4E0,2E0,3E0,1.1E1,1E0,2.5E1,1E1,1E0,1.6E1,9E0,1.4E1,2E0,2E0,7E0,1E0,1.3E1,1E0,1E0,6E0,1E0],"tree_param":{"num_deleted":"0","num_feature":"15","num_nodes":"25","size_leaf_vector":"1"}},{"base_weights":[3.9956266E8,-8.757311E9,5.39756E10,-2.063808E10,-1.8325388E9,3.2171794E9,9.35188E8,-1.1388419E10,-1.2769572E9,1.6306866E9,-4.41177E9,-2.5150349E8,-6.462873E8,-6.1971497E9,-9.354469E8,-6.8138506E9,-1.0479261E9,2.6828894E8,-3.1814758E9,-1.6989102E8,-4.0910422E8,-7.7543224E7,-1.0512384E6,-7.4815576E7,-3.7444067E8],"categories":[],"categories_nodes":[],"categories_segments":[],"categories_sizes":[],"default_left":[0,0,0,0,0,0,0,0,0,0,0,0,0,0,0,0,0,0,0,0,0,0,0,0,0],"id":6,"left_children":[1,3,5,7,9,-1,-1,11,-1,-1,13,-1,-1,15,17,19,21,-1,23,-1,-1,-1,-1,-1,-1],"loss_changes":[2.3530367E22,3.335317E21,1.3564189E21,3.8914704E20,2.5426963E21,0E0,0E0,3.4066213E18,0E0,0E0,1.5557337E20,0E0,0E0,4.68437E19,1.5859845E20,4.230766E19,1.5167975E18,0E0,4.686297E19,0E0,0E0,0E0,0E0,0E0,0E0],"parents":[2147483647,0,0,1,1,2,2,3,3,4,4,7,7,10,10,13,13,14,14,15,15,16,16,18,18],"right_children":[2,4,6,8,10,-1,-1,12,-1,-1,14,-1,-1,16,18,20,22,-1,24,-1,-1,-1,-1,-1,-1],"split_conditions":[8.50362E10,5.6566755E10,1.7008604E11,1.3973108E10,3.64693E10,3.2171794E9,9.35188E8,3.286803E10,-1.2769572E9,1.6306866E9,1E1,-2.5150349E8,-6.462873E8,9.165717E10,6.866408E10,5.1843617E10,4.381858E10,2.6828894E8,6.6598806E10,-1.6989102E8,-4.0910422E8,-7.7543224E7,-1.0512384E6,-7.4815576E7,-3.7444067E8],"split_indices":[2,6,3,7,0,0,0,2,0,0,10,0,0,4,6,0,0,0,0,0,0,0,0,0,0],"split_type":[0,0,0,0,0,0,0,0,0,0,0,0,0,0,0,0,0,0,0,0,0,0,0,0,0],"sum_hessian":[4.6E1,4E1,6E0,1.4E1,2.6E1,4E0,2E0,6E0,8E0,1E0,2.5E1,2E0,4E0,1.6E1,9E0,1.4E1,2E0,2E0,7E0,5E0,9E0,1E0,1E0,6E0,1E0],"tree_param":{"num_deleted":"0","num_feature":"15","num_nodes":"25","size_leaf_vector":"1"}},{"base_weights":[4.3851562E8,-8.353168E9,5.187002E10,-1.9751162E10,-1.7115732E9,3.0884923E9,9.0401504E8,-3.414951E8,-2.2412317E10,1.5899196E9,-4.223433E9,-1.186447E9,-1.9823678E8,-5.925974E9,-9.0677005E8,-6.5117583E9,-1.02172806E9,2.5934603E8,-3.0785577E9,-1.932905E8,-4.1718685E8,-7.560469E7,-1.0249216E6,-7.160911E7,-3.6507965E8],"categories":[],"categories_nodes":[],"categories_segments":[],"categories_sizes":[],"default_left":[0,0,0,0,0,0,0,0,0,0,0,0,0,0,0,0,0,0,0,0,0,0,0,0,0],"id":7,"left_children":[1,3,5,7,9,-1,-1,-1,11,-1,13,-1,-1,15,17,19,21,-1,23,-1,-1,-1,-1,-1,-1],"loss_changes":[2.1685244E22,3.0699296E21,1.2247686E21,3.627081E20,2.406951E21,0E0,0E0,0E0,1.9738376E20,0E0,1.4144216E20,0E0,0E0,4.2184795E19,1.4831024E20,4.04545E19,1.44191E18,0E0,4.51644E19,0E0,0E0,0E0,0E0,0E0,0E0],"parents":[2147483647,0,0,1,1,2,2,3,3,4,4,8,8,10,10,13,13,14,14,15,15,16,16,18,18],"right_children":[2,4,6,8,10,-1,-1,-1,12,-1,14,-1,-1,16,18,20,22,-1,24,-1,-1,-1,-1,-1,-1],"split_conditions":[8.50362E10,5.6566755E10,1.7008604E11,6.9021834E9,3.64693E10,3.0884923E9,9.0401504E8,-3.414951E8,5.750759E10,1.5899196E9,1E1,-1.186447E9,-1.9823678E8,9.165717E10,6.866408E10,5.284967E10,4.381858E10,2.5934603E8,6.6598806E10,-1.932905E8,-4.1718685E8,-7.560469E7,-1.0249216E6,-7.160911E7,-3.6507965E8],"split_indices":[2,6,3,7,0,0,0,0,3,0,10,0,0,4,6,1,0,0,0,0,0,0,0,0,0],"split_type":[0,0,0,0,0,0,0,0,0,0,0,0,0,0,0,0,0,0,0,0,0,0,0,0,0],"sum_hessian":[4.6E1,4E1,6E0,1.4E1,2.6E1,4E0,2E0,3E0,1.1E1,1E0,2.5E1,1E1,1E0,1.6E1,9E0,1.4E1,2E0,2E0,7E0,7E0,7E0,1E0,1E0,6E0,1E0],"tree_param":{"num_deleted":"0","num_feature":"15","num_nodes":"25","size_leaf_vector":"1"}},{"base_weights":[4.802453E8,-7.959917E9,4.9846874E10,-1.8878681E10,-1.5991254E9,1.1655884E9,3.1960133E9,-3.28689E8,-2.140709E10,1.5501715E9,-4.0455096E9,-1.1325176E9,-1.9328082E8,-5.670094E9,-8.7916506E8,-6.226869E9,-9.961854E8,2.5070114E8,-2.9792148E9,-6.6760705E6,-3.3262858E8,-7.3714584E7,-9.993216E5,-6.85401E7,-3.5595264E8],"categories":[],"categories_nodes":[],"categories_segments":[],"categories_sizes":[],"default_left":[0,0,0,0,0,0,0,0,0,0,0,0,0,0,0,0,0,0,0,0,0,0,0,0,0],"id":8,"left_children":[1,3,5,7,9,-1,-1,-1,11,-1,13,-1,-1,15,17,19,21,-1,23,-1,-1,-1,-1,-1,-1],"loss_changes":[1.997991E22,2.8173422E21,1.1239791E21,3.2595196E20,2.2789008E21,0E0,0E0,0E0,1.7414575E20,0E0,1.287589E20,0E0,0E0,3.8036277E19,1.3869774E20,3.802104E19,1.3707147E18,0E0,4.3509738E19,0E0,0E0,0E0,0E0,0E0,0E0],"parents":[2147483647,0,0,1,1,2,2,3,3,4,4,8,8,10,10,13,13,14,14,15,15,16,16,18,18],"right_children":[2,4,6,8,10,-1,-1,-1,12,-1,14,-1,-1,16,18,20,22,-1,24,-1,-1,-1,-1,-1,-1],"split_conditions":[8.50362E10,5.6566755E10,8.7802085E10,6.9021834E9,3.64693E10,1.1655884E9,3.1960133E9,-3.28689E8,5.750759E10,1.5501715E9,1E1,-1.1325176E9,-1.9328082E8,9.165717E10,6.866408E10,3.286803E10,4.381858E10,2.5070114E8,6.6598806E10,-6.6760705E6,-3.3262858E8,-7.3714584E7,-9.993216E5,-6.85401E7,-3.5595264E8],"split_indices":[2,6,4,7,0,0,0,0,3,0,10,0,0,4,6,3,0,0,0,0,0,0,0,0,0],"split_type":[0,0,0,0,0,0,0,0,0,0,0,0,0,0,0,0,0,0,0,0,0,0,0,0,0],"sum_hessian":[4.6E1,4E1,6E0,1.4E1,2.6E1,3E0,3E0,3E0,1.1E1,1E0,2.5E1,1E1,1E0,1.6E1,9E0,1.4E1,2E0,2E0,7E0,1E0,1.3E1,1E0,1E0,6E0,1E0],"tree_param":{"num_deleted":"0","num_feature":"15","num_nodes":"25","size_leaf_vector":"1"}},{"base_weights":[5.343073E8,-7.578802E9,4.797762E10,-1.8045045E10,-1.4835267E9,2.8574164E9,8.3502835E8,-9.94154E9,-1.1171383E9,1.5114172E9,-3.8658427E9,-5.300269E8,-1.4968874E8,-5.4109435E9,-8.525865E8,-5.939384E9,-9.650954E8,2.4234448E8,-2.8833167E9,-1.3903323E8,-3.6203386E8,-7.18717E7,-5.10464E5,-6.5602732E7,-3.470538E8],"categories":[],"categories_nodes":[],"categories_segments":[],"categories_sizes":[],"default_left":[0,0,0,0,0,0,0,0,0,0,0,0,0,0,0,0,0,0,0,0,0,0,0,0,0],"id":9,"left_children":[1,3,5,7,9,-1,-1,11,-1,-1,13,-1,-1,15,17,19,21,-1,23,-1,-1,-1,-1,-1,-1],"loss_changes":[1.8454514E22,2.5888095E21,1.0534201E21,3.002775E20,2.156646E21,0E0,0E0,3.1433718E17,0E0,0E0,1.1643712E20,0E0,0E0,3.4207126E19,1.2971611E20,4.1522415E19,1.338413E18,0E0,4.1899345E19,0E0,0E0,0E0,0E0,0E0,0E0],"parents":[2147483647,0,0,1,1,2,2,3,3,4,4,7,7,10,10,13,13,14,14,15,15,16,16,18,18],"right_children":[2,4,6,8,10,-1,-1,12,-1,-1,14,-1,-1,16,18,20,22,-1,24,-1,-1,-1,-1,-1,-1],"split_conditions":[8.50362E10,5.6566755E10,1.7008604E11,1.3973108E10,3.64693E10,2.8574164E9,8.3502835E8,4.4424155E10,-1.1171383E9,1.5114172E9,1E1,-5.300269E8,-1.4968874E8,5.616637E10,6.866408E10,5.1843617E10,4.381858E10,2.4234448E8,6.6598806E10,-1.3903323E8,-3.6203386E8,-7.18717E7,-5.10464E5,-6.5602732E7,-3.470538E8],"split_indices":[2,6,3,7,0,0,0,4,0,0,10,0,0,3,6,0,0,0,0,0,0,0,0,0,0],"split_type":[0,0,0,0,0,0,0,0,0,0,0,0,0,0,0,0,0,0,0,0,0,0,0,0,0],"sum_hessian":[4.6E1,4E1,6E0,1.4E1,2.6E1,4E0,2E0,6E0,8E0,1E0,2.5E1,5E0,1E0,1.6E1,9E0,1.4E1,2E0,2E0,7E0,5E0,9E0,1E0,1E0,6E0,1E0],"tree_param":{"num_deleted":"0","num_feature":"15","num_nodes":"25","size_leaf_vector":"1"}},{"base_weights":[5.6425645E8,-7.2249646E9,4.6106227E10,-1.7262584E10,-1.3809187E9,1.06528525E9,2.96901E9,-3.0124144E8,-1.9569953E10,1.4736319E9,-3.7011569E9,-1.03559776E9,-1.7519811E8,-5.1741286E9,-8.269889E8,-5.6986834E9,-8.266452E8,2.3426635E8,-2.7907338E9,-1.3324012E8,-3.4745718E8,-7.007488E7,8.076493E6,-6.279124E7,-3.3837744E8],"categories":[],"categories_nodes":[],"categories_segments":[],"categories_sizes":[],"default_left":[0,0,0,0,0,0,0,0,0,0,0,0,0,0,0,0,0,0,0,0,0,0,0,0,0],"id":10,"left_children":[1,3,5,7,9,-1,-1,-1,11,-1,13,-1,-1,15,17,19,21,-1,23,-1,-1,-1,-1,-1,-1],"loss_changes":[1.7005731E22,2.3812344E21,1.03927204E21,2.7103901E20,2.041948E21,0E0,0E0,0E0,1.4759478E20,0E0,1.0579381E20,0E0,0E0,3.4057593E19,1.2132333E20,3.8388155E19,1.9305482E18,0E0,4.033353E19,0E0,0E0,0E0,0E0,0E0,0E0],"parents":[2147483647,0,0,1,1,2,2,3,3,4,4,8,8,10,10,13,13,14,14,15,15,16,16,18,18],"right_children":[2,4,6,8,10,-1,-1,-1,12,-1,14,-1,-1,16,18,20,22,-1,24,-1,-1,-1,-1,-1,-1],"split_conditions":[8.50362E10,5.6566755E10,8.7802085E10,6.9021834E9,3.64693E10,1.06528525E9,2.96901E9,-3.0124144E8,5.750759E10,1.4736319E9,1E1,-1.03559776E9,-1.7519811E8,9.165717E10,6.866408E10,5.1843617E10,4.381858E10,2.3426635E8,6.6598806E10,-1.3324012E8,-3.4745718E8,-7.007488E7,8.076493E6,-6.279124E7,-3.3837744E8],"split_indices":[2,6,4,7,0,0,0,0,3,0,10,0,0,4,6,0,0,0,0,0,0,0,0,0,0],"split_type":[0,0,0,0,0,0,0,0,0,0,0,0,0,0,0,0,0,0,0,0,0,0,0,0,0],"sum_hessian":[4.6E1,4E1,6E0,1.4E1,2.6E1,3E0,3E0,3E0,1.1E1,1E0,2.5E1,1E1,1E0,1.6E1,9E0,1.4E1,2E0,2E0,7E0,5E0,9E0,1E0,1E0,6E0,1E0],"tree_param":{"num_deleted":"0","num_feature":"15","num_nodes":"25","size_leaf_vector":"1"}},{"base_weights":[6.059636E8,-6.8819615E9,4.4377244E10,-1.6500258E10,-1.2835759E9,1.02533696E9,2.857672E9,-4.5457747E8,-1.0214612E9,1.436791E9,-3.543392E9,8.5953165E8,-4.382993E9,-2.434728E8,3.5091425E9,-5.767828E9,-1.2385541E9,2.2645747E8,1.1228058E7,-1.27688504E8,-3.5597398E8,-1.0097378E8,2.3618048E6],"categories":[],"categories_nodes":[],"categories_segments":[],"categories_sizes":[],"default_left":[0,0,0,0,0,0,0,0,0,0,0,0,0,0,0,0,0,0,0,0,0,0,0],"id":11,"left_children":[1,3,5,7,9,-1,-1,-1,-1,-1,11,13,15,-1,17,19,21,-1,-1,-1,-1,-1,-1],"loss_changes":[1.5709937E22,2.1865449E21,9.6278966E20,2.5089497E20,1.9334565E21,0E0,0E0,0E0,0E0,0E0,9.988154E19,9.298556E19,8.865586E19,0E0,1.2384107E19,4.6982783E19,8.1282024E18,0E0,0E0,0E0,0E0,0E0,0E0],"parents":[2147483647,0,0,1,1,2,2,3,3,4,4,10,10,11,11,12,12,14,14,15,15,16,16],"right_children":[2,4,6,8,10,-1,-1,-1,-1,-1,12,14,16,-1,18,20,22,-1,-1,-1,-1,-1,-1],"split_conditions":[8.50362E10,5.6566755E10,8.7802085E10,1.3973108E10,3.64693E10,1.02533696E9,2.857672E9,-4.5457747E8,-1.0214612E9,1.436791E9,5.5751574E10,3.4425086E10,5.616637E10,-2.434728E8,7.170296E10,5.1843617E10,5.750759E10,2.2645747E8,1.1228058E7,-1.27688504E8,-3.5597398E8,-1.0097378E8,2.3618048E6],"split_indices":[2,6,4,7,0,0,0,0,0,0,8,1,3,0,0,0,0,0,0,0,0,0,0],"split_type":[0,0,0,0,0,0,0,0,0,0,0,0,0,0,0,0,0,0,0,0,0,0,0],"sum_hessian":[4.6E1,4E1,6E0,1.4E1,2.6E1,3E0,3E0,6E0,8E0,1E0,2.5E1,4E0,2.1E1,1E0,3E0,1.4E1,7E0,2E0,1E0,5E0,9E0,4E0,3E0],"tree_param":{"num_deleted":"0","num_feature":"15","num_nodes":"23","size_leaf_vector":"1"}},{"base_weights":[6.449359E8,-6.5531633E9,4.2713096E10,-1.5773648E10,-1.1879622E9,2.3791767E9,3.372624E8,-2.7289827E8,-1.7897738E10,1.4008712E9,-3.3888394E9,-9.4724864E8,-1.594537E8,8.153989E8,-4.1903101E9,-2.3738594E8,3.393108E9,-5.5116795E9,-1.1889531E9,2.1890896E8,1.0947379E7,-1.2236814E8,-3.399551E8,-9.693479E7,2.2731778E6],"categories":[],"categories_nodes":[],"categories_segments":[],"categories_sizes":[],"default_left":[0,0,0,0,0,0,0,0,0,0,0,0,0,0,0,0,0,0,0,0,0,0,0,0,0],"id":12,"left_children":[1,3,5,7,9,-1,-1,-1,11,-1,13,-1,-1,15,17,-1,19,21,23,-1,-1,-1,-1,-1,-1],"loss_changes":[1.4512013E22,2.0095211E21,9.0528995E20,2.3098653E20,1.8304381E21,0E0,0E0,0E0,1.24424325E20,0E0,9.1025665E19,0E0,0E0,8.781002E19,8.069673E19,0E0,1.15485E19,4.2536147E19,7.492101E18,0E0,0E0,0E0,0E0,0E0,0E0],"parents":[2147483647,0,0,1,1,2,2,3,3,4,4,8,8,10,10,13,13,14,14,16,16,17,17,18,18],"right_children":[2,4,6,8,10,-1,-1,-1,12,-1,14,-1,-1,16,18,-1,20,22,24,-1,-1,-1,-1,-1,-1],"split_conditions":[8.50362E10,5.6566755E10,1.8932621E11,6.9021834E9,3.64693E10,2.3791767E9,3.372624E8,-2.7289827E8,5.750759E10,1.4008712E9,5.5751574E10,-9.4724864E8,-1.594537E8,3.4425086E10,5.616637E10,-2.3738594E8,7.170296E10,5.1843617E10,5.750759E10,2.1890896E8,1.0947379E7,-1.2236814E8,-3.399551E8,-9.693479E7,2.2731778E6],"split_indices":[2,6,2,7,0,0,0,0,3,0,8,0,0,1,3,0,0,0,0,0,0,0,0,0,0],"split_type":[0,0,0,0,0,0,0,0,0,0,0,0,0,0,0,0,0,0,0,0,0,0,0,0,0],"sum_hessian":[4.6E1,4E1,6E0,1.4E1,2.6E1,5E0,1E0,3E0,1.1E1,1E0,2.5E1,1E1,1E0,4E0,2.1E1,1E0,3E0,1.4E1,7E0,2E0,1E0,5E0,9E0,4E0,3E0],"tree_param":{"num_deleted":"0","num_feature":"15","num_nodes":"25","size_leaf_vector":"1"}},{"base_weights":[6.589274E8,-6.238755E9,4.0965505E10,-1.5076938E10,-1.0975878E9,9.231916E8,2.66129E9,-8.291532E9,-9.339631E8,1.3658493E9,-3.2411092E9,-4.435965E8,-1.2022856E8,-4.5488906E9,-6.937706E8,-5.8374845E9,-2.3695365E9,2.1161192E8,-2.4543027E9,-1.4752498E8,-3.6351958E8,-7.8397444E5,-3.1437027E8,-3.218002E7,-2.6288034E8],"categories":[],"categories_nodes":[],"categories_segments":[],"categories_sizes":[],"default_left":[0,0,0,0,0,0,0,0,0,0,0,0,0,0,0,0,0,0,0,0,0,0,0,0,0],"id":13,"left_children":[1,3,5,7,9,-1,-1,11,-1,-1,13,-1,-1,15,17,19,21,-1,23,-1,-1,-1,-1,-1,-1],"loss_changes":[1.3322605E22,1.8464333E21,9.483883E20,2.1176854E20,1.7330333E21,0E0,0E0,2.584292E18,0E0,0E0,8.3459494E19,0E0,0E0,3.3909044E19,9.711116E19,1.9916536E19,7.367824E19,0E0,3.722379E19,0E0,0E0,0E0,0E0,0E0,0E0],"parents":[2147483647,0,0,1,1,2,2,3,3,4,4,7,7,10,10,13,13,14,14,15,15,16,16,18,18],"right_children":[2,4,6,8,10,-1,-1,12,-1,-1,14,-1,-1,16,18,20,22,-1,24,-1,-1,-1,-1,-1,-1],"split_conditions":[8.50362E10,5.6566755E10,8.7802085E10,1.3973108E10,3.64693E10,9.231916E8,2.66129E9,4.4424155E10,-9.339631E8,1.3658493E9,1E1,-4.435965E8,-1.2022856E8,5.3131145E10,6.866408E10,5.1843617E10,1.7008604E11,2.1161192E8,3.656817E9,-1.4752498E8,-3.6351958E8,-7.8397444E5,-3.1437027E8,-3.218002E7,-2.6288034E8],"split_indices":[2,6,4,7,0,0,0,4,0,0,10,0,0,5,6,0,0,0,5,0,0,0,0,0,0],"split_type":[0,0,0,0,0,0,0,0,0,0,0,0,0,0,0,0,0,0,0,0,0,0,0,0,0],"sum_hessian":[4.6E1,4E1,6E0,1.4E1,2.6E1,3E0,3E0,6E0,8E0,1E0,2.5E1,5E0,1E0,1.6E1,9E0,9E0,7E0,2E0,7E0,4E0,5E0,5E0,2E0,5E0,2E0],"tree_param":{"num_deleted":"0","num_feature":"15","num_nodes":"25","size_leaf_vector":"1"}},{"base_weights":[6.8008525E8,-5.9522217E9,3.94293E10,-1.4422944E10,-1.0258124E9,8.88572E8,2.5614917E9,-2.5007171E8,-1.6361535E10,1.331703E9,-3.1140406E9,-8.661969E8,-1.4437746E8,7.6133824E8,-3.853261E9,-2.2236325E8,3.1753052E9,-5.068947E9,-1.0921928E9,2.0455819E8,1.0693223E7,-2.7516394E8,2.529239E7,-8.977715E7,3.0021632E6],"categories":[],"categories_nodes":[],"categories_segments":[],"categories_sizes":[],"default_left":[0,0,0,0,0,0,0,0,0,0,0,0,0,0,0,0,0,0,0,0,0,0,0,0,0],"id":14,"left_children":[1,3,5,7,9,-1,-1,-1,11,-1,13,-1,-1,15,17,-1,19,21,23,-1,-1,-1,-1,-1,-1],"loss_changes":[1.2313537E22,1.6961446E21,8.785926E20,1.9213595E20,1.642463E21,0E0,0E0,0E0,1.05585204E20,0E0,7.741737E19,0E0,0E0,7.69884E19,6.830877E19,0E0,9.974088E18,3.910349E19,6.591216E18,0E0,0E0,0E0,0E0,0E0,0E0],"parents":[2147483647,0,0,1,1,2,2,3,3,4,4,8,8,10,10,13,13,14,14,16,16,17,17,18,18],"right_children":[2,4,6,8,10,-1,-1,-1,12,-1,14,-1,-1,16,18,-1,20,22,24,-1,-1,-1,-1,-1,-1],"split_conditions":[8.50362E10,5.6566755E10,8.7802085E10,6.9021834E9,3.64693E10,8.88572E8,2.5614917E9,-2.5007171E8,5.750759E10,1.331703E9,5.5751574E10,-8.661969E8,-1.4437746E8,3.4425086E10,5.616637E10,-2.2236325E8,7.170296E10,9.165717E10,5.750759E10,2.0455819E8,1.0693223E7,-2.7516394E8,2.529239E7,-8.977715E7,3.0021632E6],"split_indices":[2,6,4,7,0,0,0,0,3,0,8,0,0,1,3,0,0,4,0,0,0,0,0,0,0],"split_type":[0,0,0,0,0,0,0,0,0,0,0,0,0,0,0,0,0,0,0,0,0,0,0,0,0],"sum_hessian":[4.6E1,4E1,6E0,1.4E1,2.6E1,3E0,3E0,3E0,1.1E1,1E0,2.5E1,1E1,1E0,4E0,2.1E1,1E0,3E0,1.4E1,7E0,2E0,1E0,1.3E1,1E0,4E0,3E0],"tree_param":{"num_deleted":"0","num_feature":"15","num_nodes":"25","size_leaf_vector":"1"}},{"base_weights":[7.1368506E8,-5.6612613E9,3.79507E10,-1.378584E10,-9.3793075E8,8.552506E8,2.465436E9,-7.582217E9,-8.53956E8,1.2984105E9,-2.9715597E9,-4.053057E8,-1.10970984E8,-4.17593E9,-6.269739E8,-5.3543455E9,-2.1809193E9,1.9773958E8,-2.2667643E9,-1.3061734E8,-3.3734768E8,1.9648854E6,-2.94719E8,-4.408124E7,-2.990685E8],"categories":[],"categories_nodes":[],"categories_segments":[],"categories_sizes":[],"default_left":[0,0,0,0,0,0,0,0,0,0,0,0,0,0,0,0,0,0,0,0,0,0,0,0,0],"id":15,"left_children":[1,3,5,7,9,-1,-1,11,-1,-1,13,-1,-1,15,17,19,21,-1,23,-1,-1,-1,-1,-1,-1],"loss_changes":[1.1371898E22,1.5604477E21,8.139333E20,1.7695628E20,1.5545279E21,0E0,0E0,1.6759724E18,0E0,0E0,7.0799295E19,0E0,0E0,2.8288798E19,8.409594E19,2.0559917E19,6.618915E19,0E0,3.5888658E19,0E0,0E0,0E0,0E0,0E0,0E0],"parents":[2147483647,0,0,1,1,2,2,3,3,4,4,7,7,10,10,13,13,14,14,15,15,16,16,18,18],"right_children":[2,4,6,8,10,-1,-1,12,-1,-1,14,-1,-1,16,18,20,22,-1,24,-1,-1,-1,-1,-1,-1],"split_conditions":[8.50362E10,5.6566755E10,8.7802085E10,1.3973108E10,3.64693E10,8.552506E8,2.465436E9,4.4424155E10,-8.53956E8,1.2984105E9,1E1,-4.053057E8,-1.10970984E8,5.3131145E10,6.866408E10,5.1843617E10,1.7008604E11,1.9773958E8,6.6598806E10,-1.3061734E8,-3.3734768E8,1.9648854E6,-2.94719E8,-4.408124E7,-2.990685E8],"split_indices":[2,6,4,7,0,0,0,4,0,0,10,0,0,5,6,0,0,0,0,0,0,0,0,0,0],"split_type":[0,0,0,0,0,0,0,0,0,0,0,0,0,0,0,0,0,0,0,0,0,0,0,0,0],"sum_hessian":[4.6E1,4E1,6E0,1.4E1,2.6E1,3E0,3E0,6E0,8E0,1E0,2.5E1,5E0,1E0,1.6E1,9E0,9E0,7E0,2E0,7E0,4E0,5E0,5E0,2E0,6E0,1E0],"tree_param":{"num_deleted":"0","num_feature":"15","num_nodes":"25","size_leaf_vector":"1"}},{"base_weights":[7.2784576E8,-5.402051E9,3.652755E10,-1.1180152E10,6.332904E8,8.231787E8,2.372982E9,-6.7617505E9,-8.160024E8,1.2659503E9,-1.8669458E9,-7.767062E9,-1.279017E8,2.404072E9,-3.0849546E9,-4.7610896E8,-2.0537546E8,1.911483E8,9.191015E6,-4.576478E9,-1.0213714E9,-2.2549778E7,-2.84538E8,-8.4883336E7,3.9670272E6],"categories":[],"categories_nodes":[],"categories_segments":[],"categories_sizes":[],"default_left":[0,0,0,0,0,0,0,0,0,0,0,0,0,0,0,0,0,0,0,0,0,0,0,0,0],"id":16,"left_children":[1,3,5,7,9,-1,-1,11,-1,-1,13,15,-1,17,19,-1,-1,-1,-1,21,23,-1,-1,-1,-1],"loss_changes":[1.0511403E22,1.4368657E21,7.5403374E20,3.6656036E20,1.3433917E21,0E0,0E0,3.5070164E19,0E0,0E0,1.114592E20,2.5116997E19,0E0,1.5048776E19,4.4571844E19,0E0,0E0,0E0,0E0,3.8806023E19,6.0899437E18,0E0,0E0,0E0,0E0],"parents":[2147483647,0,0,1,1,2,2,3,3,4,4,7,7,10,10,11,11,13,13,14,14,19,19,20,20],"right_children":[2,4,6,8,10,-1,-1,12,-1,-1,14,16,-1,18,20,-1,-1,-1,-1,22,24,-1,-1,-1,-1],"split_conditions":[8.50362E10,3.5622756E10,8.7802085E10,2.023E3,3.64693E10,8.231787E8,2.372982E9,6.416093E10,-8.160024E8,1.2659503E9,4.2020307E10,4.507964E10,-1.279017E8,4.5294203E10,5.616637E10,-4.7610896E8,-2.0537546E8,1.911483E8,9.191015E6,4.895491E10,5.750759E10,-2.2549778E7,-2.84538E8,-8.4883336E7,3.9670272E6],"split_indices":[2,7,4,11,0,0,0,8,0,0,3,3,0,2,3,0,0,0,0,0,0,0,0,0,0],"split_type":[0,0,0,0,0,0,0,0,0,0,0,0,0,0,0,0,0,0,0,0,0,0,0,0,0],"sum_hessian":[4.6E1,4E1,6E0,2E1,2E1,3E0,3E0,1.2E1,8E0,1E0,1.9E1,9E0,3E0,4E0,1.5E1,5E0,4E0,2E0,2E0,8E0,7E0,2E0,6E0,4E0,3E0],"tree_param":{"num_deleted":"0","num_feature":"15","num_nodes":"25","size_leaf_vector":"1"}},{"base_weights":[7.478153E8,-5.1452933E9,3.515776E10,-1.0698544E10,6.5297165E8,1.9703442E9,2.4157594E8,-6.4859233E9,-7.7973574E8,1.2343016E9,-1.7829829E9,-7.446857E9,-1.23105384E8,2.323936E9,-2.9549586E9,-4.56271E8,-1.9716051E8,1.847767E8,8.884634E6,-4.381776E9,-9.804191E8,-1.0065787E8,-3.41963E8,-8.148808E7,3.8181888E6],"categories":[],"categories_nodes":[],"categories_segments":[],"categories_sizes":[],"default_left":[0,0,0,0,0,0,0,0,0,0,0,0,0,0,0,0,0,0,0,0,0,0,0,0,0],"id":17,"left_children":[1,3,5,7,9,-1,-1,11,-1,-1,13,15,-1,17,19,-1,-1,-1,-1,21,23,-1,-1,-1,-1],"loss_changes":[9.71163E21,1.327154E21,7.116245E20,3.3199354E20,1.273427E21,0E0,0E0,3.193112E19,0E0,0E0,1.0313131E20,2.2827445E19,0E0,1.4062248E19,4.0780957E19,0E0,0E0,0E0,0E0,3.861907E19,5.6141663E18,0E0,0E0,0E0,0E0],"parents":[2147483647,0,0,1,1,2,2,3,3,4,4,7,7,10,10,11,11,13,13,14,14,19,19,20,20],"right_children":[2,4,6,8,10,-1,-1,12,-1,-1,14,16,-1,18,20,-1,-1,-1,-1,22,24,-1,-1,-1,-1],"split_conditions":[8.50362E10,3.5622756E10,1.8932621E11,2.023E3,3.64693E10,1.9703442E9,2.4157594E8,6.416093E10,-7.7973574E8,1.2343016E9,4.2020307E10,4.507964E10,-1.23105384E8,4.5294203E10,5.616637E10,-4.56271E8,-1.9716051E8,1.847767E8,8.884634E6,4.3715453E10,5.750759E10,-1.0065787E8,-3.41963E8,-8.148808E7,3.8181888E6],"split_indices":[2,7,2,11,0,0,0,8,0,0,3,3,0,2,3,0,0,0,0,9,0,0,0,0,0],"split_type":[0,0,0,0,0,0,0,0,0,0,0,0,0,0,0,0,0,0,0,0,0,0,0,0,0],"sum_hessian":[4.6E1,4E1,6E0,2E1,2E1,5E0,1E0,1.2E1,8E0,1E0,1.9E1,9E0,3E0,4E0,1.5E1,5E0,4E0,2E0,2E0,8E0,7E0,5E0,3E0,4E0,3E0],"tree_param":{"num_deleted":"0","num_feature":"15","num_nodes":"25","size_leaf_vector":"1"}},{"base_weights":[7.4368646E8,-4.903848E9,3.3715862E10,-1.0237726E10,6.635464E8,7.40031E8,2.2101071E9,-6.221361E9,-7.450808E8,1.203444E9,-1.7101642E9,-7.139858E9,-1.18488936E8,2.2464724E9,-2.8397279E9,-4.3725978E8,-1.8927408E8,1.7861755E8,8.588493E6,-4.2118666E9,-9.4110566E8,-9.6463736E7,-3.2913942E8,-7.822848E7,3.6750338E6],"categories":[],"categories_nodes":[],"categories_segments":[],"categories_sizes":[],"default_left":[0,0,0,0,0,0,0,0,0,0,0,0,0,0,0,0,0,0,0,0,0,0,0,0,0],"id":18,"left_children":[1,3,5,7,9,-1,-1,11,-1,-1,13,15,-1,17,19,-1,-1,-1,-1,21,23,-1,-1,-1,-1],"loss_changes":[8.9172776E21,1.224321E21,7.342342E20,3.0066144E20,1.2078688E21,0E0,0E0,2.9069715E19,0E0,0E0,9.576484E19,2.0744319E19,0E0,1.3140395E19,3.7718975E19,0E0,0E0,0E0,0E0,3.6006613E19,5.175562E18,0E0,0E0,0E0,0E0],"parents":[2147483647,0,0,1,1,2,2,3,3,4,4,7,7,10,10,11,11,13,13,14,14,19,19,20,20],"right_children":[2,4,6,8,10,-1,-1,12,-1,-1,14,16,-1,18,20,-1,-1,-1,-1,22,24,-1,-1,-1,-1],"split_conditions":[8.50362E10,3.5622756E10,8.7802085E10,2.023E3,3.64693E10,7.40031E8,2.2101071E9,6.416093E10,-7.450808E8,1.203444E9,4.2020307E10,4.507964E10,-1.18488936E8,4.5294203E10,5.616637E10,-4.3725978E8,-1.8927408E8,1.7861755E8,8.588493E6,4.3715453E10,5.750759E10,-9.6463736E7,-3.2913942E8,-7.822848E7,3.6750338E6],"split_indices":[2,7,4,11,0,0,0,8,0,0,3,3,0,2,3,0,0,0,0,9,0,0,0,0,0],"split_type":[0,0,0,0,0,0,0,0,0,0,0,0,0,0,0,0,0,0,0,0,0,0,0,0,0],"sum_hessian":[4.6E1,4E1,6E0,2E1,2E1,3E0,3E0,1.2E1,8E0,1E0,1.9E1,9E0,3E0,4E0,1.5E1,5E0,4E0,2E0,2E0,8E0,7E0,5E0,3E0,4E0,3E0],"tree_param":{"num_deleted":"0","num_feature":"15","num_nodes":"25","size_leaf_vector":"1"}},{"base_weights":[7.565131E8,-4.6732805E9,3.2451516E10,-9.796797E9,6.727736E8,1.4245595E10,2.1272282E9,-5.9676027E9,-7.119662E8,1.1733578E9,-1.6403032E9,8.050158E8,2.1703578E8,-6.845519E9,-1.1404559E8,2.1715894E9,-2.7290007E9,-4.190406E8,-1.817032E8,1.726636E8,8.3021825E6,-4.0485624E9,-9.033687E8,-9.244437E7,-3.1679674E8,-7.5099304E7,3.5372545E6],"categories":[],"categories_nodes":[],"categories_segments":[],"categories_sizes":[],"default_left":[0,0,0,0,0,0,0,0,0,0,0,0,0,0,0,0,0,0,0,0,0,0,0,0,0,0,0],"id":19,"left_children":[1,3,5,7,9,11,-1,13,-1,-1,15,-1,-1,17,-1,19,21,-1,-1,-1,-1,23,25,-1,-1,-1,-1],"loss_changes":[8.2402295E21,1.1296057E21,6.801995E20,2.7226286E20,1.1457215E21,3.596265E18,0E0,2.6461814E19,0E0,0E0,8.892623E19,0E0,0E0,1.884883E19,0E0,1.2278972E19,3.4887196E19,0E0,0E0,0E0,0E0,3.3568855E19,4.7712296E18,0E0,0E0,0E0,0E0],"parents":[2147483647,0,0,1,1,2,2,3,3,4,4,5,5,7,7,10,10,13,13,15,15,16,16,21,21,22,22],"right_children":[2,4,6,8,10,12,-1,14,-1,-1,16,-1,-1,18,-1,20,22,-1,-1,-1,-1,24,26,-1,-1,-1,-1],"split_conditions":[8.50362E10,3.5622756E10,8.7802085E10,2.023E3,3.64693E10,4.2020307E10,2.1272282E9,6.416093E10,-7.119662E8,1.1733578E9,4.2020307E10,8.050158E8,2.1703578E8,4.507964E10,-1.1404559E8,4.5294203E10,5.616637E10,-4.190406E8,-1.817032E8,1.726636E8,8.3021825E6,4.3715453E10,5.750759E10,-9.244437E7,-3.1679674E8,-7.5099304E7,3.5372545E6],"split_indices":[2,7,4,11,0,0,0,8,0,0,3,0,0,3,0,2,3,0,0,0,0,9,0,0,0,0,0],"split_type":[0,0,0,0,0,0,0,0,0,0,0,0,0,0,0,0,0,0,0,0,0,0,0,0,0,0,0],"sum_hessian":[4.6E1,4E1,6E0,2E1,2E1,3E0,3E0,1.2E1,8E0,1E0,1.9E1,2E0,1E0,9E0,3E0,4E0,1.5E1,5E0,4E0,2E0,2E0,8E0,7E0,5E0,3E0,4E0,3E0],"tree_param":{"num_deleted":"0","num_feature":"15","num_nodes":"27","size_leaf_vector":"1"}},{"base_weights":[7.7392237E8,-4.4531103E9,3.1278838E10,-9.374898E9,6.807308E8,1.3788826E10,2.0474572E9,-5.7242066E9,-6.8032326E8,1.1440239E9,-1.5732804E9,7.781818E8,2.1160981E8,-6.563317E9,-1.0976891E8,2.0992033E9,-2.6226015E9,-1.4805643E8,-3.842047E8,1.6690818E8,1.6050859E8,-3.8916065E9,-8.671457E8,2.5356288E6,9.502515E6,-2.2864374E8,3.8963508E7,-7.20953E7,3.404544E6],"categories":[],"categories_nodes":[],"categories_segments":[],"categories_sizes":[],"default_left":[0,0,0,0,0,0,0,0,0,0,0,0,0,0,0,0,0,0,0,0,0,0,0,0,0,0,0,0,0],"id":20,"left_children":[1,3,5,7,9,11,-1,13,-1,-1,15,-1,-1,17,-1,19,21,-1,-1,-1,23,25,27,-1,-1,-1,-1,-1,-1],"loss_changes":[7.633447E21,1.0423566E21,6.1929505E20,2.4652493E20,1.08680535E21,1.9764469E18,0E0,2.4085075E19,0E0,0E0,8.257767E19,0E0,0E0,1.7618856E19,0E0,1.1474026E19,3.2268327E19,0E0,0E0,0E0,9.275411E13,3.2202585E19,4.3984742E18,0E0,0E0,0E0,0E0,0E0,0E0],"parents":[2147483647,0,0,1,1,2,2,3,3,4,4,5,5,7,7,10,10,13,13,15,15,16,16,20,20,21,21,22,22],"right_children":[2,4,6,8,10,12,-1,14,-1,-1,16,-1,-1,18,-1,20,22,-1,-1,-1,24,26,28,-1,-1,-1,-1,-1,-1],"split_conditions":[8.50362E10,3.5622756E10,8.7802085E10,2.023E3,3.64693E10,4.2020307E10,2.0474572E9,6.416093E10,-6.8032326E8,1.1440239E9,4.2020307E10,7.781818E8,2.1160981E8,3E0,-1.0976891E8,4.5294203E10,5.616637E10,-1.4805643E8,-3.842047E8,1.6690818E8,5.84641E10,9.165717E10,5.750759E10,2.5356288E6,9.502515E6,-2.2864374E8,3.8963508E7,-7.20953E7,3.404544E6],"split_indices":[2,7,4,11,0,0,0,8,0,0,3,0,0,10,0,2,3,0,0,0,0,4,0,0,0,0,0,0,0],"split_type":[0,0,0,0,0,0,0,0,0,0,0,0,0,0,0,0,0,0,0,0,0,0,0,0,0,0,0,0,0],"sum_hessian":[4.6E1,4E1,6E0,2E1,2E1,3E0,3E0,1.2E1,8E0,1E0,1.9E1,2E0,1E0,9E0,3E0,4E0,1.5E1,3E0,6E0,2E0,2E0,8E0,7E0,1E0,1E0,7E0,1E0,4E0,3E0],"tree_param":{"num_deleted":"0","num_feature":"15","num_nodes":"29","size_leaf_vector":"1"}},{"base_weights":[7.9436454E8,-4.236741E9,3.0148788E10,-8.969122E9,6.9738906E8,1.3346832E10,1.9706774E9,-5.4873825E9,-6.500866E8,1.1154234E9,-1.4985882E9,7.522424E8,2.0631962E8,-6.288377E9,-1.05652584E8,2.0300325E9,-2.5076204E9,-3.85572E8,-1.661513E8,1.6134458E8,1.5649587E8,-3.7181025E9,-8.323753E8,2.4722432E6,9.264947E6,-4.52451E6,-2.3708181E8,-6.9211544E7,3.2769025E6],"categories":[],"categories_nodes":[],"categories_segments":[],"categories_sizes":[],"default_left":[0,0,0,0,0,0,0,0,0,0,0,0,0,0,0,0,0,0,0,0,0,0,0,0,0,0,0,0,0],"id":21,"left_children":[1,3,5,7,9,11,-1,13,-1,-1,15,-1,-1,17,-1,19,21,-1,-1,-1,23,25,27,-1,-1,-1,-1,-1,-1],"loss_changes":[7.068937E21,9.636124E20,5.636165E20,2.2350492E20,1.0300373E21,5.4493555E17,0E0,2.1848932E19,0E0,0E0,7.630039E19,0E0,0E0,1.6573528E19,0E0,1.0706802E19,2.9350812E19,0E0,0E0,0E0,8.811555E13,3.2987768E19,4.0548675E18,0E0,0E0,0E0,0E0,0E0,0E0],"parents":[2147483647,0,0,1,1,2,2,3,3,4,4,5,5,7,7,10,10,13,13,15,15,16,16,20,20,21,21,22,22],"right_children":[2,4,6,8,10,12,-1,14,-1,-1,16,-1,-1,18,-1,20,22,-1,-1,-1,24,26,28,-1,-1,-1,-1,-1,-1],"split_conditions":[8.50362E10,3.5622756E10,8.7802085E10,2.023E3,3.64693E10,4.2020307E10,1.9706774E9,6.416093E10,-6.500866E8,1.1154234E9,4.2020307E10,7.522424E8,2.0631962E8,4.507964E10,-1.05652584E8,4.5294203E10,5.616637E10,-3.85572E8,-1.661513E8,1.6134458E8,5.84641E10,4.895491E10,5.750759E10,2.4722432E6,9.264947E6,-4.52451E6,-2.3708181E8,-6.9211544E7,3.2769025E6],"split_indices":[2,7,4,11,0,0,0,8,0,0,3,0,0,3,0,2,3,0,0,0,0,0,0,0,0,0,0,0,0],"split_type":[0,0,0,0,0,0,0,0,0,0,0,0,0,0,0,0,0,0,0,0,0,0,0,0,0,0,0,0,0],"sum_hessian":[4.6E1,4E1,6E0,2E1,2E1,3E0,3E0,1.2E1,8E0,1E0,1.9E1,2E0,1E0,9E0,3E0,4E0,1.5E1,5E0,4E0,2E0,2E0,8E0,7E0,1E0,1E0,2E0,6E0,4E0,3E0],"tree_param":{"num_deleted":"0","num_feature":"15","num_nodes":"29","size_leaf_vector":"1"}},{"base_weights":[8.1002394E8,-4.0328673E9,2.9059813E10,-8.5829253E9,7.0923155E8,6.459566E8,1.896777E9,-5.263581E9,-6.211937E8,1.0875378E9,-1.4303823E9,-6.02913E9,-1.0169062E8,1.9631465E9,-2.4014612E9,-3.6950646E8,-1.5950528E8,1.559664E8,1.5258283E8,-3.559043E9,-7.9899904E8,2.4103938E6,9.033319E6,-7.529342E7,-2.8745222E8,-6.6443144E7,3.1540225E6],"categories":[],"categories_nodes":[],"categories_segments":[],"categories_sizes":[],"default_left":[0,0,0,0,0,0,0,0,0,0,0,0,0,0,0,0,0,0,0,0,0,0,0,0,0,0,0],"id":22,"left_children":[1,3,5,7,9,-1,-1,11,-1,-1,13,15,-1,17,19,-1,-1,-1,21,23,25,-1,-1,-1,-1,-1,-1],"loss_changes":[6.5472954E21,8.9073706E20,5.1272806E20,2.0234406E20,9.765474E20,0E0,0E0,1.9881E19,0E0,0E0,7.06221E19,1.5063802E19,0E0,9.990745E18,2.6836027E19,0E0,0E0,0E0,8.411264E13,3.181079E19,3.7381026E18,0E0,0E0,0E0,0E0,0E0,0E0],"parents":[2147483647,0,0,1,1,2,2,3,3,4,4,7,7,10,10,11,11,13,13,14,14,18,18,19,19,20,20],"right_children":[2,4,6,8,10,-1,-1,12,-1,-1,14,16,-1,18,20,-1,-1,-1,22,24,26,-1,-1,-1,-1,-1,-1],"split_conditions":[8.50362E10,3.5622756E10,8.7802085E10,2.023E3,3.64693E10,6.459566E8,1.896777E9,6.416093E10,-6.211937E8,1.0875378E9,4.2020307E10,4.507964E10,-1.0169062E8,4.5294203E10,5.616637E10,-3.6950646E8,-1.5950528E8,1.559664E8,5.84641E10,4.3715453E10,5.750759E10,2.4103938E6,9.033319E6,-7.529342E7,-2.8745222E8,-6.6443144E7,3.1540225E6],"split_indices":[2,7,4,11,0,0,0,8,0,0,3,3,0,2,3,0,0,0,0,9,0,0,0,0,0,0,0],"split_type":[0,0,0,0,0,0,0,0,0,0,0,0,0,0,0,0,0,0,0,0,0,0,0,0,0,0,0],"sum_hessian":[4.6E1,4E1,6E0,2E1,2E1,3E0,3E0,1.2E1,8E0,1E0,1.9E1,9E0,3E0,4E0,1.5E1,5E0,4E0,2E0,2E0,8E0,7E0,1E0,1E0,5E0,3E0,4E0,3E0],"tree_param":{"num_deleted":"0","num_feature":"15","num_nodes":"27","size_leaf_vector":"1"}},{"base_weights":[8.1462445E8,-3.84154E9,2.797007E10,-8.2133914E9,7.132417E8,1.6919124E9,4.433209E8,-5.0489165E9,-5.935851E8,1.0603494E9,-1.3717948E9,-5.7805737E9,-9.78772E7,1.8984714E9,-2.3080159E9,-1.3029212E8,-3.3844547E8,1.5076747E8,1.4876946E8,-3.421396E9,-7.6696115E8,2.3501825E6,8.807527E6,-7.215623E7,-2.7667274E8,-6.3785492E7,3.0357505E6],"categories":[],"categories_nodes":[],"categories_segments":[],"categories_sizes":[],"default_left":[0,0,0,0,0,0,0,0,0,0,0,0,0,0,0,0,0,0,0,0,0,0,0,0,0,0,0],"id":23,"left_children":[1,3,5,7,9,-1,-1,11,-1,-1,13,15,-1,17,19,-1,-1,-1,21,23,25,-1,-1,-1,-1,-1,-1],"loss_changes":[6.050139E21,8.222841E20,4.8470104E20,1.8316998E20,9.2642605E20,0E0,0E0,1.8087969E19,0E0,0E0,6.5615542E19,1.3738301E19,0E0,9.322427E18,2.4828398E19,0E0,0E0,0E0,7.965446E13,2.9618556E19,3.4460877E18,0E0,0E0,0E0,0E0,0E0,0E0],"parents":[2147483647,0,0,1,1,2,2,3,3,4,4,7,7,10,10,11,11,13,13,14,14,18,18,19,19,20,20],"right_children":[2,4,6,8,10,-1,-1,12,-1,-1,14,16,-1,18,20,-1,-1,-1,22,24,26,-1,-1,-1,-1,-1,-1],"split_conditions":[8.50362E10,3.5622756E10,1.7008604E11,2.023E3,3.64693E10,1.6919124E9,4.433209E8,6.416093E10,-5.935851E8,1.0603494E9,4.2020307E10,3E0,-9.78772E7,4.5294203E10,5.616637E10,-1.3029212E8,-3.3844547E8,1.5076747E8,5.84641E10,4.3715453E10,5.750759E10,2.3501825E6,8.807527E6,-7.215623E7,-2.7667274E8,-6.3785492E7,3.0357505E6],"split_indices":[2,7,3,11,0,0,0,8,0,0,3,10,0,2,3,0,0,0,0,9,0,0,0,0,0,0,0],"split_type":[0,0,0,0,0,0,0,0,0,0,0,0,0,0,0,0,0,0,0,0,0,0,0,0,0,0,0],"sum_hessian":[4.6E1,4E1,6E0,2E1,2E1,4E0,2E0,1.2E1,8E0,1E0,1.9E1,9E0,3E0,4E0,1.5E1,3E0,6E0,2E0,2E0,8E0,7E0,1E0,1E0,5E0,3E0,4E0,3E0],"tree_param":{"num_deleted":"0","num_feature":"15","num_nodes":"27","size_leaf_vector":"1"}},{"base_weights":[8.119304E8,-3.657939E9,2.6876602E10,-7.85797E9,7.162798E8,1.1790029E10,1.7622012E9,-4.8400563E9,-5.672035E8,1.03384064E9,-1.3155875E9,6.7004883E8,1.7392968E8,-5.5384187E9,-9.4206776E7,1.8359337E9,-2.2182136E9,-3.4000842E8,-1.4583178E8,2.9148393E9,1.4505029E8,-3.2890857E9,-7.362058E8,4.550451E7,1.7310843E8,2.2914048E6,8.587367E6,-1.9691173E8,4.7602588E7,-6.1234012E7,2.9219328E6],"categories":[],"categories_nodes":[],"categories_segments":[],"categories_sizes":[],"default_left":[0,0,0,0,0,0,0,0,0,0,0,0,0,0,0,0,0,0,0,0,0,0,0,0,0,0,0,0,0,0,0],"id":24,"left_children":[1,3,5,7,9,11,-1,13,-1,-1,15,-1,-1,17,-1,19,21,-1,-1,23,25,27,29,-1,-1,-1,-1,-1,-1,-1,-1],"loss_changes":[5.57408E21,7.588744E20,4.681216E20,1.6602999E20,8.7890245E20,6.940575E18,0E0,1.6400808E19,0E0,0E0,6.09654E19,0E0,0E0,1.324674E19,0E0,8.698718E18,2.2971208E19,0E0,0E0,1.4088702E17,7.596509E13,2.852756E19,3.176877E18,0E0,0E0,0E0,0E0,0E0,0E0,0E0,0E0],"parents":[2147483647,0,0,1,1,2,2,3,3,4,4,5,5,7,7,10,10,13,13,15,15,16,16,19,19,20,20,21,21,22,22],"right_children":[2,4,6,8,10,12,-1,14,-1,-1,16,-1,-1,18,-1,20,22,-1,-1,24,26,28,30,-1,-1,-1,-1,-1,-1,-1,-1],"split_conditions":[8.50362E10,3.5622756E10,8.7802085E10,2.023E3,3.64693E10,4.2020307E10,1.7622012E9,6.416093E10,-5.672035E8,1.03384064E9,4.2020307E10,6.7004883E8,1.7392968E8,4.507964E10,-9.4206776E7,4.5294203E10,5.616637E10,-3.4000842E8,-1.4583178E8,4.646198E10,5.84641E10,9.165717E10,5.750759E10,4.550451E7,1.7310843E8,2.2914048E6,8.587367E6,-1.9691173E8,4.7602588E7,-6.1234012E7,2.9219328E6],"split_indices":[2,7,4,11,0,0,0,8,0,0,3,0,0,3,0,2,3,0,0,0,0,4,0,0,0,0,0,0,0,0,0],"split_type":[0,0,0,0,0,0,0,0,0,0,0,0,0,0,0,0,0,0,0,0,0,0,0,0,0,0,0,0,0,0,0],"sum_hessian":[4.6E1,4E1,6E0,2E1,2E1,3E0,3E0,1.2E1,8E0,1E0,1.9E1,2E0,1E0,9E0,3E0,4E0,1.5E1,5E0,4E0,2E0,2E0,8E0,7E0,1E0,1E0,1E0,1E0,7E0,1E0,4E0,3E0],"tree_param":{"num_deleted":"0","num_feature":"15","num_nodes":"31","size_leaf_vector":"1"}},{"base_weights":[8.248371E8,-3.4772744E9,2.5905084E10,-7.5197025E9,7.307379E8,1.1411522E10,1.6961189E9,-4.6426726E9,-5.419945E8,1.0079947E9,-1.2487145E9,6.4771386E8,1.6958136E8,-5.3100826E9,-9.0673976E7,1.2440277E8,-3.3239409E9,-3.2584138E8,-1.3999858E8,-1.7376584E8,7.139891E8,-2.5891333E8,-5.8784604E7,-3.5676332E7,9.1778776E7],"categories":[],"categories_nodes":[],"categories_segments":[],"categories_sizes":[],"default_left":[0,0,0,0,0,0,0,0,0,0,0,0,0,0,0,0,0,0,0,0,0,0,0,0,0],"id":25,"left_children":[1,3,5,7,9,11,-1,13,-1,-1,15,-1,-1,17,-1,19,21,-1,-1,-1,23,-1,-1,-1,-1],"loss_changes":[5.161286E21,7.02929E20,4.2628822E20,1.5027175E20,8.328148E20,5.5549087E18,0E0,1.4917294E19,0E0,0E0,5.740409E19,0E0,0E0,1.2043734E19,0E0,3.007183E19,2.5780372E19,0E0,0E0,0E0,2.0522719E19,0E0,0E0,0E0,0E0],"parents":[2147483647,0,0,1,1,2,2,3,3,4,4,5,5,7,7,10,10,13,13,15,15,16,16,20,20],"right_children":[2,4,6,8,10,12,-1,14,-1,-1,16,-1,-1,18,-1,20,22,-1,-1,-1,24,-1,-1,-1,-1],"split_conditions":[8.50362E10,3.5622756E10,8.7802085E10,2.023E3,3.64693E10,4.2020307E10,1.6961189E9,6.416093E10,-5.419945E8,1.0079947E9,4.3715453E10,6.4771386E8,1.6958136E8,4.507964E10,-9.0673976E7,3.4425086E10,5.616637E10,-3.2584138E8,-1.3999858E8,-1.7376584E8,5.339017E9,-2.5891333E8,-5.8784604E7,-3.5676332E7,9.1778776E7],"split_indices":[2,7,4,11,0,0,0,8,0,0,9,0,0,3,0,1,3,0,0,0,5,0,0,0,0],"split_type":[0,0,0,0,0,0,0,0,0,0,0,0,0,0,0,0,0,0,0,0,0,0,0,0,0],"sum_hessian":[4.6E1,4E1,6E0,2E1,2E1,3E0,3E0,1.2E1,8E0,1E0,1.9E1,2E0,1E0,9E0,3E0,1.2E1,7E0,5E0,4E0,1E0,1.1E1,3E0,4E0,5E0,6E0],"tree_param":{"num_deleted":"0","num_feature":"15","num_nodes":"25","size_leaf_vector":"1"}},{"base_weights":[8.258829E8,-3.316237E9,2.4968888E10,-7.1960274E9,7.2146925E8,1.1045267E10,1.6325144E9,-4.4533484E9,-5.1790582E8,9.827949E8,-1.208047E9,6.261233E8,1.6534181E8,-5.091163E9,-8.727373E7,1.7421025E9,-2.0544658E9,-6.2452936E9,-1.343987E8,2.7807813E9,6.1361495E6,-8.1020064E8,-3.197456E9,-9.253243E7,-3.3770467E8,4.2072372E7,1.6648622E8,-9.170575E7,4.641106E7,-2.4920413E8,-5.6433172E7],"categories":[],"categories_nodes":[],"categories_segments":[],"categories_sizes":[],"default_left":[0,0,0,0,0,0,0,0,0,0,0,0,0,0,0,0,0,0,0,0,0,0,0,0,0,0,0,0,0,0,0],"id":26,"left_children":[1,3,5,7,9,11,-1,13,-1,-1,15,-1,-1,17,-1,19,21,23,-1,25,-1,27,29,-1,-1,-1,-1,-1,-1,-1,-1],"loss_changes":[4.7829545E21,6.4747534E20,3.8803887E20,1.3599618E20,7.909652E20,4.3150466E18,0E0,1.3566074E19,0E0,0E0,5.3520334E19,0E0,0E0,1.0948761E19,0E0,8.06881E18,2.0164344E19,9.165001E17,0E0,3.919649E17,0E0,1.7722421E19,2.3943924E19,0E0,0E0,0E0,0E0,0E0,0E0,0E0,0E0],"parents":[2147483647,0,0,1,1,2,2,3,3,4,4,5,5,7,7,10,10,13,13,15,15,16,16,17,17,19,19,21,21,22,22],"right_children":[2,4,6,8,10,12,-1,14,-1,-1,16,-1,-1,18,-1,20,22,24,-1,26,-1,28,30,-1,-1,-1,-1,-1,-1,-1,-1],"split_conditions":[8.50362E10,3.5622756E10,8.7802085E10,2.023E3,3.64693E10,4.2020307E10,1.6325144E9,6.416093E10,-5.1790582E8,9.827949E8,4.2020307E10,6.261233E8,1.6534181E8,4.507964E10,-8.727373E7,4.5294203E10,4.3715453E10,3.3464582E10,-1.343987E8,4.646198E10,6.1361495E6,8.076111E10,5.616637E10,-9.253243E7,-3.3770467E8,4.2072372E7,1.6648622E8,-9.170575E7,4.641106E7,-2.4920413E8,-5.6433172E7],"split_indices":[2,7,4,11,0,0,0,8,0,0,3,0,0,3,0,2,9,0,0,0,0,4,3,0,0,0,0,0,0,0,0],"split_type":[0,0,0,0,0,0,0,0,0,0,0,0,0,0,0,0,0,0,0,0,0,0,0,0,0,0,0,0,0,0,0],"sum_hessian":[4.6E1,4E1,6E0,2E1,2E1,3E0,3E0,1.2E1,8E0,1E0,1.9E1,2E0,1E0,9E0,3E0,4E0,1.5E1,5E0,4E0,2E0,2E0,8E0,7E0,1E0,4E0,1E0,1E0,5E0,3E0,3E0,4E0],"tree_param":{"num_deleted":"0","num_feature":"15","num_nodes":"31","size_leaf_vector":"1"}},{"base_weights":[8.2928474E8,-3.1583096E9,2.4066726E10,-6.8919316E9,7.257082E8,1.0690871E10,1.571295E9,-4.2808287E9,-4.9488774E8,9.58225E8,-1.1544563E9,6.0525254E8,1.6120832E8,-4.8930693E9,-8.400098E7,1.6979361E9,-1.9736755E9,-6.0047365E9,-1.29022776E8,2.7112612E9,5.9316225E6,-2.944755E9,-6.345016E8,-9.021911E7,-3.2419654E8,4.102052E7,1.6232408E8,6.9248345E6,-1.9227347E8,-5.4175784E7,4.269568E6],"categories":[],"categories_nodes":[],"categories_segments":[],"categories_sizes":[],"default_left":[0,0,0,0,0,0,0,0,0,0,0,0,0,0,0,0,0,0,0,0,0,0,0,0,0,0,0,0,0,0,0],"id":27,"left_children":[1,3,5,7,9,11,-1,13,-1,-1,15,-1,-1,17,-1,19,21,23,-1,25,-1,27,29,-1,-1,-1,-1,-1,-1,-1,-1],"loss_changes":[4.4310998E21,5.9956126E20,3.5307658E20,1.2244823E20,7.501518E20,3.2083925E18,0E0,1.2479721E19,0E0,0E0,5.008587E19,0E0,0E0,1.0213619E19,0E0,7.6800953E18,1.8938661E19,3.7722925E17,0E0,3.726179E17,0E0,2.5526737E19,2.6784595E18,0E0,0E0,0E0,0E0,0E0,0E0,0E0,0E0],"parents":[2147483647,0,0,1,1,2,2,3,3,4,4,5,5,7,7,10,10,13,13,15,15,16,16,17,17,19,19,21,21,22,22],"right_children":[2,4,6,8,10,12,-1,14,-1,-1,16,-1,-1,18,-1,20,22,24,-1,26,-1,28,30,-1,-1,-1,-1,-1,-1,-1,-1],"split_conditions":[8.50362E10,3.5622756E10,8.7802085E10,2.023E3,3.64693E10,4.2020307E10,1.571295E9,6.416093E10,-4.9488774E8,9.58225E8,4.2020307E10,6.0525254E8,1.6120832E8,4.507964E10,-8.400098E7,4.5294203E10,5.616637E10,3.3464582E10,-1.29022776E8,4.646198E10,5.9316225E6,4.895491E10,5.750759E10,-9.021911E7,-3.2419654E8,4.102052E7,1.6232408E8,6.9248345E6,-1.9227347E8,-5.4175784E7,4.269568E6],"split_indices":[2,7,4,11,0,0,0,8,0,0,3,0,0,3,0,2,3,0,0,0,0,0,0,0,0,0,0,0,0,0,0],"split_type":[0,0,0,0,0,0,0,0,0,0,0,0,0,0,0,0,0,0,0,0,0,0,0,0,0,0,0,0,0,0,0],"sum_hessian":[4.6E1,4E1,6E0,2E1,2E1,3E0,3E0,1.2E1,8E0,1E0,1.9E1,2E0,1E0,9E0,3E0,4E0,1.5E1,5E0,4E0,2E0,2E0,8E0,7E0,1E0,4E0,1E0,1E0,2E0,6E0,4E0,3E0],"tree_param":{"num_deleted":"0","num_feature":"15","num_nodes":"31","size_leaf_vector":"1"}},{"base_weights":[8.335164E8,-3.00503E9,2.3197356E10,-6.6007793E9,7.338161E8,1.0347944E10,1.5123716E9,-4.115051E9,-4.7289277E8,9.342694E8,-1.0980317E9,5.8507757E8,1.5717806E8,-4.702759E9,-8.085094E7,1.4247117E8,-2.976595E9,-1.0480927E8,-2.7602032E8,-1.6232222E8,6.9541786E8,-2.3264866E8,-5.200867E7,-2.9760102E7,8.51159E7],"categories":[],"categories_nodes":[],"categories_segments":[],"categories_sizes":[],"default_left":[0,0,0,0,0,0,0,0,0,0,0,0,0,0,0,0,0,0,0,0,0,0,0,0,0],"id":28,"left_children":[1,3,5,7,9,11,-1,13,-1,-1,15,-1,-1,17,-1,19,21,-1,-1,-1,23,-1,-1,-1,-1],"loss_changes":[4.1044065E21,5.5604576E20,3.2112636E20,1.10220675E20,7.110926E20,2.2230894E18,0E0,1.1481012E19,0E0,0E0,4.703134E19,0E0,0E0,9.740793E18,0E0,2.66182E19,2.11295E19,0E0,0E0,0E0,1.660753E19,0E0,0E0,0E0,0E0],"parents":[2147483647,0,0,1,1,2,2,3,3,4,4,5,5,7,7,10,10,13,13,15,15,16,16,20,20],"right_children":[2,4,6,8,10,12,-1,14,-1,-1,16,-1,-1,18,-1,20,22,-1,-1,-1,24,-1,-1,-1,-1],"split_conditions":[8.50362E10,3.5622756E10,8.7802085E10,2.023E3,3.64693E10,4.2020307E10,1.5123716E9,6.416093E10,-4.7289277E8,9.342694E8,4.3715453E10,5.8507757E8,1.5717806E8,3E0,-8.085094E7,3.4425086E10,5.616637E10,-1.0480927E8,-2.7602032E8,-1.6232222E8,5.339017E9,-2.3264866E8,-5.200867E7,-2.9760102E7,8.51159E7],"split_indices":[2,7,4,11,0,0,0,8,0,0,9,0,0,10,0,1,3,0,0,0,5,0,0,0,0],"split_type":[0,0,0,0,0,0,0,0,0,0,0,0,0,0,0,0,0,0,0,0,0,0,0,0,0],"sum_hessian":[4.6E1,4E1,6E0,2E1,2E1,3E0,3E0,1.2E1,8E0,1E0,1.9E1,2E0,1E0,9E0,3E0,1.2E1,7E0,3E0,6E0,1E0,1.1E1,3E0,4E0,5E0,6E0],"tree_param":{"num_deleted":"0","num_feature":"15","num_nodes":"25","size_leaf_vector":"1"}},{"base_weights":[8.314724E8,-2.8643374E9,2.2359577E10,-6.3152435E9,7.229656E8,1.0016109E10,1.4556575E9,-3.944812E9,-4.518753E8,9.109125E8,-1.0627111E9,5.6557485E8,1.5324856E8,-4.5057034E9,-1.5563807E9,2.5867359E9,-1.6119127E9,-5.54355E9,-1.1795735E8,-8.809103E7,-2.3501518E7,3.786711E7,1.561381E8,-5.552404E8,-2.8633482E9,-8.106312E7,-3.0018774E8,-1.5826422E8,1.114624E6,-2.2392434E8,-4.9928396E7],"categories":[],"categories_nodes":[],"categories_segments":[],"categories_sizes":[],"default_left":[0,0,0,0,0,0,0,0,0,0,0,0,0,0,0,0,0,0,0,0,0,0,0,0,0,0,0,0,0,0,0],"id":29,"left_children":[1,3,5,7,9,11,-1,13,-1,-1,15,-1,-1,17,19,21,23,25,-1,-1,-1,-1,-1,27,29,-1,-1,-1,-1,-1,-1],"loss_changes":[3.803543E21,5.1212293E20,2.9193712E20,9.9860426E19,6.754201E20,1.3483003E18,0E0,1.0402875E19,0E0,0E0,4.425524E19,0E0,0E0,9.199904E18,6.4609502E16,5.76806E17,2.2212585E19,1.0966793E18,0E0,0E0,0E0,0E0,0E0,1.6651809E19,1.9622953E19,0E0,0E0,0E0,0E0,0E0,0E0],"parents":[2147483647,0,0,1,1,2,2,3,3,4,4,5,5,7,7,10,10,13,13,14,14,15,15,16,16,17,17,23,23,24,24],"right_children":[2,4,6,8,10,12,-1,14,-1,-1,16,-1,-1,18,20,22,24,26,-1,-1,-1,-1,-1,28,30,-1,-1,-1,-1,-1,-1],"split_conditions":[8.50362E10,3.5622756E10,8.7802085E10,2.023E3,3.64693E10,4.2020307E10,1.4556575E9,6.416093E10,-4.518753E8,9.109125E8,3.7594784E10,5.6557485E8,1.5324856E8,4.507964E10,4.8862974E10,4.646198E10,4.3715453E10,3.3464582E10,-1.1795735E8,-8.809103E7,-2.3501518E7,3.786711E7,1.561381E8,3.4425086E10,5.616637E10,-8.106312E7,-3.0018774E8,-1.5826422E8,1.114624E6,-2.2392434E8,-4.9928396E7],"split_indices":[2,7,4,11,0,0,0,8,0,0,7,0,0,3,0,0,9,0,0,0,0,0,0,1,3,0,0,0,0,0,0],"split_type":[0,0,0,0,0,0,0,0,0,0,0,0,0,0,0,0,0,0,0,0,0,0,0,0,0,0,0,0,0,0,0],"sum_hessian":[4.6E1,4E1,6E0,2E1,2E1,3E0,3E0,1.2E1,8E0,1E0,1.9E1,2E0,1E0,9E0,3E0,2E0,1.7E1,5E0,4E0,2E0,1E0,1E0,1E0,1E1,7E0,1E0,4E0,1E0,9E0,3E0,4E0],"tree_param":{"num_deleted":"0","num_feature":"15","num_nodes":"31","size_leaf_vector":"1"}},{"base_weights":[8.278928E8,-2.7306022E9,2.1552237E10,-6.050085E9,7.1890925E8,1.2983332E9,3.5053885E8,-3.794556E9,-4.3179197E8,8.881398E8,-1.02142483E9,-4.3303393E9,-1.5064586E9,2.522067E9,-1.5552609E9,-5.3299144E9,-1.1323908E8,-8.5154616E7,-2.2913946E7,3.6920424E7,1.5223461E8,-5.4176416E8,-2.7544115E9,-7.903652E7,-2.8818026E8,-1.5430758E8,1.064489E6,-2.1552717E8,-4.7931188E7],"categories":[],"categories_nodes":[],"categories_segments":[],"categories_sizes":[],"default_left":[0,0,0,0,0,0,0,0,0,0,0,0,0,0,0,0,0,0,0,0,0,0,0,0,0,0,0,0,0],"id":30,"left_children":[1,3,5,7,9,-1,-1,11,-1,-1,13,15,17,19,21,23,-1,-1,-1,-1,-1,25,27,-1,-1,-1,-1,-1,-1],"loss_changes":[3.524982E21,4.738238E20,2.6729877E20,8.9707975E19,6.410465E20,0E0,0E0,9.413526E18,0E0,0E0,4.175535E19,8.575698E18,4.3938684E16,5.4832645E17,2.0383798E19,6.45211E17,0E0,0E0,0E0,0E0,0E0,1.5824605E19,1.8223666E19,0E0,0E0,0E0,0E0,0E0,0E0],"parents":[2147483647,0,0,1,1,2,2,3,3,4,4,7,7,10,10,11,11,12,12,13,13,14,14,15,15,21,21,22,22],"right_children":[2,4,6,8,10,-1,-1,12,-1,-1,14,16,18,20,22,24,-1,-1,-1,-1,-1,26,28,-1,-1,-1,-1,-1,-1],"split_conditions":[8.50362E10,3.5622756E10,1.7008604E11,2.023E3,3.64693E10,1.2983332E9,3.5053885E8,6.416093E10,-4.3179197E8,8.881398E8,3.7594784E10,4.507964E10,4.8862974E10,4.646198E10,4.3715453E10,3.3464582E10,-1.1323908E8,-8.5154616E7,-2.2913946E7,3.6920424E7,1.5223461E8,3.4425086E10,5.616637E10,-7.903652E7,-2.8818026E8,-1.5430758E8,1.064489E6,-2.1552717E8,-4.7931188E7],"split_indices":[2,7,3,11,0,0,0,8,0,0,7,3,0,0,9,0,0,0,0,0,0,1,3,0,0,0,0,0,0],"split_type":[0,0,0,0,0,0,0,0,0,0,0,0,0,0,0,0,0,0,0,0,0,0,0,0,0,0,0,0,0],"sum_hessian":[4.6E1,4E1,6E0,2E1,2E1,4E0,2E0,1.2E1,8E0,1E0,1.9E1,9E0,3E0,2E0,1.7E1,5E0,4E0,2E0,1E0,1E0,1E0,1E1,7E0,1E0,4E0,1E0,9E0,3E0,4E0],"tree_param":{"num_deleted":"0","num_feature":"15","num_nodes":"29","size_leaf_vector":"1"}},{"base_weights":[8.139271E8,-2.6028457E9,2.0710177E10,-5.651006E9,8.80273E8,9.195158E9,1.3523827E9,-3.5752794E9,-4.126012E8,8.659364E8,-8.964208E8,5.1924118E8,1.4065398E8,-4.3444403E9,-6.6095104E7,-2.4785539E9,4.7954442E8,-1.0137708E8,-5.047748E9,-4.096494E9,-3.6490282E8,1.1688159E9,-8.740591E7,-1.1047991E8,-2.8705443E8,-4.5109864E7,-2.3347595E8,-3.3774388E7,3.3658198E6,-2.9236428E6,1.0811707E8],"categories":[],"categories_nodes":[],"categories_segments":[],"categories_sizes":[],"default_left":[0,0,0,0,0,0,0,0,0,0,0,0,0,0,0,0,0,0,0,0,0,0,0,0,0,0,0,0,0,0,0],"id":31,"left_children":[1,3,5,7,9,11,-1,13,-1,-1,15,-1,-1,17,-1,19,21,-1,23,25,27,29,-1,-1,-1,-1,-1,-1,-1,-1,-1],"loss_changes":[3.249011E21,4.4027573E20,2.6212554E20,8.927464E19,5.996469E20,1.1568622E18,0E0,1.8522003E19,0E0,0E0,4.255081E19,0E0,0E0,6.06042E18,0E0,2.928302E19,1.8933335E19,0E0,1.08911465E18,4.939235E18,7.1667535E17,1.1100523E19,0E0,0E0,0E0,0E0,0E0,0E0,0E0,0E0,0E0],"parents":[2147483647,0,0,1,1,2,2,3,3,4,4,5,5,7,7,10,10,13,13,15,15,16,16,18,18,19,19,20,20,21,21],"right_children":[2,4,6,8,10,12,-1,14,-1,-1,16,-1,-1,18,-1,20,22,-1,24,26,28,30,-1,-1,-1,-1,-1,-1,-1,-1,-1],"split_conditions":[8.50362E10,5.5718593E10,8.7802085E10,2.024E3,3.64693E10,4.2020307E10,1.3523827E9,4.8365294E10,-4.126012E8,8.659364E8,5.28812E10,5.1924118E8,1.4065398E8,3.64693E10,-6.6095104E7,4.7848255E10,7.170296E10,-1.0137708E8,4.507964E10,4.8862974E10,5.5676076E10,3.656817E9,-8.740591E7,-1.1047991E8,-2.8705443E8,-4.5109864E7,-2.3347595E8,-3.3774388E7,3.3658198E6,-2.9236428E6,1.0811707E8],"split_indices":[2,4,4,11,0,0,0,4,0,0,1,0,0,2,0,2,0,0,0,0,0,5,0,0,0,0,0,0,0,0,0],"split_type":[0,0,0,0,0,0,0,0,0,0,0,0,0,0,0,0,0,0,0,0,0,0,0,0,0,0,0,0,0,0,0],"sum_hessian":[4.6E1,4E1,6E0,2.1E1,1.9E1,3E0,3E0,1.3E1,8E0,1E0,1.8E1,2E0,1E0,9E0,4E0,8E0,1E1,3E0,6E0,4E0,4E0,8E0,2E0,2E0,4E0,1E0,3E0,2E0,2E0,4E0,4E0],"tree_param":{"num_deleted":"0","num_feature":"15","num_nodes":"31","size_leaf_vector":"1"}},{"base_weights":[8.0747296E8,-2.4825298E9,1.9962137E10,-5.4128927E9,8.649957E8,8.900372E9,1.3016682E9,-3.436873E9,-3.9426342E8,8.44288E8,-8.669266E8,5.0193312E8,1.3713757E8,-4.1771087E9,-6.345134E7,-2.3889587E9,4.5718397E8,-9.757548E7,-4.85215E9,-3.9473864E9,-3.5273933E8,1.1220632E9,-8.4492424E7,-1.0679719E8,-2.755722E8,-4.3982132E7,-2.2472059E8,-3.2648534E7,3.2535895E6,-2.8066612E6,1.0379235E8],"categories":[],"categories_nodes":[],"categories_segments":[],"categories_sizes":[],"default_left":[0,0,0,0,0,0,0,0,0,0,0,0,0,0,0,0,0,0,0,0,0,0,0,0,0,0,0,0,0,0,0],"id":32,"left_children":[1,3,5,7,9,11,-1,13,-1,-1,15,-1,-1,17,-1,19,21,-1,23,25,27,29,-1,-1,-1,-1,-1,-1,-1,-1,-1],"loss_changes":[3.0114448E21,4.068701E20,2.3840283E20,8.037954E19,5.6957313E20,5.0306615E17,0E0,1.7165171E19,0E0,0E0,3.938363E19,0E0,0E0,5.55468E18,0E0,2.7167305E19,1.759881E19,0E0,7.6332495E17,4.437189E18,6.696899E17,1.0230225E19,0E0,0E0,0E0,0E0,0E0,0E0,0E0,0E0,0E0],"parents":[2147483647,0,0,1,1,2,2,3,3,4,4,5,5,7,7,10,10,13,13,15,15,16,16,18,18,19,19,20,20,21,21],"right_children":[2,4,6,8,10,12,-1,14,-1,-1,16,-1,-1,18,-1,20,22,-1,24,26,28,30,-1,-1,-1,-1,-1,-1,-1,-1,-1],"split_conditions":[8.50362E10,5.5718593E10,8.7802085E10,2.024E3,3.64693E10,4.2020307E10,1.3016682E9,4.8365294E10,-3.9426342E8,8.44288E8,5.28812E10,5.0193312E8,1.3713757E8,3.64693E10,-6.345134E7,4.7848255E10,7.170296E10,-9.757548E7,4.507964E10,4.8862974E10,5.5676076E10,3.656817E9,-8.4492424E7,-1.0679719E8,-2.755722E8,-4.3982132E7,-2.2472059E8,-3.2648534E7,3.2535895E6,-2.8066612E6,1.0379235E8],"split_indices":[2,4,4,11,0,0,0,4,0,0,1,0,0,2,0,2,0,0,0,0,0,5,0,0,0,0,0,0,0,0,0],"split_type":[0,0,0,0,0,0,0,0,0,0,0,0,0,0,0,0,0,0,0,0,0,0,0,0,0,0,0,0,0,0,0],"sum_hessian":[4.6E1,4E1,6E0,2.1E1,1.9E1,3E0,3E0,1.3E1,8E0,1E0,1.8E1,2E0,1E0,9E0,4E0,8E0,1E1,3E0,6E0,4E0,4E0,8E0,2E0,2E0,4E0,1E0,3E0,2E0,2E0,4E0,4E0],"tree_param":{"num_deleted":"0","num_feature":"15","num_nodes":"31","size_leaf_vector":"1"}},{"base_weights":[8.0041254E8,-2.3675497E9,1.9241275E10,-5.1848694E9,8.498797E8,4.3075616E8,1.2528554E9,-3.3038436E9,-3.7674064E8,8.2318074E8,-8.3840186E8,-4.0162483E9,-6.0913292E7,-2.302633E9,4.358237E8,-9.391642E7,-4.664167E9,-3.8037586E9,-3.4098054E8,1.0771802E9,-8.167602E7,-1.03237224E8,-2.6454936E8,-4.288256E7,-2.1629363E8,-3.1560228E7,3.1451818E6,-2.6944308E6,9.964065E7],"categories":[],"categories_nodes":[],"categories_segments":[],"categories_sizes":[],"default_left":[0,0,0,0,0,0,0,0,0,0,0,0,0,0,0,0,0,0,0,0,0,0,0,0,0,0,0,0,0],"id":33,"left_children":[1,3,5,7,9,-1,-1,11,-1,-1,13,15,-1,17,19,-1,21,23,25,27,-1,-1,-1,-1,-1,-1,-1,-1,-1],"loss_changes":[2.7912925E21,3.760521E20,2.1672926E20,7.235286E19,5.410107E20,0E0,0E0,1.5907998E19,0E0,0E0,3.6452997E19,5.0911435E18,0E0,2.520517E19,1.6358654E19,0E0,4.8104074E17,3.980927E18,6.257895E17,9.428181E18,0E0,0E0,0E0,0E0,0E0,0E0,0E0,0E0,0E0],"parents":[2147483647,0,0,1,1,2,2,3,3,4,4,7,7,10,10,11,11,13,13,14,14,16,16,17,17,18,18,19,19],"right_children":[2,4,6,8,10,-1,-1,12,-1,-1,14,16,-1,18,20,-1,22,24,26,28,-1,-1,-1,-1,-1,-1,-1,-1,-1],"split_conditions":[8.50362E10,5.5718593E10,8.7802085E10,2.024E3,3.64693E10,4.3075616E8,1.2528554E9,4.8365294E10,-3.7674064E8,8.2318074E8,5.28812E10,3.64693E10,-6.0913292E7,4.7848255E10,7.170296E10,-9.391642E7,4.507964E10,4.8862974E10,5.5676076E10,3.656817E9,-8.167602E7,-1.03237224E8,-2.6454936E8,-4.288256E7,-2.1629363E8,-3.1560228E7,3.1451818E6,-2.6944308E6,9.964065E7],"split_indices":[2,4,4,11,0,0,0,4,0,0,1,2,0,2,0,0,0,0,0,5,0,0,0,0,0,0,0,0,0],"split_type":[0,0,0,0,0,0,0,0,0,0,0,0,0,0,0,0,0,0,0,0,0,0,0,0,0,0,0,0,0],"sum_hessian":[4.6E1,4E1,6E0,2.1E1,1.9E1,3E0,3E0,1.3E1,8E0,1E0,1.8E1,9E0,4E0,8E0,1E1,3E0,6E0,4E0,4E0,8E0,2E0,2E0,4E0,1E0,3E0,2E0,2E0,4E0,4E0],"tree_param":{"num_deleted":"0","num_feature":"15","num_nodes":"29","size_leaf_vector":"1"}},{"base_weights":[7.887982E8,-2.2576724E9,1.8519726E10,8.3329065E9,-3.0144433E9,2.0786747E10,1.22940216E8,8.0260115E8,-1.7763318E8,-1.7020612E9,-3.5999664E8,4.708434E8,1.2058735E9,-3.5011932E9,-9.240503E8,-1.1016104E8,-2.2864269E8,-1.8123557E8,-4.9423917E8,8.6099304E7,-4.7963796E7],"categories":[],"categories_nodes":[],"categories_segments":[],"categories_sizes":[],"default_left":[0,0,0,0,0,0,0,0,0,0,0,0,0,0,0,0,0,0,0,0,0],"id":34,"left_children":[1,3,5,7,9,11,-1,-1,-1,13,-1,-1,-1,15,17,-1,-1,-1,19,-1,-1],"loss_changes":[2.580599E21,3.5371936E20,2.0376227E20,3.322658E20,2.0197082E20,1.0864934E17,0E0,0E0,0E0,4.0156795E19,0E0,0E0,0E0,2.4438625E18,2.4906333E19,0E0,0E0,0E0,2.3295012E19,0E0,0E0],"parents":[2147483647,0,0,1,1,2,2,3,3,4,4,5,5,9,9,13,13,14,14,18,18],"right_children":[2,4,6,8,10,12,-1,-1,-1,14,-1,-1,-1,16,18,-1,-1,-1,20,-1,-1],"split_conditions":[8.50362E10,2.8669202E10,1.8932621E11,3.64693E10,2.024E3,4.2020307E10,1.22940216E8,8.0260115E8,-1.7763318E8,4.8365294E10,-3.5999664E8,4.708434E8,1.2058735E9,4.8525496E10,3.4425086E10,-1.1016104E8,-2.2864269E8,-1.8123557E8,5.5751574E10,8.6099304E7,-4.7963796E7],"split_indices":[2,3,2,0,11,0,0,0,0,4,0,0,0,0,2,0,0,0,8,0,0],"split_type":[0,0,0,0,0,0,0,0,0,0,0,0,0,0,0,0,0,0,0,0,0],"sum_hessian":[4.6E1,4E1,6E0,2E0,3.8E1,5E0,1E0,1E0,1E0,3E1,8E0,2E0,3E0,8E0,2.2E1,5E0,3E0,2E0,2E1,3E0,1.7E1],"tree_param":{"num_deleted":"0","num_feature":"15","num_nodes":"21","size_leaf_vector":"1"}},{"base_weights":[7.830334E8,-2.1500795E9,1.7850833E10,8.1245824E9,-2.885308E9,1.001343E9,1.19866776E8,7.825361E8,-1.731924E8,-1.6325029E9,-3.4399677E8,-3.3637778E9,-8.8406906E8,-1.0557095E8,-2.2006859E8,-1.7519438E8,-4.6771072E8,8.287063E7,-4.5698824E7],"categories":[],"categories_nodes":[],"categories_segments":[],"categories_sizes":[],"default_left":[0,0,0,0,0,0,0,0,0,0,0,0,0,0,0,0,0,0,0],"id":35,"left_children":[1,3,5,7,9,-1,-1,-1,-1,11,-1,13,15,-1,-1,-1,17,-1,-1],"loss_changes":[2.3912842E21,3.3316504E20,1.8737944E20,3.158601E20,1.8394355E20,0E0,0E0,0E0,0E0,3.719426E19,0E0,2.401826E18,2.344921E19,0E0,0E0,0E0,2.14306E19,0E0,0E0],"parents":[2147483647,0,0,1,1,2,2,3,3,4,4,9,9,11,11,12,12,16,16],"right_children":[2,4,6,8,10,-1,-1,-1,-1,12,-1,14,16,-1,-1,-1,18,-1,-1],"split_conditions":[8.50362E10,2.8669202E10,1.8932621E11,3.64693E10,2.024E3,1.001343E9,1.19866776E8,7.825361E8,-1.731924E8,4.8365294E10,-3.4399677E8,4.8525496E10,3.4425086E10,-1.0557095E8,-2.2006859E8,-1.7519438E8,5.5751574E10,8.287063E7,-4.5698824E7],"split_indices":[2,3,2,0,11,0,0,0,0,4,0,0,2,0,0,0,8,0,0],"split_type":[0,0,0,0,0,0,0,0,0,0,0,0,0,0,0,0,0,0,0],"sum_hessian":[4.6E1,4E1,6E0,2E0,3.8E1,5E0,1E0,1E0,1E0,3E1,8E0,8E0,2.2E1,5E0,3E0,2E0,2E1,3E0,1.7E1],"tree_param":{"num_deleted":"0","num_feature":"15","num_nodes":"19","size_leaf_vector":"1"}},{"base_weights":[7.6351814E8,-2.0474124E9,1.7118465E10,7.921469E9,-2.7617516E9,3.74763E8,1.1231027E9,7.629728E8,-1.6886262E8,-1.5658344E9,-3.2870803E8,-3.2317711E9,-8.458664E8,-1.0117219E8,-2.1181597E8,-1.693546E8,-4.4255485E8,7.9763E7,-4.3540812E7],"categories":[],"categories_nodes":[],"categories_segments":[],"categories_sizes":[],"default_left":[0,0,0,0,0,0,0,0,0,0,0,0,0,0,0,0,0,0,0],"id":36,"left_children":[1,3,5,7,9,-1,-1,-1,-1,11,-1,13,15,-1,-1,-1,17,-1,-1],"loss_changes":[2.1957617E21,3.138448E20,1.9159833E20,3.0026463E20,1.6751966E20,0E0,0E0,0E0,0E0,3.4448403E19,0E0,2.3524535E18,2.207385E19,0E0,0E0,0E0,1.971624E19,0E0,0E0],"parents":[2147483647,0,0,1,1,2,2,3,3,4,4,9,9,11,11,12,12,16,16],"right_children":[2,4,6,8,10,-1,-1,-1,-1,12,-1,14,16,-1,-1,-1,18,-1,-1],"split_conditions":[8.50362E10,2.8669202E10,8.7802085E10,3.64693E10,2.024E3,3.74763E8,1.1231027E9,7.629728E8,-1.6886262E8,4.8365294E10,-3.2870803E8,4.8525496E10,3.4425086E10,-1.0117219E8,-2.1181597E8,-1.693546E8,5.5751574E10,7.9763E7,-4.3540812E7],"split_indices":[2,3,4,0,11,0,0,0,0,4,0,0,2,0,0,0,8,0,0],"split_type":[0,0,0,0,0,0,0,0,0,0,0,0,0,0,0,0,0,0,0],"sum_hessian":[4.6E1,4E1,6E0,2E0,3.8E1,3E0,3E0,1E0,1E0,3E1,8E0,8E0,2.2E1,5E0,3E0,2E0,2E1,3E0,1.7E1],"tree_param":{"num_deleted":"0","num_feature":"15","num_nodes":"19","size_leaf_vector":"1"}},{"base_weights":[7.533665E8,-1.9494496E9,1.6476522E10,7.7234324E9,-2.6435315E9,7.2141906E9,1.0809862E9,7.4389856E8,-1.6464107E8,-1.501934E9,-3.1409878E8,4.092786E8,1.0750116E8,-3.1049595E9,-8.093616E8,-9.695673E7,-2.0387285E8,-1.8176384E9,1.06054264E8,-1.4639203E8,-2.022482E7,6.739251E7,-4.1927476E7],"categories":[],"categories_nodes":[],"categories_segments":[],"categories_sizes":[],"default_left":[0,0,0,0,0,0,0,0,0,0,0,0,0,0,0,0,0,0,0,0,0,0,0],"id":37,"left_children":[1,3,5,7,9,11,-1,-1,-1,13,-1,-1,-1,15,17,-1,-1,19,21,-1,-1,-1,-1],"loss_changes":[2.0294699E21,2.9568186E20,1.7749742E20,2.8543911E20,1.5255676E20,2.0777779E18,0E0,0E0,0E0,3.19035E19,0E0,0E0,0E0,2.2971261E18,2.1421596E19,0E0,0E0,1.607331E19,1.6379306E19,0E0,0E0,0E0,0E0],"parents":[2147483647,0,0,1,1,2,2,3,3,4,4,5,5,9,9,13,13,14,14,17,17,18,18],"right_children":[2,4,6,8,10,12,-1,-1,-1,14,-1,-1,-1,16,18,-1,-1,20,22,-1,-1,-1,-1],"split_conditions":[8.50362E10,2.8669202E10,8.7802085E10,3.64693E10,2.024E3,4.2020307E10,1.0809862E9,7.4389856E8,-1.6464107E8,4.8365294E10,-3.1409878E8,4.092786E8,1.0750116E8,4.8525496E10,5.28812E10,-9.695673E7,-2.0387285E8,4.7848255E10,5.82344E10,-1.4639203E8,-2.022482E7,6.739251E7,-4.1927476E7],"split_indices":[2,3,4,0,11,0,0,0,0,4,0,0,0,0,1,0,0,2,1,0,0,0,0],"split_type":[0,0,0,0,0,0,0,0,0,0,0,0,0,0,0,0,0,0,0,0,0,0,0],"sum_hessian":[4.6E1,4E1,6E0,2E0,3.8E1,3E0,3E0,1E0,1E0,3E1,8E0,2E0,1E0,8E0,2.2E1,5E0,3E0,1E1,1.2E1,5E0,5E0,5E0,7E0],"tree_param":{"num_deleted":"0","num_feature":"15","num_nodes":"23","size_leaf_vector":"1"}},{"base_weights":[7.459313E8,-1.8562895E9,1.5880949E10,7.530347E9,-2.5307415E9,8.509268E9,1.1436717E9,7.2530106E8,-1.6052501E8,-1.4410945E9,-3.001388E8,4.7942246E8,1.0481357E8,-2.9831365E9,-7.750305E8,-9.291687E7,-1.9622757E8,-1.5882978E8,-3.950436E8,9.528243E6,-9.454128E7],"categories":[],"categories_nodes":[],"categories_segments":[],"categories_sizes":[],"default_left":[0,0,0,0,0,0,0,0,0,0,0,0,0,0,0,0,0,0,0,0,0],"id":38,"left_children":[1,3,5,7,9,11,-1,-1,-1,13,-1,-1,-1,15,17,-1,-1,-1,19,-1,-1],"loss_changes":[1.8805585E21,2.7862156E20,1.6618846E20,2.7134552E20,1.388978E20,1.4503913E19,0E0,0E0,0E0,2.9528036E19,0E0,0E0,0E0,2.2369784E18,1.973406E19,0E0,0E0,0E0,1.875512E19,0E0,0E0],"parents":[2147483647,0,0,1,1,2,2,3,3,4,4,5,5,9,9,13,13,14,14,18,18],"right_children":[2,4,6,8,10,12,-1,-1,-1,14,-1,-1,-1,16,18,-1,-1,-1,20,-1,-1],"split_conditions":[8.50362E10,2.8669202E10,8.953833E10,3.64693E10,2.024E3,5.494861E10,1.1436717E9,7.2530106E8,-1.6052501E8,4.8365294E10,-3.001388E8,4.7942246E8,1.0481357E8,4.8525496E10,3.4425086E10,-9.291687E7,-1.9622757E8,-1.5882978E8,7.2845795E10,9.528243E6,-9.454128E7],"split_indices":[2,3,4,0,11,0,0,0,0,4,0,0,0,0,2,0,0,0,8,0,0],"split_type":[0,0,0,0,0,0,0,0,0,0,0,0,0,0,0,0,0,0,0,0,0],"sum_hessian":[4.6E1,4E1,6E0,2E0,3.8E1,4E0,2E0,1E0,1E0,3E1,8E0,3E0,1E0,8E0,2.2E1,5E0,3E0,2E0,2E1,1.5E1,5E0],"tree_param":{"num_deleted":"0","num_feature":"15","num_nodes":"21","size_leaf_vector":"1"}},{"base_weights":[7.3968934E8,-1.77002E9,1.5333746E10,7.342088E9,-2.4255662E9,8.200651E9,1.1055494E9,7.0716845E8,-1.5651186E8,-1.3862326E9,-2.8679933E8,4.614441E8,1.0219315E8,-2.8661066E9,-7.468805E8,-8.9045304E7,-1.8886904E8,-1.6915721E9,1.0992624E8,-1.3701618E8,-1.8044588E7,1.0353275E8,-2.1740564E7],"categories":[],"categories_nodes":[],"categories_segments":[],"categories_sizes":[],"default_left":[0,0,0,0,0,0,0,0,0,0,0,0,0,0,0,0,0,0,0,0,0,0,0],"id":39,"left_children":[1,3,5,7,9,11,-1,-1,-1,13,-1,-1,-1,15,17,-1,-1,19,21,-1,-1,-1,-1],"loss_changes":[1.7486026E21,2.6271847E20,1.5707444E20,2.5794779E20,1.2623319E20,1.2790434E19,0E0,0E0,0E0,2.7190342E19,0E0,0E0,0E0,2.1730836E18,1.8802564E19,0E0,0E0,1.4362124E19,1.4785415E19,0E0,0E0,0E0,0E0],"parents":[2147483647,0,0,1,1,2,2,3,3,4,4,5,5,9,9,13,13,14,14,17,17,18,18],"right_children":[2,4,6,8,10,12,-1,-1,-1,14,-1,-1,-1,16,18,-1,-1,20,22,-1,-1,-1,-1],"split_conditions":[8.50362E10,2.8669202E10,8.953833E10,3.64693E10,2.024E3,5.494861E10,1.1055494E9,7.0716845E8,-1.5651186E8,4.8365294E10,-2.8679933E8,4.614441E8,1.0219315E8,4.8525496E10,5.28812E10,-8.9045304E7,-1.8886904E8,4.7848255E10,4.1851916E10,-1.3701618E8,-1.8044588E7,1.0353275E8,-2.1740564E7],"split_indices":[2,3,4,0,11,0,0,0,0,4,0,0,0,0,1,0,0,2,3,0,0,0,0],"split_type":[0,0,0,0,0,0,0,0,0,0,0,0,0,0,0,0,0,0,0,0,0,0,0],"sum_hessian":[4.6E1,4E1,6E0,2E0,3.8E1,4E0,2E0,1E0,1E0,3E1,8E0,3E0,1E0,8E0,2.2E1,5E0,3E0,1E1,1.2E1,5E0,5E0,2E0,1E1],"tree_param":{"num_deleted":"0","num_feature":"15","num_nodes":"23","size_leaf_vector":"1"}},{"base_weights":[7.3636205E8,-1.6836485E9,1.4805515E10,7.1585367E9,-2.3206461E9,7.903345E9,1.06869805E9,6.8948934E8,-1.5259904E8,-1.3282492E9,-2.7405264E8,4.4413994E8,9.963827E7,-2.753679E9,-7.1272237E8,-2.94101E7,-1.4754194E8,-1.4896824E8,-3.5497712E8,6.875136E5,-1.2859624E8],"categories":[],"categories_nodes":[],"categories_segments":[],"categories_sizes":[],"default_left":[0,0,0,0,0,0,0,0,0,0,0,0,0,0,0,0,0,0,0,0,0],"id":40,"left_children":[1,3,5,7,9,11,-1,-1,-1,13,-1,-1,-1,15,17,-1,-1,-1,19,-1,-1],"loss_changes":[1.6251597E21,2.4754294E20,1.4842992E20,2.4521162E20,1.1503852E20,1.1244398E19,0E0,0E0,0E0,2.52365E19,0E0,0E0,0E0,2.106805E18,1.7592648E19,0E0,0E0,0E0,1.7201802E19,0E0,0E0],"parents":[2147483647,0,0,1,1,2,2,3,3,4,4,5,5,9,9,13,13,14,14,18,18],"right_children":[2,4,6,8,10,12,-1,-1,-1,14,-1,-1,-1,16,18,-1,-1,-1,20,-1,-1],"split_conditions":[8.50362E10,2.8669202E10,8.953833E10,3.64693E10,2.024E3,5.494861E10,1.06869805E9,6.8948934E8,-1.5259904E8,4.8365294E10,-2.7405264E8,4.4413994E8,9.963827E7,6.323572E9,3.4425086E10,-2.94101E7,-1.4754194E8,-1.4896824E8,1.7008604E11,6.875136E5,-1.2859624E8],"split_indices":[2,3,4,0,11,0,0,0,0,4,0,0,0,7,2,0,0,0,0,0,0],"split_type":[0,0,0,0,0,0,0,0,0,0,0,0,0,0,0,0,0,0,0,0,0],"sum_hessian":[4.6E1,4E1,6E0,2E0,3.8E1,4E0,2E0,1E0,1E0,3E1,8E0,3E0,1E0,8E0,2.2E1,1E0,7E0,2E0,2E1,1.8E1,2E0],"tree_param":{"num_deleted":"0","num_feature":"15","num_nodes":"21","size_leaf_vector":"1"}},{"base_weights":[7.297885E8,-1.6041245E9,1.4295595E10,6.9795743E9,-2.2232776E9,7.616935E9,1.0330748E9,6.722521E8,-1.4878403E8,-1.2764767E9,-2.6187251E8,4.2748477E8,9.714729E7,-2.6356564E9,-6.8912474E8,-8.0171864E7,-1.7625357E8,-1.5827533E9,1.2003202E8,-1.2776424E8,-1.7321472E7,6.402082E7,-3.8263016E7],"categories":[],"categories_nodes":[],"categories_segments":[],"categories_sizes":[],"default_left":[0,0,0,0,0,0,0,0,0,0,0,0,0,0,0,0,0,0,0,0,0,0,0],"id":41,"left_children":[1,3,5,7,9,11,-1,-1,-1,13,-1,-1,-1,15,17,-1,-1,19,21,-1,-1,-1,-1],"loss_changes":[1.5110182E21,2.3341712E20,1.4023266E20,2.3310428E20,1.04613535E20,9.850762E18,0E0,0E0,0E0,2.2931533E19,0E0,0E0,0E0,2.6104077E18,1.6820949E19,0E0,0E0,1.2340776E19,1.4334485E19,0E0,0E0,0E0,0E0],"parents":[2147483647,0,0,1,1,2,2,3,3,4,4,5,5,9,9,13,13,14,14,17,17,18,18],"right_children":[2,4,6,8,10,12,-1,-1,-1,14,-1,-1,-1,16,18,-1,-1,20,22,-1,-1,-1,-1],"split_conditions":[8.50362E10,2.8669202E10,8.953833E10,3.64693E10,2.024E3,5.494861E10,1.0330748E9,6.722521E8,-1.4878403E8,4.8365294E10,-2.6187251E8,4.2748477E8,9.714729E7,4.8525496E10,5.28812E10,-8.0171864E7,-1.7625357E8,4.7848255E10,5.82344E10,-1.2776424E8,-1.7321472E7,6.402082E7,-3.8263016E7],"split_indices":[2,3,4,0,11,0,0,0,0,4,0,0,0,0,1,0,0,2,1,0,0,0,0],"split_type":[0,0,0,0,0,0,0,0,0,0,0,0,0,0,0,0,0,0,0,0,0,0,0],"sum_hessian":[4.6E1,4E1,6E0,2E0,3.8E1,4E0,2E0,1E0,1E0,3E1,8E0,3E0,1E0,8E0,2.2E1,5E0,3E0,1E1,1.2E1,5E0,5E0,5E0,7E0],"tree_param":{"num_deleted":"0","num_feature":"15","num_nodes":"23","size_leaf_vector":"1"}},{"base_weights":[7.240127E8,-1.5267026E9,1.3803343E10,6.8050847E9,-2.1284631E9,7.3410135E9,9.986389E8,6.554458E8,-1.4506445E8,-1.2247738E9,-2.5023376E8,4.1145405E8,9.471857E7,-2.5323653E9,-6.598563E8,-7.683141E7,-1.6964402E8,-1.3974392E8,-3.234315E8,1.0933837E7,-8.575741E7],"categories":[],"categories_nodes":[],"categories_segments":[],"categories_sizes":[],"default_left":[0,0,0,0,0,0,0,0,0,0,0,0,0,0,0,0,0,0,0,0,0],"id":42,"left_children":[1,3,5,7,9,11,-1,-1,-1,13,-1,-1,-1,15,17,-1,-1,-1,19,-1,-1],"loss_changes":[1.4046526E21,2.2004776E20,1.3246198E20,2.215948E20,9.523929E19,8.5959995E18,0E0,0E0,0E0,2.1228121E19,0E0,0E0,0E0,2.4980244E18,1.5616363E19,0E0,0E0,0E0,1.6218745E19,0E0,0E0],"parents":[2147483647,0,0,1,1,2,2,3,3,4,4,5,5,9,9,13,13,14,14,18,18],"right_children":[2,4,6,8,10,12,-1,-1,-1,14,-1,-1,-1,16,18,-1,-1,-1,20,-1,-1],"split_conditions":[8.50362E10,2.8669202E10,8.953833E10,3.64693E10,2.024E3,5.494861E10,9.986389E8,6.554458E8,-1.4506445E8,4.8365294E10,-2.5023376E8,4.1145405E8,9.471857E7,4.8525496E10,3.4425086E10,-7.683141E7,-1.6964402E8,-1.3974392E8,7.2845795E10,1.0933837E7,-8.575741E7],"split_indices":[2,3,4,0,11,0,0,0,0,4,0,0,0,0,2,0,0,0,8,0,0],"split_type":[0,0,0,0,0,0,0,0,0,0,0,0,0,0,0,0,0,0,0,0,0],"sum_hessian":[4.6E1,4E1,6E0,2E0,3.8E1,4E0,2E0,1E0,1E0,3E1,8E0,3E0,1E0,8E0,2.2E1,5E0,3E0,2E0,2E1,1.5E1,5E0],"tree_param":{"num_deleted":"0","num_feature":"15","num_nodes":"21","size_leaf_vector":"1"}},{"base_weights":[7.1555584E8,-1.4552667E9,1.3328152E10,6.634959E9,-2.0402772E9,7.0751995E9,9.6535104E8,6.390598E8,-1.4143786E8,-1.1784063E9,-2.391123E8,3.9602464E8,9.235067E7,-2.4331325E9,-6.361914E8,-7.363004E7,-1.6328235E8,-9.005249E7,-1.8716444E9,-2.0786458E7,1.2801935E8,-2.1720628E7,-1.4204826E8],"categories":[],"categories_nodes":[],"categories_segments":[],"categories_sizes":[],"default_left":[0,0,0,0,0,0,0,0,0,0,0,0,0,0,0,0,0,0,0,0,0,0,0],"id":43,"left_children":[1,3,5,7,9,11,-1,-1,-1,13,-1,-1,-1,15,17,-1,-1,19,21,-1,-1,-1,-1],"loss_changes":[1.3062422E21,2.075847E20,1.25098035E20,2.1065359E20,8.653028E19,7.467496E18,0E0,0E0,0E0,1.9542333E19,0E0,0E0,0E0,2.387915E18,1.5350219E19,0E0,0E0,1.5738594E19,8.51782E18,0E0,0E0,0E0,0E0],"parents":[2147483647,0,0,1,1,2,2,3,3,4,4,5,5,9,9,13,13,14,14,17,17,18,18],"right_children":[2,4,6,8,10,12,-1,-1,-1,14,-1,-1,-1,16,18,-1,-1,20,22,-1,-1,-1,-1],"split_conditions":[8.50362E10,2.8669202E10,8.953833E10,3.64693E10,2.024E3,5.494861E10,9.6535104E8,6.390598E8,-1.4143786E8,4.8365294E10,-2.391123E8,3.9602464E8,9.235067E7,4.8525496E10,7.170296E10,-7.363004E7,-1.6328235E8,6.6598806E10,6.940789E10,-2.0786458E7,1.2801935E8,-2.1720628E7,-1.4204826E8],"split_indices":[2,3,4,0,11,0,0,0,0,4,0,0,0,0,0,0,0,0,6,0,0,0,0],"split_type":[0,0,0,0,0,0,0,0,0,0,0,0,0,0,0,0,0,0,0,0,0,0,0],"sum_hessian":[4.6E1,4E1,6E0,2E0,3.8E1,4E0,2E0,1E0,1E0,3E1,8E0,3E0,1E0,8E0,2.2E1,5E0,3E0,1.6E1,6E0,1.5E1,1E0,3E0,3E0],"tree_param":{"num_deleted":"0","num_feature":"15","num_nodes":"23","size_leaf_vector":"1"}},{"base_weights":[7.0996576E8,-1.3833551E9,1.2869421E10,6.4690857E9,-1.9519183E9,2.762488E8,8.498256E8,6.230833E8,-1.3790187E8,-1.1289516E9,-2.284851E8,-2.3377994E9,-6.068393E8,-7.0562136E7,-1.5715925E8,-7.924146E7,-1.801457E9,-1.9812058E7,1.2481884E8,-2.0906086E7,-1.367214E8],"categories":[],"categories_nodes":[],"categories_segments":[],"categories_sizes":[],"default_left":[0,0,0,0,0,0,0,0,0,0,0,0,0,0,0,0,0,0,0,0,0],"id":44,"left_children":[1,3,5,7,9,-1,-1,-1,-1,11,-1,13,15,-1,-1,17,19,-1,-1,-1,-1],"loss_changes":[1.214124E21,1.9567613E20,1.1827304E20,2.002526E20,7.886063E19,0E0,0E0,0E0,0E0,1.8147118E19,0E0,2.2803167E18,1.4353638E19,0E0,0E0,1.4869161E19,7.8909597E18,0E0,0E0,0E0,0E0],"parents":[2147483647,0,0,1,1,2,2,3,3,4,4,9,9,11,11,12,12,15,15,16,16],"right_children":[2,4,6,8,10,-1,-1,-1,-1,12,-1,14,16,-1,-1,18,20,-1,-1,-1,-1],"split_conditions":[8.50362E10,2.8669202E10,8.7802085E10,3.64693E10,2.024E3,2.762488E8,8.498256E8,6.230833E8,-1.3790187E8,4.8365294E10,-2.284851E8,4.8525496E10,7.170296E10,-7.0562136E7,-1.5715925E8,6.6598806E10,6.940789E10,-1.9812058E7,1.2481884E8,-2.0906086E7,-1.367214E8],"split_indices":[2,3,4,0,11,0,0,0,0,4,0,0,0,0,0,0,6,0,0,0,0],"split_type":[0,0,0,0,0,0,0,0,0,0,0,0,0,0,0,0,0,0,0,0,0],"sum_hessian":[4.6E1,4E1,6E0,2E0,3.8E1,3E0,3E0,1E0,1E0,3E1,8E0,8E0,2.2E1,5E0,3E0,1.6E1,6E0,1.5E1,1E0,3E0,3E0],"tree_param":{"num_deleted":"0","num_feature":"15","num_nodes":"21","size_leaf_vector":"1"}},{"base_weights":[6.979235E8,-1.3147642E9,1.2386819E10,6.307358E9,-1.8673693E9,6.483401E9,9.0484544E8,6.0750624E8,-1.3445438E8,-1.0815473E9,-2.1833022E8,3.6364474E8,8.31357E7,-1.5573382E9,7.334748E7,-1.984542E9,-5.61664E8,1.9145537E9,-6.262733E8,-2.0666028E7,-1.0972373E8,3.1305686E7,-9.529851E7,2.189312E7,1.2169841E8,9.244672E5,-8.535204E7],"categories":[],"categories_nodes":[],"categories_segments":[],"categories_sizes":[],"default_left":[0,0,0,0,0,0,0,0,0,0,0,0,0,0,0,0,0,0,0,0,0,0,0,0,0,0,0],"id":45,"left_children":[1,3,5,7,9,11,-1,-1,-1,13,-1,-1,-1,15,17,19,21,23,25,-1,-1,-1,-1,-1,-1,-1,-1],"loss_changes":[1.12201224E21,1.8447117E20,1.1863375E20,1.9036515E20,7.1871513E19,6.9367573E18,0E0,0E0,0E0,1.7148364E19,0E0,0E0,0E0,8.243184E18,1.4080494E19,4.0407316E18,1.396725E19,1.2353024E18,5.60627E18,0E0,0E0,0E0,0E0,0E0,0E0,0E0,0E0],"parents":[2147483647,0,0,1,1,2,2,3,3,4,4,5,5,9,9,13,13,14,14,15,15,16,16,17,17,18,18],"right_children":[2,4,6,8,10,12,-1,-1,-1,14,-1,-1,-1,16,18,20,22,24,26,-1,-1,-1,-1,-1,-1,-1,-1],"split_conditions":[8.50362E10,2.8669202E10,8.953833E10,3.64693E10,2.024E3,5.494861E10,9.0484544E8,6.0750624E8,-1.3445438E8,1E1,-2.1833022E8,3.6364474E8,8.31357E7,5.3131145E10,6.866408E10,3.4425086E10,4.3715453E10,4.646198E10,3.656817E9,-2.0666028E7,-1.0972373E8,3.1305686E7,-9.529851E7,2.189312E7,1.2169841E8,9.244672E5,-8.535204E7],"split_indices":[2,3,4,0,11,0,0,0,0,10,0,0,0,5,6,3,9,0,5,0,0,0,0,0,0,0,0],"split_type":[0,0,0,0,0,0,0,0,0,0,0,0,0,0,0,0,0,0,0,0,0,0,0,0,0,0,0],"sum_hessian":[4.6E1,4E1,6E0,2E0,3.8E1,4E0,2E0,1E0,1E0,3E1,8E0,3E0,1E0,2.1E1,9E0,1.4E1,7E0,2E0,7E0,2E0,1.2E1,4E0,3E0,1E0,1E0,5E0,2E0],"tree_param":{"num_deleted":"0","num_feature":"15","num_nodes":"27","size_leaf_vector":"1"}},{"base_weights":[6.943283E8,-1.2461112E9,1.1960571E10,6.1496755E9,-1.7830664E9,6.248589E9,8.746841E8,5.9231866E8,-1.3109299E8,-1.03183226E9,-2.0862661E8,3.5000813E8,8.1057384E7,-1.4883072E9,7.559578E7,-1.8940077E9,-5.415803E8,1.8666892E9,-6.055137E8,-1.9977216E7,-1.0465955E8,3.005346E7,-9.1724856E7,2.1345792E7,1.18655896E8,8.858965E5,-8.250696E7],"categories":[],"categories_nodes":[],"categories_segments":[],"categories_sizes":[],"default_left":[0,0,0,0,0,0,0,0,0,0,0,0,0,0,0,0,0,0,0,0,0,0,0,0,0,0,0],"id":46,"left_children":[1,3,5,7,9,11,-1,-1,-1,13,-1,-1,-1,15,17,19,21,23,25,-1,-1,-1,-1,-1,-1,-1,-1],"loss_changes":[1.0423929E21,1.7378471E20,1.1192451E20,1.809659E20,6.570153E19,6.041016E18,0E0,0E0,0E0,1.5783419E19,0E0,0E0,0E0,7.424171E18,1.3329614E19,3.6287578E18,1.2921465E19,1.1743059E18,5.237586E18,0E0,0E0,0E0,0E0,0E0,0E0,0E0,0E0],"parents":[2147483647,0,0,1,1,2,2,3,3,4,4,5,5,9,9,13,13,14,14,15,15,16,16,17,17,18,18],"right_children":[2,4,6,8,10,12,-1,-1,-1,14,-1,-1,-1,16,18,20,22,24,26,-1,-1,-1,-1,-1,-1,-1,-1],"split_conditions":[8.50362E10,2.8669202E10,8.953833E10,3.64693E10,2.024E3,5.494861E10,8.746841E8,5.9231866E8,-1.3109299E8,1E1,-2.0862661E8,3.5000813E8,8.1057384E7,5.3131145E10,6.866408E10,3.4425086E10,4.3715453E10,4.646198E10,3.656817E9,-1.9977216E7,-1.0465955E8,3.005346E7,-9.1724856E7,2.1345792E7,1.18655896E8,8.858965E5,-8.250696E7],"split_indices":[2,3,4,0,11,0,0,0,0,10,0,0,0,5,6,3,9,0,5,0,0,0,0,0,0,0,0],"split_type":[0,0,0,0,0,0,0,0,0,0,0,0,0,0,0,0,0,0,0,0,0,0,0,0,0,0,0],"sum_hessian":[4.6E1,4E1,6E0,2E0,3.8E1,4E0,2E0,1E0,1E0,3E1,8E0,3E0,1E0,2.1E1,9E0,1.4E1,7E0,2E0,7E0,2E0,1.2E1,4E0,3E0,1E0,1E0,5E0,2E0],"tree_param":{"num_deleted":"0","num_feature":"15","num_nodes":"27","size_leaf_vector":"1"}},{"base_weights":[6.900468E8,-1.1807645E9,1.1549079E10,5.995932E9,-1.7025422E9,6.0223703E9,8.4552826E8,5.775106E8,-1.2781568E8,-9.843665E8,-1.9935435E8,3.368827E8,7.903089E7,-1.4223594E9,7.7654424E7,-1.60063E9,2.4023176E8,1.8200221E9,-5.8544026E8,-4.0404604E7,-1.0308239E8,-1.9416782E7,3.7434164E7,2.0812186E7,1.1568947E8,8.490325E5,-7.975677E7],"categories":[],"categories_nodes":[],"categories_segments":[],"categories_sizes":[],"default_left":[0,0,0,0,0,0,0,0,0,0,0,0,0,0,0,0,0,0,0,0,0,0,0,0,0,0,0],"id":47,"left_children":[1,3,5,7,9,11,-1,-1,-1,13,-1,-1,-1,15,17,19,21,23,25,-1,-1,-1,-1,-1,-1,-1,-1],"loss_changes":[9.684511E20,1.6373857E20,1.0557796E20,1.7203066E20,6.0062723E19,5.2359096E18,0E0,0E0,0E0,1.4530336E19,0E0,0E0,0E0,6.9051265E18,1.2619062E19,5.64148E18,1.2495284E18,1.11631986E18,4.8931775E18,0E0,0E0,0E0,0E0,0E0,0E0,0E0,0E0],"parents":[2147483647,0,0,1,1,2,2,3,3,4,4,5,5,9,9,13,13,14,14,15,15,16,16,17,17,18,18],"right_children":[2,4,6,8,10,12,-1,-1,-1,14,-1,-1,-1,16,18,20,22,24,26,-1,-1,-1,-1,-1,-1,-1,-1],"split_conditions":[8.50362E10,2.8669202E10,8.953833E10,3.64693E10,2.024E3,5.494861E10,8.4552826E8,5.775106E8,-1.2781568E8,1E1,-1.9935435E8,3.368827E8,7.903089E7,9.165717E10,6.866408E10,4.895491E10,4.381858E10,4.646198E10,3.656817E9,-4.0404604E7,-1.0308239E8,-1.9416782E7,3.7434164E7,2.0812186E7,1.1568947E8,8.490325E5,-7.975677E7],"split_indices":[2,3,4,0,11,0,0,0,0,10,0,0,0,4,6,0,0,0,5,0,0,0,0,0,0,0,0],"split_type":[0,0,0,0,0,0,0,0,0,0,0,0,0,0,0,0,0,0,0,0,0,0,0,0,0,0,0],"sum_hessian":[4.6E1,4E1,6E0,2E0,3.8E1,4E0,2E0,1E0,1E0,3E1,8E0,3E0,1E0,2.1E1,9E0,1.9E1,2E0,2E0,7E0,8E0,1.1E1,1E0,1E0,1E0,1E0,5E0,2E0],"tree_param":{"num_deleted":"0","num_feature":"15","num_nodes":"27","size_leaf_vector":"1"}},{"base_weights":[6.862662E8,-1.1172756E9,1.115183E10,5.846034E9,-1.6242668E9,5.804435E9,8.1734394E8,5.6307283E8,-1.2462029E8,-9.373373E8,-1.9049416E8,3.242496E8,7.705518E7,-1.9988404E9,-4.8121267E8,-1.1401181E9,-1.3936069E8,-1.2034492E8,-1.8319984E8,-6.2496972E7,-1.4775296E7,5.875723E6,-1.01332856E8],"categories":[],"categories_nodes":[],"categories_segments":[],"categories_sizes":[],"default_left":[0,0,0,0,0,0,0,0,0,0,0,0,0,0,0,0,0,0,0,0,0,0,0],"id":48,"left_children":[1,3,5,7,9,11,-1,-1,-1,13,-1,-1,-1,15,17,19,-1,-1,21,-1,-1,-1,-1],"loss_changes":[8.9958854E20,1.5423928E20,9.95755E19,1.6353664E20,5.4982047E19,4.5131522E18,0E0,0E0,0E0,1.404764E19,0E0,0E0,0E0,2.9151946E18,1.2758276E19,1.8717371E17,0E0,0E0,1.1879594E19,0E0,0E0,0E0,0E0],"parents":[2147483647,0,0,1,1,2,2,3,3,4,4,5,5,9,9,13,13,14,14,15,15,18,18],"right_children":[2,4,6,8,10,12,-1,-1,-1,14,-1,-1,-1,16,18,20,-1,-1,22,-1,-1,-1,-1],"split_conditions":[8.50362E10,2.8669202E10,8.953833E10,3.64693E10,2.024E3,5.494861E10,8.1734394E8,5.6307283E8,-1.2462029E8,4.8365294E10,-1.9049416E8,3.242496E8,7.705518E7,4.8525496E10,3.4425086E10,4.507964E10,-1.3936069E8,-1.2034492E8,1.7008604E11,-6.2496972E7,-1.4775296E7,5.875723E6,-1.01332856E8],"split_indices":[2,3,4,0,11,0,0,0,0,4,0,0,0,0,2,0,0,0,0,0,0,0,0],"split_type":[0,0,0,0,0,0,0,0,0,0,0,0,0,0,0,0,0,0,0,0,0,0,0],"sum_hessian":[4.6E1,4E1,6E0,2E0,3.8E1,4E0,2E0,1E0,1E0,3E1,8E0,3E0,1E0,8E0,2.2E1,5E0,3E0,2E0,2E1,4E0,1E0,1.8E1,2E0],"tree_param":{"num_deleted":"0","num_feature":"15","num_nodes":"23","size_leaf_vector":"1"}},{"base_weights":[6.739557E8,-1.065912E9,1.076833E10,5.6998845E9,-1.5590268E9,5.594474E9,7.90099E8,5.489961E8,-1.2150477E8,-9.044212E8,-1.8202773E8,3.120902E8,7.512883E7,-1.9229684E9,-4.6653654E8,-1.0959913E9,-2.682692E9,-1.1633343E8,-1.7858736E8,-5.99971E7,-1.4405939E7,-1.513256E8,-4.128082E7,1.5922367E7,-6.0907464E7],"categories":[],"categories_nodes":[],"categories_segments":[],"categories_sizes":[],"default_left":[0,0,0,0,0,0,0,0,0,0,0,0,0,0,0,0,0,0,0,0,0,0,0,0,0],"id":49,"left_children":[1,3,5,7,9,11,-1,-1,-1,13,-1,-1,-1,15,17,19,21,-1,23,-1,-1,-1,-1,-1,-1],"loss_changes":[8.3693326E20,1.4567516E20,9.389991E19,1.5546204E20,4.9848013E19,3.8652672E18,0E0,0E0,0E0,1.2929056E19,0E0,0E0,0E0,2.714261E18,1.1903827E19,1.5814716E17,5.5259255E16,0E0,1.1238581E19,0E0,0E0,0E0,0E0,0E0,0E0],"parents":[2147483647,0,0,1,1,2,2,3,3,4,4,5,5,9,9,13,13,14,14,15,15,16,16,18,18],"right_children":[2,4,6,8,10,12,-1,-1,-1,14,-1,-1,-1,16,18,20,22,-1,24,-1,-1,-1,-1,-1,-1],"split_conditions":[8.50362E10,2.8669202E10,8.953833E10,3.64693E10,2.024E3,5.494861E10,7.90099E8,5.489961E8,-1.2150477E8,4.8365294E10,-1.8202773E8,3.120902E8,7.512883E7,4.8525496E10,3.4425086E10,4.507964E10,5.64115E10,-1.1633343E8,4.3715453E10,-5.99971E7,-1.4405939E7,-1.513256E8,-4.128082E7,1.5922367E7,-6.0907464E7],"split_indices":[2,3,4,0,11,0,0,0,0,4,0,0,0,0,2,0,1,0,9,0,0,0,0,0,0],"split_type":[0,0,0,0,0,0,0,0,0,0,0,0,0,0,0,0,0,0,0,0,0,0,0,0,0],"sum_hessian":[4.6E1,4E1,6E0,2E0,3.8E1,4E0,2E0,1E0,1E0,3E1,8E0,3E0,1E0,8E0,2.2E1,5E0,3E0,2E0,2E1,4E0,1E0,2E0,1E0,1.4E1,6E0],"tree_param":{"num_deleted":"0","num_feature":"15","num_nodes":"25","size_leaf_vector":"1"}},{"base_weights":[6.6141715E8,-1.01707584E9,1.0398103E10,5.5573873E9,-1.4967249E9,5.3921956E9,7.637623E8,5.3527123E8,-1.18467176E8,-2.9477455E9,-6.578397E8,3.003869E8,7.3250616E7,-9.2035174E8,-3.417003E9,-1.1245562E8,-4.315206E8,-5.199292E7,-1.4045799E7,-1.816955E8,-3.119831E7,-1.1116833E9,4.7337024E8,-2.7552398E7,-1.187755E8,8.3976296E7,-9.443943E6],"categories":[],"categories_nodes":[],"categories_segments":[],"categories_sizes":[],"default_left":[0,0,0,0,0,0,0,0,0,0,0,0,0,0,0,0,0,0,0,0,0,0,0,0,0,0,0],"id":50,"left_children":[1,3,5,7,9,11,-1,-1,-1,13,15,-1,-1,17,19,-1,21,-1,-1,-1,-1,23,25,-1,-1,-1,-1],"loss_changes":[7.786946E20,1.376087E20,8.853458E19,1.4778615E20,4.5533204E19,3.2853407E18,0E0,0E0,0E0,1.0174335E19,8.39298E18,0E0,0E0,1.3554504E16,4.396683E18,0E0,1.5297592E19,0E0,0E0,0E0,0E0,8.610623E18,9.103757E18,0E0,0E0,0E0,0E0],"parents":[2147483647,0,0,1,1,2,2,3,3,4,4,5,5,9,9,10,10,13,13,14,14,16,16,21,21,22,22],"right_children":[2,4,6,8,10,12,-1,-1,-1,14,16,-1,-1,18,20,-1,22,-1,-1,-1,-1,24,26,-1,-1,-1,-1],"split_conditions":[8.50362E10,2.8669202E10,8.953833E10,3.64693E10,5.6566755E10,5.494861E10,7.637623E8,5.3527123E8,-1.18467176E8,6.9021834E9,3.4425086E10,3.003869E8,7.3250616E7,4.507964E10,5.750759E10,-1.1245562E8,9E0,-5.199292E7,-1.4045799E7,-1.816955E8,-3.119831E7,4.3715453E10,7.1939604E10,-2.7552398E7,-1.187755E8,8.3976296E7,-9.443943E6],"split_indices":[2,3,4,0,6,0,0,0,0,7,2,0,0,0,3,0,10,0,0,0,0,9,6,0,0,0,0],"split_type":[0,0,0,0,0,0,0,0,0,0,0,0,0,0,0,0,0,0,0,0,0,0,0,0,0,0,0],"sum_hessian":[4.6E1,4E1,6E0,2E0,3.8E1,4E0,2E0,1E0,1E0,1.3E1,2.5E1,3E0,1E0,3E0,1E1,2E0,2.3E1,2E0,1E0,9E0,1E0,1.3E1,1E1,1E1,3E0,3E0,7E0],"tree_param":{"num_deleted":"0","num_feature":"15","num_nodes":"27","size_leaf_vector":"1"}},{"base_weights":[6.5156064E8,-9.673524E8,1.0040686E10,5.4184525E9,-1.4337642E9,5.1973146E9,7.3830374E8,5.2188938E8,-1.15505464E8,-2.8202813E9,-6.320333E8,2.8912253E8,7.141929E7,-8.9084314E8,-3.265506E9,-1.0870709E8,-4.12935E8,-5.0259764E7,-1.3694669E7,-1.7351917E8,-3.041833E7,-1.06655014E9,4.5647834E8,-3.0127566E7,-1.2835144E8,8.082719E7,-9.030707E6],"categories":[],"categories_nodes":[],"categories_segments":[],"categories_sizes":[],"default_left":[0,0,0,0,0,0,0,0,0,0,0,0,0,0,0,0,0,0,0,0,0,0,0,0,0,0,0],"id":51,"left_children":[1,3,5,7,9,11,-1,-1,-1,13,15,-1,-1,17,19,-1,21,-1,-1,-1,-1,23,25,-1,-1,-1,-1],"loss_changes":[7.2412105E20,1.29883804E20,8.3463875E19,1.4048917E20,4.1570415E19,2.7670925E18,0E0,0E0,0E0,9.1174143E18,7.886928E18,0E0,0E0,6.8818433E15,3.8769923E18,0E0,1.4125137E19,0E0,0E0,0E0,0E0,8.200318E18,8.4217286E18,0E0,0E0,0E0,0E0],"parents":[2147483647,0,0,1,1,2,2,3,3,4,4,5,5,9,9,10,10,13,13,14,14,16,16,21,21,22,22],"right_children":[2,4,6,8,10,12,-1,-1,-1,14,16,-1,-1,18,20,-1,22,-1,-1,-1,-1,24,26,-1,-1,-1,-1],"split_conditions":[8.50362E10,2.8669202E10,8.953833E10,3.64693E10,5.6566755E10,5.494861E10,7.3830374E8,5.2188938E8,-1.15505464E8,6.9021834E9,3.4425086E10,2.8912253E8,7.141929E7,4.507964E10,5.750759E10,-1.0870709E8,9E0,-5.0259764E7,-1.3694669E7,-1.7351917E8,-3.041833E7,4.9566704E10,7.1939604E10,-3.0127566E7,-1.2835144E8,8.082719E7,-9.030707E6],"split_indices":[2,3,4,0,6,0,0,0,0,7,2,0,0,0,3,0,10,0,0,0,0,7,6,0,0,0,0],"split_type":[0,0,0,0,0,0,0,0,0,0,0,0,0,0,0,0,0,0,0,0,0,0,0,0,0,0,0],"sum_hessian":[4.6E1,4E1,6E0,2E0,3.8E1,4E0,2E0,1E0,1E0,1.3E1,2.5E1,3E0,1E0,3E0,1E1,2E0,2.3E1,2E0,1E0,9E0,1E0,1.3E1,1E1,1.1E1,2E0,3E0,7E0],"tree_param":{"num_deleted":"0","num_feature":"15","num_nodes":"27","size_leaf_vector":"1"}},{"base_weights":[6.411518E8,-9.2037274E8,9.695631E9,5.282992E9,-1.3739553E9,5.009557E9,7.136939E8,5.088422E8,-1.12617784E8,-2.698403E9,-6.0794675E8,2.7828042E8,6.963385E7,-8.6229094E8,-3.1207708E9,-1.05083496E8,-3.9590026E8,-4.85845E7,-1.3352346E7,-1.6571083E8,-2.9657908E7,-1.0245436E9,4.4018224E8,-2.8746788E7,-1.2407302E8,7.77962E7,-8.635571E6],"categories":[],"categories_nodes":[],"categories_segments":[],"categories_sizes":[],"default_left":[0,0,0,0,0,0,0,0,0,0,0,0,0,0,0,0,0,0,0,0,0,0,0,0,0,0,0],"id":52,"left_children":[1,3,5,7,9,11,-1,-1,-1,13,15,-1,-1,17,19,-1,21,-1,-1,-1,-1,23,25,-1,-1,-1,-1],"loss_changes":[6.7344676E20,1.22621864E20,7.867219E19,1.3355248E20,3.7926515E19,2.3047523E18,0E0,0E0,0E0,8.166187E18,7.403156E18,0E0,0E0,9.8956046E14,3.4126466E18,0E0,1.3065331E19,0E0,0E0,0E0,0E0,7.743901E18,7.790867E18,0E0,0E0,0E0,0E0],"parents":[2147483647,0,0,1,1,2,2,3,3,4,4,5,5,9,9,10,10,13,13,14,14,16,16,21,21,22,22],"right_children":[2,4,6,8,10,12,-1,-1,-1,14,16,-1,-1,18,20,-1,22,-1,-1,-1,-1,24,26,-1,-1,-1,-1],"split_conditions":[8.50362E10,2.8669202E10,8.953833E10,3.64693E10,5.6566755E10,5.494861E10,7.136939E8,5.088422E8,-1.12617784E8,6.9021834E9,3.4425086E10,2.7828042E8,6.963385E7,4.507964E10,5.750759E10,-1.05083496E8,9E0,-4.85845E7,-1.3352346E7,-1.6571083E8,-2.9657908E7,4.9566704E10,7.1939604E10,-2.8746788E7,-1.2407302E8,7.77962E7,-8.635571E6],"split_indices":[2,3,4,0,6,0,0,0,0,7,2,0,0,0,3,0,10,0,0,0,0,7,6,0,0,0,0],"split_type":[0,0,0,0,0,0,0,0,0,0,0,0,0,0,0,0,0,0,0,0,0,0,0,0,0,0,0],"sum_hessian":[4.6E1,4E1,6E0,2E0,3.8E1,4E0,2E0,1E0,1E0,1.3E1,2.5E1,3E0,1E0,3E0,1E1,2E0,2.3E1,2E0,1E0,9E0,1E0,1.3E1,1E1,1.1E1,2E0,3E0,7E0],"tree_param":{"num_deleted":"0","num_feature":"15","num_nodes":"27","size_leaf_vector":"1"}},{"base_weights":[6.3062106E8,-8.755701E8,9.362509E9,5.1509166E9,-1.3166954E9,4.828661E9,6.899043E8,4.9612106E8,-1.09802296E8,-2.5818627E9,-5.8480954E8,2.6784482E8,6.789305E7,-4.1733068E7,-2.9824937E9,-1.0158073E8,-3.7959184E8,-1.5825387E8,-2.891643E7,-9.842331E8,4.244599E8,-2.7429274E7,-1.199373E8,7.487887E7,-8.2578175E6],"categories":[],"categories_nodes":[],"categories_segments":[],"categories_sizes":[],"default_left":[0,0,0,0,0,0,0,0,0,0,0,0,0,0,0,0,0,0,0,0,0,0,0,0,0],"id":53,"left_children":[1,3,5,7,9,11,-1,-1,-1,13,15,-1,-1,-1,17,-1,19,-1,-1,21,23,-1,-1,-1,-1],"loss_changes":[6.263366E20,1.1577808E20,7.414529E19,1.2695827E20,3.4602467E19,1.8930688E18,0E0,0E0,0E0,7.310389E18,6.9484764E18,0E0,0E0,0E0,2.998113E18,0E0,1.2085676E19,0E0,0E0,7.3112905E18,7.207338E18,0E0,0E0,0E0,0E0],"parents":[2147483647,0,0,1,1,2,2,3,3,4,4,5,5,9,9,10,10,14,14,16,16,19,19,20,20],"right_children":[2,4,6,8,10,12,-1,-1,-1,14,16,-1,-1,-1,18,-1,20,-1,-1,22,24,-1,-1,-1,-1],"split_conditions":[8.50362E10,2.8669202E10,8.953833E10,3.64693E10,5.6566755E10,5.494861E10,6.899043E8,4.9612106E8,-1.09802296E8,6.9021834E9,3.4425086E10,2.6784482E8,6.789305E7,-4.1733068E7,5.750759E10,-1.0158073E8,9E0,-1.5825387E8,-2.891643E7,4.9566704E10,7.1939604E10,-2.7429274E7,-1.199373E8,7.487887E7,-8.2578175E6],"split_indices":[2,3,4,0,6,0,0,0,0,7,2,0,0,0,3,0,10,0,0,7,6,0,0,0,0],"split_type":[0,0,0,0,0,0,0,0,0,0,0,0,0,0,0,0,0,0,0,0,0,0,0,0,0],"sum_hessian":[4.6E1,4E1,6E0,2E0,3.8E1,4E0,2E0,1E0,1E0,1.3E1,2.5E1,3E0,1E0,3E0,1E1,2E0,2.3E1,9E0,1E0,1.3E1,1E1,1.1E1,2E0,3E0,7E0],"tree_param":{"num_deleted":"0","num_feature":"15","num_nodes":"25","size_leaf_vector":"1"}},{"base_weights":[6.2038266E8,-8.3239885E8,9.040905E9,5.0221425E9,-1.2614047E9,4.654375E9,6.669077E8,4.8371795E8,-1.07057256E8,-2.4691197E9,-5.6258086E8,2.578006E8,6.619566E7,-8.033608E8,-2.850385E9,-2.1304158E8,-1.3224141E9,-4.557394E7,-1.1975168E7,-1.5113248E8,-2.8193486E7,-9.819471E7,1.0846425E8,-1.03933544E8,-4.5292586E8,-3.447488E7,3.679937E7,-3.8452225E6,-2.6385254E7],"categories":[],"categories_nodes":[],"categories_segments":[],"categories_sizes":[],"default_left":[0,0,0,0,0,0,0,0,0,0,0,0,0,0,0,0,0,0,0,0,0,0,0,0,0,0,0,0,0],"id":54,"left_children":[1,3,5,7,9,11,-1,-1,-1,13,15,-1,-1,17,19,21,23,-1,-1,-1,-1,-1,25,-1,27,-1,-1,-1,-1],"loss_changes":[5.8248513E20,1.0931186E20,6.9869337E19,1.2068971E20,3.1526143E19,1.5273008E18,0E0,0E0,0E0,6.601459E18,6.6236516E18,0E0,0E0,2.5550176E16,2.6283606E18,1.0908289E19,4.3189674E18,0E0,0E0,0E0,0E0,0E0,9.020032E18,0E0,1.00010135E17,0E0,0E0,0E0,0E0],"parents":[2147483647,0,0,1,1,2,2,3,3,4,4,5,5,9,9,10,10,13,13,14,14,15,15,16,16,22,22,24,24],"right_children":[2,4,6,8,10,12,-1,-1,-1,14,16,-1,-1,18,20,22,24,-1,-1,-1,-1,-1,26,-1,28,-1,-1,-1,-1],"split_conditions":[8.50362E10,2.8669202E10,8.953833E10,3.64693E10,5.6566755E10,5.494861E10,6.669077E8,4.8371795E8,-1.07057256E8,6.9021834E9,4.3715453E10,2.578006E8,6.619566E7,4.507964E10,5.750759E10,3.4425086E10,5.616637E10,-4.557394E7,-1.1975168E7,-1.5113248E8,-2.8193486E7,-9.819471E7,6E0,-1.03933544E8,8.292644E8,-3.447488E7,3.679937E7,-3.8452225E6,-2.6385254E7],"split_indices":[2,3,4,0,6,0,0,0,0,7,9,0,0,0,3,2,3,0,0,0,0,0,10,0,5,0,0,0,0],"split_type":[0,0,0,0,0,0,0,0,0,0,0,0,0,0,0,0,0,0,0,0,0,0,0,0,0,0,0,0,0],"sum_hessian":[4.6E1,4E1,6E0,2E0,3.8E1,4E0,2E0,1E0,1E0,1.3E1,2.5E1,3E0,1E0,3E0,1E1,1.8E1,7E0,2E0,1E0,9E0,1E0,2E0,1.6E1,3E0,4E0,7E0,9E0,1E0,3E0],"tree_param":{"num_deleted":"0","num_feature":"15","num_nodes":"29","size_leaf_vector":"1"}},{"base_weights":[6.085262E8,-7.9298E8,8.730416E9,4.896588E9,-1.2103062E9,4.486454E9,6.446774E8,4.7162493E8,-1.04380824E8,-2.2480225E9,-4.680659E8,2.4813302E8,6.454067E7,-7.7758054E8,-2.5275415E9,2.4203746E7,-1.4556306E9,-4.405487E7,-1.1675751E7,-2.74114E9,-4.5091636E7,-2.327721E8,1.0339543E8,-1.17735704E8,-4.4523766E8,-1.4526498E8,-2.7488666E7,-5.4696704E7,2.5053185E6,6.9834075E6,-4.4086544E7],"categories":[],"categories_nodes":[],"categories_segments":[],"categories_sizes":[],"default_left":[0,0,0,0,0,0,0,0,0,0,0,0,0,0,0,0,0,0,0,0,0,0,0,0,0,0,0,0,0,0,0],"id":55,"left_children":[1,3,5,7,9,11,-1,-1,-1,13,15,-1,-1,17,19,21,23,-1,-1,25,-1,27,-1,-1,29,-1,-1,-1,-1,-1,-1],"loss_changes":[5.4191832E20,1.0327701E20,6.583091E19,1.1473061E20,2.8986935E19,1.203068E18,0E0,0E0,0E0,4.6109032E18,1.1702787E19,0E0,0E0,1.9530625E16,2.0421801E18,9.409458E18,6.219015E18,0E0,0E0,2.3598158E18,0E0,3.9524801E18,0E0,0E0,1.3996867E18,0E0,0E0,0E0,0E0,0E0,0E0],"parents":[2147483647,0,0,1,1,2,2,3,3,4,4,5,5,9,9,10,10,13,13,14,14,15,15,16,16,19,19,21,21,24,24],"right_children":[2,4,6,8,10,12,-1,-1,-1,14,16,-1,-1,18,20,22,24,-1,-1,26,-1,28,-1,-1,30,-1,-1,-1,-1,-1,-1],"split_conditions":[8.50362E10,2.8669202E10,8.953833E10,3.64693E10,4.8535454E10,5.494861E10,6.446774E8,4.7162493E8,-1.04380824E8,6.9021834E9,7.170296E10,2.4813302E8,6.454067E7,4.507964E10,5.7808118E10,6.6598806E10,4.7848255E10,-4.405487E7,-1.1675751E7,5.750759E10,-4.5091636E7,4.268008E10,1.0339543E8,-1.17735704E8,5.1843617E10,-1.4526498E8,-2.7488666E7,-5.4696704E7,2.5053185E6,6.9834075E6,-4.4086544E7],"split_indices":[2,3,4,0,4,0,0,0,0,7,0,0,0,0,2,0,2,0,0,3,0,1,0,0,1,0,0,0,0,0,0],"split_type":[0,0,0,0,0,0,0,0,0,0,0,0,0,0,0,0,0,0,0,0,0,0,0,0,0,0,0,0,0,0,0],"sum_hessian":[4.6E1,4E1,6E0,2E0,3.8E1,4E0,2E0,1E0,1E0,1.5E1,2.3E1,3E0,1E0,3E0,1.2E1,1.6E1,7E0,2E0,1E0,1E1,2E0,1.5E1,1E0,3E0,4E0,9E0,1E0,3E0,1.2E1,2E0,2E0],"tree_param":{"num_deleted":"0","num_feature":"15","num_nodes":"31","size_leaf_vector":"1"}},{"base_weights":[5.982568E8,-7.535742E8,8.4306586E9,4.7741747E9,-1.1594633E9,4.324665E9,6.2318816E8,4.5983437E8,-1.0177126E8,-2.1527196E9,-4.489814E8,2.3882794E8,6.292726E7,-7.526328E8,-2.4179218E9,2.6004782E7,-1.4022044E9,-4.2586316E7,-1.1383808E7,-2.6197883E9,-4.358854E7,-2.2439629E8,1.0081055E8,-1.1332063E8,-4.3039702E8,-1.3872806E8,-2.680146E7,-5.2645532E7,2.3896222E6,6.7506175E6,-4.2617036E7],"categories":[],"categories_nodes":[],"categories_segments":[],"categories_sizes":[],"default_left":[0,0,0,0,0,0,0,0,0,0,0,0,0,0,0,0,0,0,0,0,0,0,0,0,0,0,0,0,0,0,0],"id":56,"left_children":[1,3,5,7,9,11,-1,-1,-1,13,15,-1,-1,17,19,21,23,-1,-1,25,-1,27,-1,-1,29,-1,-1,-1,-1,-1,-1],"loss_changes":[5.0399305E20,9.752526E19,6.20177E19,1.090658E20,2.6555405E19,9.162802E17,0E0,0E0,0E0,4.121084E18,1.0902891E19,0E0,0E0,1.4161297E16,1.7736618E18,8.924376E18,5.7432946E18,0E0,0E0,2.0603616E18,0E0,3.6585172E18,0E0,0E0,1.3079312E18,0E0,0E0,0E0,0E0,0E0,0E0],"parents":[2147483647,0,0,1,1,2,2,3,3,4,4,5,5,9,9,10,10,13,13,14,14,15,15,16,16,19,19,21,21,24,24],"right_children":[2,4,6,8,10,12,-1,-1,-1,14,16,-1,-1,18,20,22,24,-1,-1,26,-1,28,-1,-1,30,-1,-1,-1,-1,-1,-1],"split_conditions":[8.50362E10,2.8669202E10,8.953833E10,3.64693E10,4.8535454E10,5.494861E10,6.2318816E8,4.5983437E8,-1.0177126E8,6.9021834E9,7.170296E10,2.3882794E8,6.292726E7,4.507964E10,5.7808118E10,6.6598806E10,4.7848255E10,-4.2586316E7,-1.1383808E7,5.750759E10,-4.358854E7,4.268008E10,1.0081055E8,-1.1332063E8,5.1843617E10,-1.3872806E8,-2.680146E7,-5.2645532E7,2.3896222E6,6.7506175E6,-4.2617036E7],"split_indices":[2,3,4,0,4,0,0,0,0,7,0,0,0,0,2,0,2,0,0,3,0,1,0,0,1,0,0,0,0,0,0],"split_type":[0,0,0,0,0,0,0,0,0,0,0,0,0,0,0,0,0,0,0,0,0,0,0,0,0,0,0,0,0,0,0],"sum_hessian":[4.6E1,4E1,6E0,2E0,3.8E1,4E0,2E0,1E0,1E0,1.5E1,2.3E1,3E0,1E0,3E0,1.2E1,1.6E1,7E0,2E0,1E0,1E1,2E0,1.5E1,1E0,3E0,4E0,9E0,1E0,3E0,1.2E1,2E0,2E0],"tree_param":{"num_deleted":"0","num_feature":"15","num_nodes":"31","size_leaf_vector":"1"}},{"base_weights":[5.879462E8,-7.159843E8,8.1412613E9,4.65482E9,-1.1107645E9,4.882713E9,6.923137E8,4.4833853E8,-9.922703E7,-2.062991E9,-4.2966512E8,2.684212E8,6.1353984E7,-3.3244502E8,-2.2864658E9,1.454106E9,-6.6701274E8,-2.607319E7,1.1398144E6,-2.5434412E9,-2.4820462E7,1.0767667E7,9.829028E7,-3.8567526E8,-1.3529668E9,-3.567698E7,-1.32246424E8,-5.489351E7,5.130054E6,-8.463746E7,8.648602E6],"categories":[],"categories_nodes":[],"categories_segments":[],"categories_sizes":[],"default_left":[0,0,0,0,0,0,0,0,0,0,0,0,0,0,0,0,0,0,0,0,0,0,0,0,0,0,0,0,0,0,0],"id":57,"left_children":[1,3,5,7,9,11,-1,-1,-1,13,15,-1,-1,17,19,21,23,-1,-1,25,-1,-1,-1,27,29,-1,-1,-1,-1,-1,-1],"loss_changes":[4.687319E20,9.210219E19,6.252305E19,1.0368069E20,2.4407482E19,4.0660028E18,0E0,0E0,0E0,5.427607E18,1.1700515E19,0E0,0E0,2.1332927E17,5.17742E18,1.4782648E18,3.7238546E18,0E0,0E0,3.412884E17,0E0,0E0,0E0,6.024357E18,3.4037197E18,0E0,0E0,0E0,0E0,0E0,0E0],"parents":[2147483647,0,0,1,1,2,2,3,3,4,4,5,5,9,9,10,10,13,13,14,14,15,15,16,16,19,19,23,23,24,24],"right_children":[2,4,6,8,10,12,-1,-1,-1,14,16,-1,-1,18,20,22,24,-1,-1,26,-1,-1,-1,28,30,-1,-1,-1,-1,-1,-1],"split_conditions":[8.50362E10,2.8669202E10,6.8409086E10,3.64693E10,6.06905E10,1.7008604E11,6.923137E8,4.4833853E8,-9.922703E7,4.1688674E10,5.5751574E10,2.684212E8,6.1353984E7,3.3464582E10,5.750759E10,4.646198E10,6.6598806E10,-2.607319E7,1.1398144E6,6.9021834E9,-2.4820462E7,1.0767667E7,9.829028E7,5.2626338E10,5.616637E10,-3.567698E7,-1.32246424E8,-5.489351E7,5.130054E6,-8.463746E7,8.648602E6],"split_indices":[2,3,5,0,6,2,0,0,0,3,8,0,0,0,3,0,0,0,0,7,0,0,0,4,3,0,0,0,0,0,0],"split_type":[0,0,0,0,0,0,0,0,0,0,0,0,0,0,0,0,0,0,0,0,0,0,0,0,0,0,0,0,0,0,0],"sum_hessian":[4.6E1,4E1,6E0,2E0,3.8E1,5E0,1E0,1E0,1E0,1.5E1,2.3E1,4E0,1E0,2E0,1.3E1,2E0,2.1E1,1E0,1E0,1.1E1,2E0,1E0,1E0,1.6E1,5E0,1E0,1E1,6E0,1E1,4E0,1E0],"tree_param":{"num_deleted":"0","num_feature":"15","num_nodes":"31","size_leaf_vector":"1"}},{"base_weights":[5.827373E8,-6.7738624E8,7.8802125E9,4.5384484E9,-1.0612354E9,4.693541E9,6.750061E8,4.3713005E8,-9.674639E7,-1.9781492E9,-4.057414E8,2.5768443E8,5.982003E7,-7.068508E8,-2.2171528E9,3.5714228E7,-1.2931169E9,-4.013759E7,-1.0478695E7,-2.400422E9,-4.0305732E7,-2.016361E8,9.5832984E7,-1.0530217E8,-3.841524E8,-1.2692102E8,-2.5510912E7,-4.914642E7,2.7136E6,6.3625215E6,-3.837522E7],"categories":[],"categories_nodes":[],"categories_segments":[],"categories_sizes":[],"default_left":[0,0,0,0,0,0,0,0,0,0,0,0,0,0,0,0,0,0,0,0,0,0,0,0,0,0,0,0,0,0,0],"id":58,"left_children":[1,3,5,7,9,11,-1,-1,-1,13,15,-1,-1,17,19,21,23,-1,-1,25,-1,27,-1,-1,29,-1,-1,-1,-1,-1,-1],"loss_changes":[4.375368E20,8.690222E19,6.199824E19,9.856147E19,2.2637612E19,3.489331E18,0E0,0E0,0E0,3.2943172E18,9.447869E18,0E0,0E0,2.252171E16,1.4267835E18,7.975999E18,5.102329E18,0E0,0E0,1.5741444E18,0E0,3.2523697E18,0E0,0E0,1.0779018E18,0E0,0E0,0E0,0E0,0E0,0E0],"parents":[2147483647,0,0,1,1,2,2,3,3,4,4,5,5,9,9,10,10,13,13,14,14,15,15,16,16,19,19,21,